{
  "config": {
    "device": "cpu",
    "random_seed": 42,
    "experiment_name": "graph_refactor_ppo_corrected",
    "data_path": "data_builder/dataset/graph_features",
    "discriminator_path": "results/discriminator_pretraining/pretrained_discriminator.pt",
    "results_dir": "results/ppo_training",
    "max_episode_steps": 10,
    "num_actions": 7,
    "reward_weights": {
      "hub_weight": 5.0,
      "step_valid": 0.01,
      "step_invalid": -0.1,
      "time_penalty": -0.02,
      "early_stop_penalty": -0.5,
      "cycle_penalty": -0.2,
      "duplicate_penalty": -0.1,
      "adversarial_weight": 0.5,
      "patience": 15,
      "node_penalty": 1.0,
      "edge_penalty": 0.02,
      "cap_exceeded_penalty": -0.8,
      "success_threshold": 0.03,
      "success_bonus": 2.0
    },
    "node_dim": 7,
    "global_features_dim": 4,
    "shared_encoder": true,
    "num_episodes": 5000,
    "warmup_episodes": 1000,
    "adversarial_start_episode": 1001,
    "gamma": 0.95,
    "gae_lambda": 0.95,
    "lr": 0.0001,
    "clip_eps": 0.2,
    "ppo_epochs": 4,
    "target_kl": 0.05,
    "max_grad_norm": 0.5,
    "value_loss_coef": 0.3,
    "entropy_coef": 0.02,
    "rollout_episodes": 32,
    "minibatch_size": 128,
    "min_mb_before_kl": 2,
    "hidden_dim": 256,
    "num_layers": 3,
    "dropout": 0.3,
    "normalize_rewards": true,
    "reward_clip": 5.0,
    "log_every": 50,
    "eval_every": 200,
    "save_every": 500,
    "num_eval_episodes": 50,
    "early_stopping_patience": 300,
    "min_improvement": 0.01,
    "epsilon_start": 0.3,
    "epsilon_end": 0.02,
    "epsilon_anneal_episodes": 2000,
    "entropy_coef_start": 0.03,
    "entropy_coef_end": 0.005,
    "entropy_anneal_episodes": 2500,
    "use_cyclic_lr": true,
    "base_lr": 0.0001,
    "max_lr": 0.0002,
    "clr_step_size_up": 96,
    "clr_step_size_down": 96,
    "clr_mode": "triangular2",
    "use_curriculum": true,
    "curriculum_bins": [
      20,
      30,
      45,
      66
    ],
    "curriculum_episodes_per_stage": 600,
    "curriculum_mix_back_ratio": 0.1,
    "sampling_without_replacement": true,
    "coverage_log_every": 100
  },
  "training_stats": {
    "episode_rewards": [
      0.0,
      -0.2083333333333334,
      4.918857403695656,
      4.913709043458042,
      -0.5969021672601151,
      -0.23866878493218532,
      2.0308298892139534,
      2.594746273998687,
      3.1456256369418254,
      -1.0561697278081814,
      -1.0031926427847255,
      -3.688731672971343,
      -3.7742339054993317,
      -1.9026467458811431,
      -1.644934085068729,
      4.628306099501953,
      -0.4291857309257411,
      -0.288308384957377,
      4.953566142497012,
      -0.9034917294229574,
      4.41144158295297,
      1.8366678181923257,
      2.013497956448413,
      -1.5252437048367204,
      -0.21650356023893602,
      -5.897703086084323,
      -2.1404502670746055,
      -1.4102003386222555,
      -1.1419285443007952,
      5.149126584912064,
      -1.3128651197185763,
      4.958676620430239,
      4.0761187509937775,
      -1.4335099061602241,
      1.6835800275631132,
      -1.2525338504979449,
      -1.5921380607442877,
      -1.1280075003273102,
      1.7332169696921425,
      -0.3665151327117314,
      2.940287409268171,
      -1.1951535983258446,
      0.5038804541868789,
      2.1519278669857185,
      -2.2877785016294037,
      1.4254772101329203,
      -4.024409900015896,
      0.2949799858683797,
      -3.4202290392256915,
      2.1007084077805853,
      -1.4997795235759153,
      2.2488557898750736,
      2.038403044803289,
      4.465470441745456,
      -1.5567101009535993,
      3.1673507315245892,
      -0.7097043594559981,
      1.0875784260702646,
      0.979505845352439,
      2.1378570441493867,
      2.5693348959699818,
      1.08315523857363,
      -3.311487122020596,
      -1.285411020126631,
      -5.221757482365465,
      1.8552614870919908,
      -7.143677816892156,
      2.1272554293184642,
      3.7074467210228295,
      -6.799609558984377,
      -1.1852621567218493,
      3.5424576209499046,
      3.573350181747186,
      1.8175609689931238,
      -0.6031676162505007,
      -1.3421608801086675,
      1.7718446131618424,
      -1.2894198128587562,
      -1.211324520999816,
      -0.6314389656670256,
      -1.1819694213909764,
      -0.19845799052927182,
      -0.8272815831708651,
      -1.6667823163584923,
      2.887834223197912,
      2.5209375370987073,
      -0.5151979124875358,
      1.4416973451311237,
      1.2551270150832785,
      1.1952030929508008,
      -3.655940249581601,
      -1.2002612099103929,
      1.6461373392308556,
      0.3208143980523742,
      1.3037362247170927,
      -0.3374478706620403,
      1.546540156091702,
      2.3137074545409733,
      -3.8996035247995113,
      1.497160968916791,
      -1.2988490269647774,
      0.1448227622089736,
      -6.878486553884802,
      -1.0675647020068513,
      2.149040573057044,
      -2.188186131358991,
      2.00915133715335,
      0.3307134247667005,
      -1.1709621605973988,
      0.7354294865651719,
      0.933383020605856,
      2.304871470936638,
      2.6240832423200686,
      2.712309520708265,
      2.1652058431329726,
      2.486305735449591,
      -1.119452662916278,
      1.619330569248164,
      0.11239341924979196,
      -2.4857416258139216,
      2.347015215005993,
      -1.3255853026938174,
      -5.255937680313375,
      -1.7582771062638067,
      -0.2455386137452248,
      -1.125340912308995,
      -2.5697261843039683,
      2.9167464780562478,
      2.4086863031713888,
      1.7526750993418276,
      2.7744322092388,
      0.22689615872271718,
      1.089843902370262,
      -0.7505160967916209,
      2.570914287184447,
      -0.17524172414987405,
      -2.7129005501229218,
      0.30917052427245895,
      -2.8237031072483374,
      0.05626858386571909,
      1.3079414151823072,
      2.0875367226406256,
      -2.536445556892583,
      -1.7526118591910929,
      -2.188488092287111,
      0.9032680109359781,
      -1.1943117924588693,
      1.9452846113200475,
      1.3159201621489207,
      -1.2082726527149386,
      1.8369489412287068,
      -1.2323395691817927,
      0.6267156355038896,
      -2.285178151896681,
      -2.0957508545395545,
      1.5873390802765794,
      1.9806574325884414,
      3.7585266007036964,
      -0.8184818912174374,
      -0.9044295113940763,
      1.3196145143943556,
      1.297222199418576,
      -7.68937935653503,
      1.602898964262325,
      -2.0722654982427677,
      -1.0438505074758058,
      -1.7219876122100677,
      1.846771328405902,
      2.158583263255864,
      1.7129272046580433,
      -1.2011094289270012,
      -1.218298171009341,
      2.3235807481948942,
      -1.2339835927857907,
      2.8584474515330522,
      -3.327702441773634,
      2.6365132424129714,
      0.5258168868661754,
      0.8300271226962384,
      1.379701230111072,
      0.09189537623613786,
      1.6270025620053812,
      1.5013190418575735,
      0.010235678118912905,
      0.7553113505179307,
      -1.9903885357054938,
      -4.356573030711675,
      -0.36091622757671327,
      -1.1238749685063658,
      -0.5715282038828755,
      0.8353164478582966,
      1.644883151721659,
      1.1908944374681876,
      1.5175983482991562,
      -6.871282121567024,
      -1.162702410922397,
      1.1387155653496683,
      -1.190154079870437,
      1.4615482686118235,
      1.556964292977621,
      2.7316595820433816,
      1.2044004426497423,
      1.4582198619831606,
      -4.5625869078452865,
      1.96289759407551,
      1.1359386705241175,
      0.38614730431711264,
      1.9870019191625607,
      1.8356440981611732,
      0.6716256814282144,
      -4.2002188136717375,
      0.11618983067756083,
      1.0957430886755812,
      1.0025008243367632,
      0.9722900355486511,
      1.4360488736028847,
      -1.3167903298987604,
      -0.4044158832578082,
      -1.149523089758572,
      1.5942860776362187,
      1.4757600085391709,
      -0.8292252057861825,
      1.8138450285473287,
      2.183275905077475,
      -3.584608434781145,
      -2.1661887460955467,
      -1.2182824537742867,
      1.9095481897245856,
      1.2800865692701966,
      2.1594084102527065,
      0.46152227629829,
      1.5079616500709074,
      -8.485336166322988,
      1.0916222907997408,
      -7.356610410592659,
      -1.1571963183072953,
      3.134869500557563,
      2.224269345954191,
      0.5617936029123911,
      2.411070948986357,
      -6.211190931220095,
      2.9900877972114266,
      2.4067358581916958,
      1.2903653634836985,
      -4.55728024899571,
      1.8338186489519783,
      1.087821674923279,
      -2.8562382771171353,
      1.3112231596861428,
      2.143135718807309,
      1.0707901170001861,
      -0.3228166114513611,
      1.9938168905839841,
      -4.310084867977703,
      2.4196489605338183,
      -2.194218204106217,
      1.983800273081307,
      1.25156038617991,
      -5.666414104082518,
      -1.268224998300849,
      2.053968144413376,
      1.862523693218135,
      -5.228146315076925,
      1.8993302761405335,
      -4.738754678223938,
      2.1947789635187376,
      1.8276232678778688,
      1.729439871715947,
      -0.6439706980603095,
      0.4716521603253836,
      2.248967981374933,
      1.196551242965006,
      -0.4529764815053915,
      -2.9890728019380948,
      2.346226418657344,
      2.4115902666760882,
      -1.4761187889902607,
      1.4527184851673538,
      -2.4940806458203215,
      -2.679593835315278,
      -7.169737250398418,
      2.1752712264825798,
      1.9569486047333968,
      -1.2047692193741133,
      2.109124338767612,
      2.650755032781781,
      1.1687560948918376,
      2.1174918054653515,
      2.121403403594549,
      1.0301508655466125,
      1.8442356431116276,
      0.591210874221356,
      0.7518264704976063,
      -1.4610500494081988,
      -1.3615830036690009,
      1.3601667525963073,
      2.053657330470067,
      1.114902422061714,
      0.2864594617946181,
      0.6048323959261572,
      1.937988168132627,
      0.9738113771348678,
      -0.28864961059775907,
      1.276655383107827,
      0.17975165168066654,
      -9.564659444879092,
      2.1110829790509302,
      1.9095247221052611,
      0.7275180617304863,
      -0.42650907954191775,
      -1.4703304586759502,
      1.5340106580300537,
      0.9418574073281374,
      -1.3330913438537226,
      0.8032229204373469,
      1.4055459490700533,
      1.0778507933118981,
      1.2446122517176819,
      1.6788909508674166,
      0.6158029043400135,
      1.0581921291290037,
      -1.240766138092233,
      1.0764539786970821,
      -0.5141949402636551,
      0.3654736273099328,
      0.35472217578623766,
      -3.97866897297995,
      1.9650915602584083,
      -0.3531703574749865,
      -6.002090229415819,
      0.7083682510721669,
      -3.19648201664628,
      -2.1338998366650217,
      1.7956104341009762,
      1.4499780195658272,
      -0.622758755164898,
      1.2945192796583471,
      -0.27798884374334665,
      1.317045258817594,
      1.0492254882004541,
      1.4506322158625564,
      0.3315189749026533,
      0.9230749284740414,
      1.0731468304514953,
      1.0157699873175206,
      1.3019614598790616,
      -1.9177521181496577,
      0.941935338242845,
      -0.9607270488390759,
      -3.23427412752439,
      1.8974949390015075,
      0.4976127528312615,
      -0.4887111096565998,
      0.8114625410726211,
      -1.6069540457701985,
      0.5846982048692614,
      -0.04577957566009633,
      0.2893025373357691,
      -2.150649218266506,
      -1.5720118623648835,
      -0.7002338488247917,
      -0.6339935934042523,
      0.6617386191600125,
      2.413821890736955,
      1.36384744865667,
      -1.802057904372155,
      0.6384990825511818,
      0.6859149597440615,
      -4.670809074493926,
      -1.5034957178133521,
      0.6247842463319884,
      0.2684946161825785,
      1.3534356012372024,
      0.7979382619985286,
      1.0481883724225876,
      -8.86090306813553,
      1.019998516582954,
      1.2311245349854907,
      -1.2327605290724608,
      1.757561254981417,
      0.36908208674860105,
      1.418100230589659,
      1.6164898958497769,
      0.7984252257883796,
      -1.4252324803534355,
      1.2212952032286697,
      1.4366187383800841,
      -5.324051793770715,
      1.3428399447863517,
      -1.1447922312367673,
      1.555690771692111,
      0.817508287703917,
      0.559110559820911,
      0.7793498604828367,
      1.4312865754587516,
      0.8926996145632419,
      2.4268763442990338,
      0.8277743176068046,
      0.15413635218167915,
      0.12834765005300028,
      -10.626288177945515,
      1.3203230968379427,
      0.6219558601012986,
      1.2030976782464369,
      1.35173578526472,
      0.5833775402623133,
      1.0408629430935574,
      0.8364399166518233,
      0.8032714019138072,
      1.1931642732854548,
      0.25014445625745935,
      -0.14193864175057502,
      0.7150755161751484,
      0.79653786539112,
      -1.6473793264848526,
      -2.7081844265469894,
      0.9757335664742597,
      0.7761942250956755,
      0.25218505004061526,
      -8.112231495050361,
      1.5684467246128933,
      0.5282517520632306,
      1.9223564121084382,
      1.0468228956813146,
      0.8483299364472575,
      0.8785069937411134,
      1.648027959816502,
      1.0552978705871836,
      -0.18108119083210572,
      -0.484186323610343,
      0.5188662091282856,
      0.16965743549327614,
      -0.4715909716071054,
      -0.15858284650423493,
      -0.7297479441111624,
      0.2721795043993894,
      -1.4046669817857917,
      0.5246012032850721,
      1.4162888529283864,
      1.3261218435438127,
      0.4362198238397411,
      0.12356710277421962,
      -1.0957156353657511,
      -0.30877533605072127,
      -0.3458017716286816,
      1.0979916509707677,
      -2.018254733112028,
      1.980262824796442,
      -10.561689647373218,
      1.5850714782689703,
      -0.3286443705607214,
      -4.78662993639779,
      1.9083980929196125,
      -0.1505340535612094,
      0.22551669725167722,
      1.7320331608362063,
      2.132529582622012,
      1.4549276424871196,
      1.3593070866929462,
      1.7304240003074198,
      1.1002615241115818,
      1.0628329745116505,
      1.03258603337748,
      0.31306475506338355,
      0.9537046510448011,
      0.2914311880213957,
      -1.2406770874542923,
      1.0327584435514012,
      0.9599512402004969,
      -0.8311798603423755,
      -0.06859599705722799,
      -1.1338254866820219,
      -0.42886874213715387,
      1.2121654388590881,
      0.2462207784531603,
      -11.307384418966938,
      -1.2935231159720109,
      -0.4788096224622056,
      -5.291204155610812,
      1.2619578266199885,
      2.4369636762468336,
      1.6969243416855515,
      -0.20650695852111012,
      0.4090203519202845,
      0.565941927157004,
      -6.0725649311755285,
      0.933243129098365,
      -0.36083578959902873,
      1.6421447173189496,
      0.9216243129717081,
      2.487997970743529,
      2.2127340761773175,
      1.4790444528568563,
      1.4025325891329696,
      1.2648106702046675,
      -1.1759552156186615,
      -1.1199193450016387,
      0.23277375987485605,
      1.0726550578200515,
      1.2063809123292604,
      0.3568515600903213,
      1.1570491461819665,
      0.5775008435365336,
      -1.9003990114287004,
      -1.3572533010226684,
      1.126494195161884,
      1.8909924759693588,
      0.9301111157864859,
      -1.6864965431474503,
      -0.09002587959882802,
      1.266125921344146,
      0.8924038430307272,
      0.7228252536220591,
      -3.166795535209812,
      0.7138937785346083,
      -0.11173862925673483,
      1.2758658616715142,
      -1.0499080753747287,
      1.3169824953520626,
      -0.28892011637167203,
      -0.5529771493276286,
      0.5262590570324884,
      1.0368770203720572,
      0.37186515268804343,
      0.3642565725660133,
      0.8010171864131239,
      1.3558487595155997,
      1.269768085346146,
      0.601776822408156,
      -4.559229771176162,
      0.2916303030330849,
      1.3727795209710179,
      0.07746012593704955,
      0.9943537887343108,
      -10.046595949233476,
      1.0814089711635093,
      2.05102026912707,
      -1.1686162767543347,
      1.886678425714891,
      1.2109646110068075,
      1.1654948389680686,
      0.6860823950051206,
      -5.901431339350047,
      1.0388748048490593,
      1.2346102911360421,
      -0.7040213580275245,
      0.9735583997545469,
      1.182266511865413,
      0.16860745200341773,
      0.9926573044820117,
      1.6239505049410907,
      -1.938652482088626,
      -3.1855516334092218,
      0.06570468410021846,
      0.6298507990258105,
      1.1127637749391823,
      1.8210525082064841,
      -9.97926960236452,
      1.562112757235656,
      -6.055717834084596,
      1.6183794591421012,
      0.9768281506775776,
      1.2400334393048835,
      0.22843149160941956,
      0.8506886872316879,
      0.32809872243441984,
      0.28699628539319033,
      -0.302748832597046,
      1.1767527613303175,
      2.1691611471041568,
      1.0388070392993267,
      1.8934304475116184,
      0.7793993332029534,
      -1.34816150062522,
      -1.9354712304914896,
      0.5477331382183479,
      1.6020490990156733,
      0.5971536507266655,
      -3.3075422583337963,
      1.8099581533499671,
      -1.6339355891578862,
      -2.6634081808821333,
      0.7005880704210323,
      -0.16147686028716263,
      2.586547512908437,
      1.4711513424374099,
      0.5668805532696432,
      -0.6848371651427209,
      1.4606585887322596,
      -0.8814926494424777,
      -2.814254297729079,
      1.4576320310898068,
      0.914489499104558,
      2.5612027092343634,
      -1.544968609488221,
      1.7882839139515732,
      1.0770125870425267,
      0.4140414077702361,
      1.0100447715281489,
      1.1924234832374732,
      1.1243360386560124,
      0.5741793172607988,
      -2.275448263544331,
      0.9017952831298728,
      1.5909987886114287,
      1.5104520323478257,
      0.4927724527443528,
      1.3775306562905119,
      1.3232929922137724,
      0.6259888318170549,
      0.46434196137739653,
      0.5763689721020777,
      -10.312576512199293,
      1.1138042874806822,
      -6.748282693079489,
      -1.404992852704912,
      0.6640771087491947,
      1.3626415918470716,
      -1.2593882361487616,
      0.8028843349326262,
      1.6006094788144705,
      1.0216906009915223,
      1.437116411711428,
      0.47936620411668857,
      0.7890915328297877,
      0.49993638366892285,
      1.0303146323827508,
      0.7047468742932553,
      -1.7696223261517825,
      -1.2223190087595919,
      0.669512688148781,
      1.446003960217037,
      0.9199748188198963,
      0.1760314420535276,
      0.2771383628025478,
      -8.0644143322349,
      1.6459801250343669,
      0.3227020322976246,
      1.9707148611997898,
      1.3066398848315488,
      1.1768940900333973,
      -0.768608930458625,
      0.898859456293559,
      0.30799160363462236,
      0.3031416409937166,
      0.7953620664639095,
      0.5948733508636119,
      1.697388580276656,
      0.99709916791946,
      0.693323129208425,
      -0.1256647033770693,
      0.7072379822662678,
      0.21178706340585954,
      0.6941925424220338,
      -1.6067052317125379,
      0.2891333383253579,
      0.693211526737389,
      1.046900723140411,
      0.690187896900245,
      0.45271317154622165,
      -1.8697627488115023,
      0.24231239330073495,
      -1.4597366220330215,
      1.1512198586706002,
      0.72805130209045,
      -2.3060938192414895,
      0.46643079826613576,
      1.117993027539767,
      -0.178806250709792,
      0.7460377330349214,
      0.7192098084467292,
      0.692767529170068,
      -0.46851210612712424,
      -3.781369901593404,
      -9.042370966772253,
      0.9334655594326969,
      1.0544513483038853,
      2.079737873946451,
      1.3276548785497224,
      -3.6460159585533125,
      0.3105021012507368,
      2.0319252651804285,
      1.8434294659779455,
      0.4256976026527879,
      1.1413242831252837,
      1.10641002898062,
      0.9972386511484082,
      0.10828991263927852,
      -8.578472103279683,
      0.2134163853974771,
      0.8088057162311244,
      0.6231240457494033,
      0.18962177727000734,
      1.0986583333063868,
      1.3780787230301252,
      0.29591582776412567,
      0.7441976011772251,
      0.41436956518522294,
      -2.1092979481658483,
      1.2873367090744254,
      0.48428457421590404,
      0.44264071499045676,
      0.39149767137088626,
      1.3087889603197658,
      -0.04023632527023271,
      1.2267334837302941,
      1.1558636077696758,
      -1.3707608520001457,
      -1.052447687336426,
      -2.5424899740726152,
      1.0410554188599903,
      1.9877916790424273,
      -8.622575538411535,
      1.439204035402049,
      0.45383566764590555,
      -2.3219527983057775,
      -6.515571576885563,
      0.9061319560830633,
      -0.22805908097969407,
      0.9707390020227439,
      1.3363959563832608,
      1.216167101410387,
      1.5909648574942847,
      -5.359067656593263,
      1.4339607310251086,
      1.3415969259404408,
      -1.3661528574350916,
      1.294925414618233,
      1.9790168835653719,
      0.8978430172754133,
      0.5504172982231995,
      0.6301484533186706,
      0.5140887460826632,
      -6.216958510467094,
      1.5757757005323556,
      -1.2002117916488004,
      1.047828243038991,
      0.7913186641057187,
      1.9020773748261728,
      1.3069787057137934,
      0.7974484051850026,
      1.2270698541069502,
      -1.5520886635707483,
      1.2098947583344284,
      1.1139196360609973,
      1.5405757578094226,
      0.07864082891629501,
      0.26158097473424696,
      -0.7281797569665931,
      0.39538403811436645,
      0.3877191401500289,
      1.0822261805794782,
      0.766143263416245,
      -1.925647952205035,
      0.07077815574314443,
      0.6226269367308401,
      0.6312365242595481,
      -0.5295762280538743,
      0.08651701357500075,
      0.39224248820082847,
      0.1648715374609163,
      0.470963177213013,
      0.6528934877827417,
      0.5198462620943467,
      1.220472725860675,
      -0.13581108264717037,
      0.5870631289548137,
      0.5704997947198333,
      0.06550326359962329,
      0.8214002755836174,
      -0.4955468781186694,
      -0.27779771279056176,
      0.8717121812672075,
      1.2227876245518678,
      1.2315495395435387,
      0.048490398677530265,
      1.168254110161771,
      1.1032990774798488,
      1.0425963964794427,
      -3.1354120469625615,
      0.08667116447778443,
      0.05092234521810596,
      0.7084923809131595,
      -0.24854596144073385,
      2.0007451126444598,
      0.5902414775141925,
      0.57006345150772,
      1.041629442838652,
      -0.19630604985849512,
      1.0165470530503913,
      0.47646829273157254,
      0.991099011897644,
      -0.3284059086095782,
      -0.4989466887724345,
      -0.5047497269938366,
      1.0956434811173639,
      -0.9068634653512433,
      -0.130436628095528,
      0.2727029625604306,
      -0.8946049873266139,
      1.110874650823402,
      1.0992968979381472,
      1.0935600489261728,
      1.0430680552050084,
      0.9347956666023554,
      -7.416686552889457,
      0.3331762158676573,
      0.16300554053691713,
      -3.5036784394819294,
      1.205855903260453,
      -4.765397022020015,
      -1.781582496135329,
      0.36376936580814695,
      -0.11244371758359294,
      -2.2911251679942253,
      0.21137795916230168,
      0.8208445612448139,
      1.4773874183264482,
      -10.323311235846337,
      -0.19436842043306668,
      0.46096036967241233,
      -1.824933634805401,
      0.2315040688348582,
      1.5687116200108746,
      -1.1517996746976455,
      0.4153134304826921,
      0.9821584203863917,
      2.240252484167626,
      0.8691483189069601,
      1.4110657955363606,
      -2.093163899632067,
      0.5230444350878872,
      -10.385667804258581,
      1.813866497748696,
      1.1449329290584063,
      2.120869703052766,
      -0.6457646552206496,
      -1.467104469217739,
      0.8664053240596101,
      1.4115918471486213,
      0.869912800644012,
      -0.24587631705288282,
      1.3023819133324694,
      0.4093939569275216,
      1.291681821972725,
      -0.6853804150865246,
      -1.3969210372093928,
      0.29040502340399754,
      1.1313211429941183,
      1.0766506849111994,
      0.43286340250851935,
      0.5276297288617091,
      0.39794982452486594,
      0.8115733705091902,
      1.3703915764064982,
      -10.924801074420735,
      0.5461428567109952,
      1.594375111755434,
      1.9779708211078249,
      -0.8236348748613382,
      0.8633348579520935,
      0.3401885246302122,
      0.4058823512014126,
      0.5703371687246237,
      -0.33403501839890715,
      1.0211953680536257,
      1.4100372855784111,
      0.3491349968347905,
      -4.638579146187079,
      0.5992516562711929,
      1.6181080071689256,
      1.15829322433395,
      0.8993782481765408,
      1.4049878240518703,
      1.8839748852062754,
      0.39672466996249334,
      0.25495941409983236,
      0.16601608591400574,
      0.3270791477962012,
      1.9122972564210072,
      1.1339858005484147,
      -3.1865221271047273,
      0.8917691697425972,
      0.28031954171840023,
      -3.421028577044245,
      1.4590678965538104,
      0.5424627799703754,
      0.17860044610289066,
      0.3633102585593388,
      0.16530013918845662,
      1.4192151938884454,
      -0.03788487303793625,
      -3.7783164685150368,
      2.391130991532644,
      1.427941806207793,
      1.3371790605243636,
      -1.5846901397787654,
      1.2715417682467034,
      0.10362039640410753,
      1.1724315620849042,
      0.13427761815562378,
      1.9274001827353102,
      -0.272832463256106,
      1.1249956800802767,
      -0.7245700525806849,
      -0.2892504187965411,
      0.46655928802872976,
      1.9381186327016156,
      -2.891301201082453,
      1.732964310389767,
      0.4933359939567688,
      0.33290092347815287,
      1.65310619440278,
      0.45784522779429354,
      0.45065685710140085,
      -0.3117645900329761,
      -0.11195277977190995,
      0.4991013043039287,
      0.49533034989002866,
      0.1971952368377072,
      -0.1868342867423065,
      0.1653209210219546,
      1.0671909049907995,
      -13.714542612016889,
      0.062218279390431834,
      1.8918735435840504,
      0.797559085287035,
      -1.250112921660669,
      0.5055419444851119,
      -0.06275022490618958,
      0.026455220311484527,
      -0.06713178346160921,
      1.3157622326329315,
      1.888774881561835,
      -2.375200011071957,
      -0.6758378614296647,
      -0.013853772248607253,
      1.750365780443458,
      0.25474825242540144,
      0.7234090305461244,
      1.6498043805820324,
      -0.27500363464015665,
      1.5899228044186973,
      -0.26547603711115353,
      -1.4934487235337626,
      0.42123068362334953,
      -3.537471055901181,
      -0.7355055602724372,
      -5.574730182484471,
      1.0618316327271748,
      1.0026420987710494,
      1.297329554796855,
      -1.8964852243015244,
      -6.999418548688099,
      -0.5731246748002465,
      1.238394256381344,
      0.3318794597305874,
      0.8124514498341722,
      -0.854959436251161,
      0.5783695528372158,
      -0.407497176027668,
      0.7325660711397532,
      -5.784182113427205,
      0.7055399967509699,
      1.2185936623372506,
      0.01840092339738786,
      1.7776400839535673,
      1.1414535312290954,
      2.0969595340439438,
      0.8298214795061186,
      1.3673324484989744,
      -1.6208903898952196,
      1.3133842446567103,
      1.2312429315636086,
      0.7836133608043719,
      0.8483517023998253,
      -0.9251949593518801,
      1.1339321962262723,
      1.0762667039783531,
      1.0193378608126777,
      0.29919843071368846,
      0.7959817539217109,
      -1.759755991829985,
      0.03411110503452858,
      0.7560388088266647,
      1.0345692819197736,
      0.13812551366262085,
      0.48431034909277265,
      0.9663438535433996,
      0.7617882095792621,
      0.10066034198676498,
      -3.2847987685791757,
      0.6081175272642454,
      -0.09204360128820532,
      0.6036626601233245,
      -1.3403545726688137,
      -0.06833371262694968,
      0.15159081955353043,
      -3.0120081099532623,
      -0.6378192658056737,
      0.253449937282962,
      1.714373646535575,
      0.046056723444859025,
      -13.10084562664194,
      1.8091834506642417,
      1.6590374972370436,
      1.029130179737683,
      1.483153779927545,
      -1.234339485559289,
      -1.6027324161218606,
      2.1312089544756065,
      -8.687615887018332,
      2.2278993337892623,
      1.535950508830165,
      0.7357578594860773,
      0.5129650486818917,
      1.9000189000641827,
      0.5141958787017049,
      0.8330559870882122,
      0.7997469618526996,
      0.8766813421311339,
      0.7310576300577278,
      0.09050726979907471,
      1.1689132936129378,
      1.129477535825991,
      0.7328525738762607,
      -1.2186379752358556,
      0.06759172356665101,
      1.7688838402204985,
      1.0267457595979754,
      0.13384144305208875,
      0.7299504267544602,
      -0.12242040016775929,
      0.5024697082461024,
      -0.1484447634176921,
      -0.18664637592058073,
      0.8183093758783482,
      1.505145166649117,
      0.6856828846260962,
      1.072159219712367,
      0.6117423585163437,
      1.0090135764844173,
      0.5388259656374937,
      -0.044458036755688636,
      0.4675588879691277,
      -0.5814782634534251,
      0.9774910174654291,
      -4.630941365330006,
      0.7096290944350766,
      -0.37345213079078693,
      0.33877765676622873,
      -0.07112214574762486,
      -0.3693645631023252,
      0.8205192083524275,
      0.12132903009966337,
      -0.4813232921727583,
      1.3861353526211522,
      0.06957419556503383,
      -2.994227015274245,
      -0.3466333173045761,
      -7.230720393888046,
      2.426436441320277,
      1.4429775825524114,
      0.9192504520916017,
      1.3106091450285466,
      -3.8468036867079296,
      0.38816641634377075,
      0.7316911579149163,
      0.6868634801749874,
      -0.13336571028975033,
      -1.7275074420904768,
      -4.792093060787998,
      1.2199823843204423,
      0.21408445751070349,
      1.512689227989828,
      1.0165888144273187,
      0.7036374392459716,
      0.22763777573183538,
      2.068326546264823,
      0.2592182668845228,
      0.8320896016546422,
      -0.24328726252401542,
      0.5769893767323951,
      -0.27511455000502744,
      1.338031384200004,
      0.10076321958212062,
      0.5160878489543553,
      -6.618785306961879,
      1.361545348347922,
      -3.1278891340324257,
      1.505491267011592,
      0.4443805159138043,
      1.0376472167362978,
      1.3694629981763955,
      0.15770974924161477,
      2.0870629508365774,
      -0.26469317955585536,
      0.5336173428784527,
      -3.35183120908893,
      1.2202994255815243,
      1.8659774968605132,
      -1.024390373039664,
      1.0177845778000505,
      0.017524267959605214,
      1.0449339723179523,
      -3.597984909764389,
      -0.11718990483111896,
      0.6511052125075072,
      -3.552170815656144,
      1.4316934300773554,
      0.9520553984043466,
      0.9033080210973498,
      0.3016537669587228,
      0.05708833648796534,
      0.15645587546550366,
      -2.1166659467968856,
      -5.211486886447709,
      1.2580543218455327,
      1.5846308991572016,
      -2.692847700355221,
      0.2027769326637098,
      1.6829733239838005,
      0.9070576804496397,
      0.907456931825641,
      0.8680661265655524,
      0.662796807713444,
      1.077529973914144,
      -3.6072919845277807,
      0.9505545513159223,
      -2.5391692142253834,
      0.1460847648440576,
      1.676282372425918,
      0.8402903272474711,
      0.11685807929170294,
      0.34380375818982223,
      -3.9800899129639475,
      0.9670671671719243,
      -4.682375081211033,
      1.7939220105703813,
      2.296345934485756,
      0.41798744362950835,
      1.462626698792582,
      -8.78642587939902,
      0.8963229912071821,
      0.5852263498814543,
      1.2789583181563184,
      0.7034409439787884,
      0.8060173618115944,
      0.9006325767289619,
      1.213054288306715,
      0.17252952933176446,
      1.0151447337181208,
      -2.0222331861924348,
      1.0120377215318996,
      1.30093295840671,
      -0.7787134497177705,
      1.9024140289675453,
      0.6535293554588034,
      0.827491877827584,
      0.15890427871084925,
      -0.07688279059571344,
      0.1207705855440599,
      0.34011208191827674,
      -0.12977019079486016,
      0.3930438211972419,
      -1.781316508170039,
      -0.023495436525502275,
      2.2168777308717234,
      0.8939769017773732,
      -1.7926512460081745,
      0.3536480552365686,
      0.3838708774542252,
      0.7007604786217874,
      0.6388833989659941,
      0.11406933388784982,
      0.6838371198868411,
      0.09524347125567549,
      -2.1479443291998215,
      0.8546739102339312,
      1.2572780042865626,
      0.7135223679715027,
      -3.1800628628439416,
      0.22178737344596886,
      -0.10382874841095736,
      1.1113366372450753,
      -2.986939519148749,
      -1.1609321656756701,
      -1.947290444021561,
      1.0129998322843656,
      0.09792729438109576,
      2.4828242758186225,
      0.27558523001795354,
      -2.2182566424298975,
      0.5734417035346251,
      0.01789283589332847,
      -4.051397044903757,
      -0.3277698009881129,
      1.3371743294007958,
      1.6702842450494073,
      1.538863796259456,
      -2.716440098277539,
      1.2311082922085383,
      -2.5727090611079286,
      0.29616316196402825,
      0.575438101420549,
      1.2963831390381566,
      -1.9593153692631808,
      0.5713157898469962,
      1.1050749463313096,
      -0.5256731742298142,
      0.9489232291783387,
      1.6020496579348744,
      0.02431876403512014,
      1.1247254639334627,
      -2.53432887003742,
      1.4953079407273013,
      1.3907313578616656,
      1.2348419736397553,
      -0.062361590976989935,
      0.6289177515168258,
      -1.2605264985419662,
      1.0773052403389123,
      1.2429842102708866,
      -1.5975865138508776,
      0.17784501462318514,
      -0.10454739142978223,
      0.9214327373094902,
      1.291563291432537,
      -1.7123712942336309,
      0.9139955703564879,
      -1.0782208167356742,
      0.4225966282692515,
      0.2768199189155004,
      -1.7942734601524664,
      -2.2899581282202908,
      1.5673898564002071,
      0.9453191383751718,
      -0.0870924445841503,
      -10.422199942018093,
      1.273900003475574,
      -1.0396590157330996,
      0.9521391939496155,
      -1.1289184091266566,
      0.855946153890022,
      0.027272351493468336,
      0.6450205201241457,
      1.8134749499487606,
      -1.6941135350598397,
      1.7987522879891729,
      -5.957822584681263,
      -6.934401095065437,
      0.9070146336843669,
      2.0485243710064944,
      1.0861836571359293,
      0.8164120231739862,
      -1.595753669102815,
      1.2907190980314773,
      1.3928417352508453,
      0.9449793971041169,
      1.68210516017193,
      1.9841409153982494,
      0.2671861241184995,
      0.24218223796554708,
      1.042894984823484,
      0.7088250014968959,
      -7.480127178023958,
      2.0443981881130036,
      0.8365790948923982,
      0.8911131745101248,
      0.325643752483424,
      0.27389790749244475,
      -0.7684748173937925,
      1.3865404347718098,
      0.41948408657645814,
      0.8328264991434806,
      -0.672392285713879,
      0.23448981677903402,
      0.6102476529567714,
      1.3141013965464272,
      0.7675698819022805,
      -2.05108823267385,
      -7.925882419524221,
      1.3073844191953983,
      1.5763042465168868,
      -5.275030863191341,
      1.6536589721922514,
      0.6928349225379147,
      1.653795893943838,
      0.8182444134974896,
      0.723221745511373,
      0.6974871230484975,
      1.5777698331160566,
      1.316624219930805,
      0.5624857385013574,
      0.6908060393316746,
      1.2789208300653703,
      -7.520147019536603,
      0.4303282769987443,
      1.4692865714568368,
      0.5677371683534541,
      1.3442987833900863,
      1.2868921983000003,
      0.20727684783474043,
      1.760326822438584,
      0.6129437248193972,
      1.6569021037208875,
      1.5280549673258863,
      0.10232238924296139,
      0.10402595341229684,
      0.5218504905868196,
      1.5512548890529008,
      -0.07610015624075729,
      0.9330742909571509,
      0.9978678754264002,
      0.11625733147956091,
      -0.37522431438944365,
      -0.33426355846656536,
      0.5944825875472876,
      -4.280729649741102,
      1.0694740298436005,
      0.21344928563800747,
      0.17844395114819409,
      0.04646596634048221,
      -2.1075101291875518,
      -1.5332137226621623,
      1.3676482055563772,
      1.9392194126594882,
      1.1295639052723119,
      -0.189212386250188,
      1.121801808310448,
      -2.0839055535915136,
      -0.028506910466470827,
      0.8110151562562955,
      -0.07122093721239461,
      -0.2585777855278566,
      0.5582476862613621,
      0.8560515121521793,
      -6.6285665136287975,
      0.49750984778212604,
      -3.1863625661474697,
      1.7140045635726624,
      1.538219726640298,
      -0.05093276117834078,
      0.9547827761767832,
      1.3065933085942039,
      -0.11791962243046417,
      -3.4830148923163216,
      1.4813395154686884,
      0.9671168692097635,
      0.3791176316595911,
      0.9373864121907113,
      1.3241918743821868,
      1.2396002140914013,
      0.6668301257177219,
      0.7224733341165809,
      0.4109398841908466,
      -0.0959719347206529,
      0.7394384243845235,
      -0.1474912343622755,
      -0.4439442077866835,
      -0.12339781621821744,
      0.5065394454447317,
      -5.084202316515267,
      0.8987291091506916,
      -3.0056417844485734,
      -1.7257038692887043,
      1.5912322266870054,
      1.3562804139588411,
      -0.04807064113939786,
      0.9113028948246857,
      0.49180971766135606,
      -4.11261224960251,
      1.0669445779667661,
      0.7228593094677551,
      -0.13159951540980033,
      -14.456395571153525,
      0.6690225979684657,
      2.2683699937825317,
      0.717487725015685,
      0.9972613793193967,
      1.135658934564914,
      0.6482708222516101,
      1.0596378703217626,
      0.5452486811498168,
      0.17064742123684307,
      1.4919467021899062,
      1.8579954404731867,
      0.34192176721940254,
      -2.858106459652175,
      1.3007014860212465,
      -2.3070793534200025,
      0.5687039742356789,
      1.4412353672615643,
      1.3096357064388338,
      0.1874160552008862,
      1.0605123256093067,
      0.8808550806783988,
      0.6199810663983976,
      0.5660361410484522,
      1.869481158840849,
      -0.1784785290736356,
      -3.614736224178144,
      1.4306913011724542,
      0.8260545421627906,
      2.7252303609897384,
      0.09643744439719365,
      0.6121089672295406,
      0.9885970797398638,
      -2.287522867832089,
      1.736425632836883,
      -0.15739592964050692,
      0.32452026091190345,
      0.9466873988455813,
      -0.48473392681877825,
      0.9504516677614724,
      1.1081456139659849,
      0.23206804880210163,
      -5.04058237412856,
      -1.0547902441355477,
      -0.23997400404655303,
      -9.549787181662717,
      -0.25788157898168185,
      0.5079546782171043,
      -4.552413118182175,
      0.5500571102547575,
      1.046118886057982,
      1.9960522391475526,
      0.6921947882764312,
      0.2738547602451427,
      0.3221718058155622,
      0.6144331519532177,
      1.3635593296361834,
      0.4913893226956157,
      -6.626409709774541,
      1.2424984767871932,
      1.1052018533888452,
      0.8652665547130289,
      -0.3737800700652636,
      0.5197600042593707,
      -0.9159623088197925,
      0.037585117449671177,
      0.764690141052852,
      0.7335729837509551,
      1.5384744757589808,
      -3.984631531437345,
      0.8501319868864857,
      0.37844630486619985,
      0.677352287910396,
      0.35366357608565346,
      0.7328452359813035,
      1.1915800402041232,
      0.9160631333688024,
      -1.279103381828568,
      1.4451613388377704,
      0.8461822078415657,
      -1.1568519568844444,
      1.9579780490631156,
      1.1955414778036846,
      1.1437734417532321,
      -4.273380529207422,
      0.6354293085773929,
      0.7109149367539606,
      1.7312887955475313,
      0.1606160107396279,
      0.7883472415647484,
      -3.9670937247264684,
      1.2707897563264938,
      0.98662472261549,
      0.03346628917119459,
      -6.845529366773907,
      1.3498478628273851,
      1.019922116896514,
      1.2672974607403167,
      0.17669488242395007,
      1.2270953238075353,
      1.1467824931728277,
      0.39312757986910474,
      0.8023470847510618,
      0.7714005361820094,
      0.298705412124813,
      0.24597730215389874,
      0.35102938873971035,
      0.16012316217480244,
      1.1673359585581717,
      0.5096813986419375,
      -2.8529937539494927,
      1.1638044021321428,
      0.14700830048555832,
      1.2056187408884633,
      1.0987099099214042,
      -0.061082844321003464,
      1.7962966945723273,
      0.09801395827030045,
      0.9737177495903805,
      -2.360621557513308,
      0.4654458640906152,
      1.7408169522411763,
      0.33018462064647947,
      0.34418502092072295,
      -0.46817915455272663,
      -0.13486408526515498,
      1.0910180838645704,
      -6.22514496769954,
      0.4667219239121855,
      -3.34492221138277,
      0.37921120515355944,
      1.313154997872407,
      0.21332374266430507,
      0.8905595365801945,
      -5.01067817622334,
      0.5163664426924168,
      1.334977275800803,
      1.0417910686373506,
      0.3323992159881115,
      1.2433031435147572,
      0.8063845252669201,
      0.3762828894127086,
      0.042707022367429924,
      1.1469064879875175,
      0.7541311311346774,
      1.7884259214626927,
      -0.3068743864644307,
      -5.510630519127867,
      1.2748072150258203,
      1.0950578978560275,
      0.9828209421269725,
      1.5676276069664299,
      -0.04117392440277212,
      -6.377686495300846,
      -3.357024998777556,
      0.5357405112275723,
      -0.9498683278225932,
      1.4637006374474533,
      1.2437367947989661,
      0.6863463453903876,
      1.2813294849650922,
      0.35753617621701744,
      0.5921480484007798,
      0.6047372355363182,
      1.0599349340785706,
      0.512763480839127,
      -0.14128378016428522,
      0.7521364854826909,
      0.7322361656445164,
      1.040413436707492,
      1.022028482343896,
      -0.13983585297889106,
      0.45515010382269144,
      0.9618360396545991,
      -0.3252348071875521,
      -0.20757984116516714,
      1.082568475614326,
      0.953840351226145,
      0.2598103076956357,
      0.4101381194859854,
      -4.93969925068246,
      -3.9574449584355,
      -0.0841468736226478,
      1.4494618368785586,
      -0.12890313163339376,
      -3.1897259563040827,
      2.006516320369521,
      0.624526154217733,
      1.3130862736379736,
      -1.535123877789001,
      1.0928666272435577,
      -2.1658681867586793,
      0.6244345676308062,
      0.11597035445189528,
      1.3889346500605981,
      -3.4400798570733704,
      1.3119385639889636,
      1.1980003289280312,
      0.7952257635937248,
      1.2487851757891164,
      1.6756074478563534,
      1.0542834935158052,
      0.4653842566184211,
      0.8930774917551573,
      -8.899625954738623,
      1.0985672804225808,
      0.7469575898050483,
      -0.033665996215830066,
      -2.7997674506985417,
      0.8946565023409105,
      -3.122756556419631,
      0.6421519179378922,
      1.5026518510262552,
      -3.831841224331462,
      -5.503346723092142,
      2.1276669992755304,
      1.4200580834034722,
      0.40716922220239365,
      0.7663799794025858,
      1.3261622599043539,
      -5.0614941459538825,
      1.973061936902116,
      0.5827954324414041,
      0.6354148498535087,
      -0.7435400129482126,
      0.9966899992164353,
      -1.60739070901438,
      0.8376190292778797,
      1.0694532606486746,
      1.2326761931447276,
      1.7945957418342346,
      0.3966622758013976,
      1.507280201296869,
      -0.8050732874000757,
      0.9724455151085094,
      0.7817916256110156,
      0.05704155078575656,
      1.2322229358126102,
      0.6445295155325816,
      0.6558581844858222,
      0.8401279360660763,
      -1.0800064998257153,
      0.14407715665219112,
      -1.2181447771673857,
      0.693083054854795,
      1.172604969370056,
      1.1362128170099208,
      -3.1947301055034503,
      -4.282500439758916,
      0.24279799510575775,
      0.6259835853829914,
      1.394779278018452,
      1.4010788280945463,
      1.2132443370118935,
      -5.705995539728223,
      0.8681017433211335,
      0.5721185649284463,
      0.4491942990689342,
      -3.7192137730852854,
      1.148436468241757,
      1.3975134767195032,
      1.3051243595043325,
      -1.6975495408049472,
      -1.5647384858944493,
      1.2752452673939747,
      0.44775590843147794,
      0.5680416005204394,
      1.1864051824594049,
      0.48538112644530484,
      1.2664520890091941,
      -1.9817994633735918,
      -0.6054793246267579,
      1.356459875633061,
      0.3728209898004511,
      1.2339407522919887,
      1.2147988848566174,
      0.16171389165926417,
      0.6450065657113196,
      0.3558669875097837,
      -0.07434318023518025,
      1.2605322129648422,
      0.9396563956508162,
      0.2570732779648828,
      1.1079987130284665,
      1.1182347118007352,
      -0.28232281288066297,
      0.24719383183854465,
      1.84020055729517,
      -7.458198467692025,
      1.1698776186900284,
      0.7745524631522592,
      1.1825743890586027,
      0.6817861599069481,
      1.0027561481172709,
      0.8955255431049595,
      0.9147670043152628,
      -0.2543786840239896,
      0.4886449486843661,
      0.3349972164804413,
      -5.463558781066432,
      1.6282706247287893,
      0.18783442092808023,
      0.44796666807148056,
      0.9836149972436694,
      1.0595954184866434,
      0.8980682118831453,
      -0.1838682992987166,
      -0.11406214456591215,
      -0.1435443016287853,
      -0.13264553195255685,
      -0.3884977777669495,
      -0.16952808828178528,
      -6.0105567532198965,
      1.2898896507178808,
      0.16144957445426197,
      0.15726214291250312,
      0.5027886920744683,
      1.2888804422594355,
      0.5680648583173963,
      -0.3022815929732752,
      2.0169046634606858,
      0.45568592336728186,
      0.0205508062593756,
      1.3241034955591795,
      0.35104501435967134,
      1.0861252733021882,
      -2.305325482406511,
      0.2605237623442086,
      -0.32330469849664045,
      -0.1935505452726118,
      1.3813973358538665,
      -10.389874073815577,
      1.2560376634803412,
      0.7016298899345204,
      0.6462975305146488,
      -0.7742894513499852,
      0.2735926935791358,
      0.723978353691226,
      -2.757160361351886,
      0.5775489411377487,
      1.4703341454184187,
      1.0079487258328486,
      0.6941702200873056,
      0.48958936008006554,
      1.3614223067504359,
      1.2373395852557554,
      0.7919922686255562,
      -0.1888483506903818,
      1.9469121163990524,
      -5.9775183767665965,
      -0.5714484054645727,
      0.963116167257863,
      1.2770445698010717,
      0.6835439636527463,
      1.238206916430809,
      -2.2795574493097384,
      1.2754118788931217,
      -5.087950136100208,
      0.9600138357999082,
      0.3198008612970664,
      0.9380011644276088,
      1.2189261650754577,
      0.1213205768447398,
      1.3374828391706606,
      0.28477900593960537,
      1.284659890003506,
      0.4657833791256181,
      0.48940427674349163,
      -0.2884788668542056,
      -3.9305473298066755,
      0.5555269695844283,
      1.4017682781487537,
      1.126699633764603,
      0.4848577096416286,
      -3.7974515408272094,
      0.6705231557852648,
      1.2517933913267087,
      0.04063183280372477,
      0.2665376162202506,
      0.26325306424829503,
      0.014469527258431878,
      0.916115337453643,
      0.36898191952516585,
      -6.196069116601575,
      0.51167445950638,
      1.4325760238966894,
      0.5771849705282868,
      1.2667023670540127,
      0.5054721460506735,
      1.2676423449214091,
      1.1570228218875038,
      -0.2919858671044216,
      0.38852354911986475,
      -0.2880183655844684,
      1.2352630109676561,
      1.9161798494009439,
      0.7002424330296747,
      0.29481404950012896,
      -4.317752944906392,
      0.028972240456609694,
      1.1739435384323988,
      0.06423794312518608,
      0.49583757423580377,
      0.7425330859053206,
      1.1881861048675304,
      -0.15810530975151774,
      -0.4662185048261768,
      1.2288958373690773,
      1.073211042773211,
      1.2446804176438457,
      1.0305929125592346,
      -0.7073987481198044,
      -0.23764049451104483,
      0.2638551455950775,
      1.0560334140862853,
      1.0494975125693424,
      -0.4785288019641596,
      -5.956332302947466,
      0.04907748462468942,
      0.4591561327118127,
      1.1431817535375794,
      -0.5791377604552971,
      1.2172868492594475,
      0.6427595812672523,
      0.6213716743533088,
      1.0411563118081446,
      -0.24940448089704192,
      0.5901328527608941,
      1.1261799117495548,
      1.0601438825879093,
      -0.4859094260028014,
      -19.796411281239628,
      1.085853898471963,
      1.0307939423397827,
      0.837845360114303,
      -6.50941385937462,
      0.8035164444394547,
      1.2712835891144594,
      0.6111355197166071,
      0.34982644090093734,
      0.9799710369738137,
      0.5283297505817529,
      0.9000476787859593,
      0.8760337916285256,
      -11.088329329107959,
      2.0587071213408557,
      0.8901453846656524,
      2.0819088984627943,
      0.9188757148686737,
      1.0706145836304004,
      0.6957662145286894,
      0.58171953912428,
      0.9879273912404828,
      -3.4433617332868014,
      0.8299998344474664,
      0.32177947132194257,
      0.31866589035812193,
      1.9466320013429155,
      0.5240777779504885,
      -1.746710099191766,
      0.6700243000367002,
      0.22752859283123988,
      1.8627815124991987,
      0.4570599317605633,
      0.8769256724447391,
      1.1346773959990428,
      1.6356239490684708,
      -2.734192317060148,
      -2.006076651065024,
      1.9010668519164513,
      0.64833033593371,
      1.733555458556611,
      0.09812977827062705,
      1.081678527358316,
      0.7037087030903153,
      0.22557027152613987,
      1.1582007080409196,
      1.584258997693619,
      0.5364186538936033,
      -13.726422129084154,
      0.8635319732916023,
      -5.053366519756983,
      1.004738528794798,
      1.2031249447059804,
      -0.2273108043311215,
      0.8743448444412687,
      0.713440651711733,
      0.6886320386881738,
      1.298560270456746,
      0.2106116570578459,
      1.0139183399818676,
      0.4769844864357296,
      0.545386993269273,
      0.46703288572430035,
      1.3074602805414859,
      1.3812497462374373,
      0.6520300432916766,
      1.4742352834643628,
      0.39036182116876533,
      1.4024276584850608,
      -0.11757544058160946,
      -1.391479488596786,
      -4.342143999487636,
      -0.4101907338278714,
      1.0533308018058682,
      1.910083470489491,
      0.20905524604608372,
      0.5775769283364478,
      0.41271972933984646,
      -2.969854120511995,
      -0.754521151638485,
      1.5223077560660607,
      0.7231725972064911,
      0.6105365864758376,
      1.399036620893483,
      0.94539640986508,
      0.32448474295314955,
      -3.56821427127839,
      -6.203727755474425,
      0.9256323217420761,
      0.5053855987135113,
      1.1900597015381074,
      0.6552899612996426,
      0.45036108900736993,
      0.7922457981636768,
      0.1620634186044162,
      1.864355391837436,
      -2.947872881442751,
      0.24050193540043047,
      0.9719255331638402,
      1.8849770971457405,
      1.3897579675850644,
      0.41754277584998245,
      1.0655588488240908,
      0.35365389020951526,
      0.08298354156833813,
      0.6598283734271486,
      -8.889992400848325,
      1.5148301495042082,
      0.4642523838467461,
      -11.47688245197556,
      1.0750832848180039,
      1.2396359013752267,
      0.6193498561468939,
      0.5520862911342935,
      0.9346980260714813,
      1.1100708211292678,
      -8.232254651490647,
      0.8711406402623563,
      2.434699729438863,
      1.7601248463501886,
      1.3428359281756723,
      -0.4117227509772329,
      1.111157457441352,
      0.8064039605419149,
      0.798811063234802,
      1.3129353625720823,
      1.4410075767639765,
      1.4416189384800238,
      0.455544739867222,
      1.54343937105509,
      1.6882421005400716,
      0.12118781314506667,
      1.3568383049831343,
      0.4626993660692903,
      0.23265427395452165,
      -4.431932402053414,
      1.4871129562857002,
      0.35741958277285263,
      0.5727915818208894,
      1.119967053341303,
      -12.27905162238737,
      0.7656034573735007,
      -1.7267460207572527,
      2.0588593003274607,
      0.3242238319929338,
      1.2999285110636138,
      0.9947770676673136,
      0.2891775998476368,
      0.568079648751879,
      1.7400502029713758,
      1.6007784588588942,
      1.4840648239781116,
      -9.202684095590847,
      1.4636146871681683,
      1.131980662205656,
      1.769107308702304,
      0.250716739417536,
      0.49396430145755005,
      0.9157824818667923,
      1.257863243048228,
      0.2435143996045035,
      0.8232794139427072,
      -7.2072486855224644,
      -3.4951119079966446,
      2.0204661697015087,
      0.9401119165574762,
      1.3432910645712042,
      1.7108819140482214,
      1.2139964818221938,
      0.8056204190810496,
      1.0154902922201936,
      0.9888790135846743,
      0.6263013822005553,
      0.8859115262481709,
      0.3812745497383231,
      -2.454314410655173,
      0.7571865876990759,
      0.5638762303266838,
      0.32742503819151864,
      0.4568602257276236,
      0.5162162002745025,
      1.0431775059810997,
      0.47917491442679017,
      -1.4418033925029605,
      1.6889873932388537,
      -0.10474801790386701,
      0.484933411698642,
      0.17430886432697254,
      0.48561699310599726,
      1.0837951736552425,
      -0.3224243024615032,
      -8.856174348506803,
      0.1902139617128038,
      0.7960236217829886,
      0.20496735838241434,
      1.1059526542981464,
      0.9251411585319258,
      1.5371359034777532,
      0.6315384326142155,
      0.30713817126226384,
      0.7835483812917726,
      -3.1701435782090592,
      0.7649678136899765,
      0.7890207626815359,
      0.54324557536471,
      0.8767941639284331,
      1.9097103690032715,
      0.02113844438731487,
      -5.372725640739126,
      1.3134402483410828,
      0.4578473246273461,
      0.29071141110919096,
      1.6074893657095537,
      -3.290309483328665,
      0.09483313940167681,
      1.41089757489487,
      1.9744959666464739,
      -0.17728676387014122,
      1.2191968605433792,
      1.1463545198164513,
      -4.0178116655782645,
      0.11843645854766023,
      -3.112629062691445,
      1.6438534015015847,
      0.37615482576118126,
      1.4234017501189848,
      0.6845277464686638,
      1.250591173752502,
      0.977207498257501,
      0.8712378308782488,
      1.171834509795432,
      -9.328501648855154,
      1.384072845420572,
      1.168364091357213,
      0.2526862963002833,
      1.1630440945918985,
      -7.046127120927757,
      1.309857826601931,
      0.7614887678145552,
      0.22071098009925497,
      1.241760290541478,
      0.10357688813757648,
      -0.6016717309004296,
      1.3250011141307827,
      -5.214948931195907,
      0.898217530556374,
      0.46104024612328526,
      0.7217326991371313,
      1.31569444029321,
      1.2347562242594006,
      0.09838414687734602,
      1.8145386771999656,
      0.8071413752839204,
      0.5646173929729466,
      -0.02228946723672241,
      0.6091200047074613,
      1.1499486156455998,
      -0.14951377478371994,
      -1.5008725282237982,
      0.3473415277890978,
      -1.290417164350794,
      1.9183360174815034,
      -7.730666884648607,
      -1.1585396218772452,
      0.9833526490171046,
      0.8615767377629954,
      -1.7574869402775675,
      -9.722403236125537,
      1.9028480459718125,
      1.7134592545246905,
      0.9402407855147141,
      1.0943930213513904,
      1.4042305593889428,
      1.7005437328245678,
      0.33419453692928963,
      1.0988633916199493,
      0.30153841526533115,
      -9.86904807795013,
      2.3014815834357965,
      1.581706009124722,
      0.5270671812440392,
      1.0762369908820535,
      0.6646006390371035,
      2.008577922762471,
      1.297740418691336,
      0.5633725799421464,
      0.272390847687509,
      -1.8449154072009404,
      1.4505251980911877,
      1.4071372226730794,
      0.985300230780832,
      -0.7048861353508842,
      1.378203695035285,
      1.2855266338399463,
      -2.475729684312059,
      0.17788588410707112,
      0.42200169147558436,
      0.8216310965767604,
      1.4455035726632985,
      1.3492326244923896,
      -0.07118042228207731,
      2.0341928581323505,
      1.1960592954500477,
      1.7769743514426557,
      0.9676037516937057,
      -0.17364971569988738,
      0.6066733726948353,
      0.04960851230464435,
      -4.24916288148274,
      0.18861412774120534,
      0.23012502192076734,
      0.2671979715742256,
      -0.22048649465523903,
      1.7679649177861994,
      -0.31462468084189027,
      -2.922567314947098,
      0.6501437378250278,
      1.3000590940730186,
      1.5814366784119078,
      -10.452802017259867,
      1.2804484238177358,
      1.3514558448134684,
      1.1697598654822423,
      -7.404715190911022,
      0.40232256521713183,
      0.9120210199692591,
      0.8839822393975736,
      0.5831631039403538,
      1.821919007025495,
      0.16010523198120818,
      -0.40933104538213105,
      0.37675091412498846,
      1.0191950474882123,
      0.7511845919156519,
      0.5003487287115844,
      0.3408626937755893,
      1.2587029024004985,
      0.8894294544857991,
      0.9768375570248427,
      1.1669782141449325,
      1.040491798165837,
      0.18982768507277414,
      -13.636228332392816,
      1.0079294790652706,
      -2.3650618020745213,
      1.6060638003622199,
      1.231969533745736,
      0.4301737072157853,
      2.015257522890279,
      -0.17032480435402134,
      1.42439657508994,
      0.656501609212401,
      0.5460220220319814,
      0.5471149027739477,
      1.430779724823335,
      1.2349388743821073,
      0.1673258117108659,
      0.06640659705517063,
      1.366737631423797,
      0.8109371258645286,
      1.4606309451193444,
      -6.323861197246151,
      0.5530570871425523,
      0.09271125827927014,
      0.11145496924718362,
      0.1925771688891992,
      1.67643958132379,
      0.8843924075743831,
      0.8458923438685707,
      1.7726346737604188,
      0.23521697521774065,
      1.1849496098378207,
      1.0070025706301997,
      -5.045389275030933,
      1.3754346759875082,
      1.0136473248591678,
      0.9646882694958974,
      -0.18935278169765724,
      -0.018795969173132313,
      1.014996623885268,
      1.0679991399402102,
      -0.30198613848897327,
      -3.754205132853366,
      -0.018225191399436874,
      0.6533587455336409,
      1.191684779070323,
      0.4084528125652924,
      0.057500291413273404,
      1.5485441507097961,
      0.23706421327022653,
      0.45865794325305426,
      -0.333880641194851,
      -0.048991244001974535,
      0.7769181279843062,
      0.739657737024058,
      0.7168714211949202,
      1.1746074881615673,
      0.30505934859422323,
      1.1132912066031377,
      -0.6583579600395331,
      1.2761600933393547,
      0.5505054774402303,
      -5.550484835504884,
      -0.07179659812735695,
      1.3623433218245116,
      0.03049791886975222,
      1.5994773495120684,
      1.217733132597789,
      -0.11741890035708853,
      1.0640519446256909,
      -0.33207681675530115,
      1.0596511478886426,
      1.8248741435274174,
      -3.260475671435645,
      -0.25022453250617455,
      1.7025993597291798,
      -4.781490625702346,
      0.6543218816925671,
      0.4993678954558892,
      1.0252260635892536,
      -0.4645745035276868,
      0.6153749478665778,
      1.7648245891287364,
      1.618857460216504,
      -9.857953379838492,
      -11.119852177244043,
      1.5811620682268421,
      -5.137894394069837,
      -0.8904413051513694,
      1.570470520022465,
      1.4583168773090809,
      0.2658047757126775,
      1.8165965375718638,
      1.3516292342658236,
      1.56215934771114,
      0.6270768690913047,
      0.1652571749818419,
      1.4146417629784176,
      0.7580910691386726,
      1.393140846307462,
      1.3018997583743117,
      0.44367868526229176,
      1.656789355116267,
      -10.67592142003153,
      1.0447063027768646,
      -5.031449037921601,
      0.7890893737231048,
      -3.9642450217775096,
      2.4098257075906853,
      1.1637064042040193,
      0.9890918131363341,
      0.7309010977922236,
      2.0409643626684146,
      1.5648279685862903,
      1.4802319085965303,
      1.3782271205406602,
      1.1042011932968518,
      1.2317744055016595,
      1.1571958562019509,
      1.0703152326277856,
      0.5826136791837804,
      0.03558975927574001,
      0.3581868982091648,
      0.7867322111249341,
      1.350601957316932,
      0.9911751302098544,
      0.08218881591754389,
      -7.2579620086124255,
      0.2214647960511994,
      1.239101398199299,
      1.3122078530387584,
      0.15547924183048564,
      1.1806669031522496,
      1.1149162295292137,
      0.25874941274474533,
      0.7563013436158189,
      1.1575698666439322,
      -2.822693888697236,
      0.6868744989618468,
      1.482097925300611,
      0.5353227355416191,
      0.023135576970516325,
      1.746165524594254,
      0.4359755268660162,
      1.1263967574300309,
      0.9549710232025694,
      0.5307925440899975,
      -10.145742187615147,
      0.3637089518795344,
      0.16288504554949115,
      1.2365687282623508,
      0.8530440682417251,
      0.5203216396765148,
      1.2513273243959786,
      0.5288363760977511,
      0.14722787299406861,
      0.14516196038387888,
      -0.14702569137149868,
      0.5774801379162362,
      0.21896973712049686,
      -3.3900201708755997,
      1.3759000277884275,
      0.48747016053971093,
      0.11621880021733937,
      1.7833936225321063,
      -0.20195292796336126,
      0.1346673532495864,
      0.023134052288645714,
      1.451576459669244,
      -2.1421780155796695,
      0.16617891219306297,
      1.9191009610800753,
      -9.875037521763055,
      0.8057741933113604,
      1.0905085926486415,
      -2.012103300548677,
      1.6042985210090097,
      1.107926341597433,
      0.8400861833996097,
      1.1013267611088884,
      0.5463361713870107,
      1.6832962914592353,
      -1.796906333457741,
      1.9072440624326925,
      1.086927186538644,
      0.5295816891465868,
      0.7259937870053333,
      0.13154835832623912,
      1.208064685779925,
      1.0287673979692995,
      -3.753841929608119,
      0.5355270351163169,
      -2.1355829036833214,
      0.3576147936446413,
      1.2401709433895918,
      0.7850276311974247,
      -0.1052133334862542,
      -3.211723134419432,
      -0.02668466404405557,
      0.35657307539611494,
      0.9659949858102899,
      0.6561599845445513,
      1.3269760064170775,
      -0.19504167629269734,
      0.875626868792336,
      -3.980129284536497,
      0.7142509545161163,
      -2.954239017734429,
      -12.531378750058137,
      1.7786267844623864,
      0.5027253596246037,
      1.5373629113780585,
      1.388480340591179,
      0.8036852359818631,
      0.454888390294233,
      -0.9552356128979653,
      1.158480305302311,
      0.7451930285231194,
      1.5870177068005047,
      0.4798313439806467,
      0.296087910411114,
      1.2458262547212813,
      -10.8660482369393,
      1.3056829609970992,
      -0.396195595362837,
      1.7169809056358323,
      1.0050208400598981,
      0.4209337299032765,
      0.44077010685959045,
      1.1764257626309231,
      -1.0022794297219275,
      1.5883919406963969,
      0.5087948201553875,
      0.6470151778439274,
      0.5470545073242152,
      0.35536249851909707,
      1.1781984708821547,
      0.8731568110085465,
      1.084901910621061,
      0.6819995547537776,
      0.6506667398522404,
      1.4978065516754921,
      0.7273157282023658,
      0.8753530268095708,
      0.8427300552594826,
      1.2048058266622963,
      0.37565887250218144,
      1.501694300559728,
      -8.891595948666808,
      -0.24526212104949285,
      1.509338950704224,
      1.3010299416394804,
      0.03424918130436978,
      -4.075905615479829,
      1.452731612057836,
      1.3226030828216575,
      0.30728870130224367,
      0.6399017908607104,
      0.021183900275186452,
      0.04255495061541364,
      -2.5813805241265158,
      0.4535577100419736,
      1.192099925488203,
      0.3643515179199437,
      1.455293818897813,
      0.7469665047046473,
      0.9474657308055131,
      1.9538623378817956,
      1.1469240387719428,
      -0.21007121923152772,
      1.1379236660792402,
      1.008734811760813,
      1.1433090890248172,
      -0.37130979908680983,
      -4.133633707787094,
      1.770826724397715,
      1.6292695692335049,
      0.9083023022682881,
      0.502626633283596,
      0.24773318937644406,
      0.5012003368890782,
      1.2248490025322458,
      -0.2762871312877968,
      0.7893070967110699,
      0.7589870946776868,
      0.10314426259299217,
      1.2097546158219323,
      -10.311317007277152,
      0.5691942599780997,
      0.29703567716028817,
      0.9907345363523252,
      0.5105686428146778,
      0.19370450256730085,
      0.46622045208012874,
      0.45615615334165255,
      0.07912205241955125,
      -3.8514398829234695,
      1.8374021817957433,
      0.002072372900926933,
      1.130858675917349,
      -6.652389696048792,
      1.0258814404162406,
      -4.383663296716266,
      1.29864776327505,
      1.2706144110153659,
      0.7177714991149735,
      0.8656040269890026,
      -1.815003500311545,
      1.1858985597699552,
      0.8663944705447414,
      -10.81422701809185,
      1.0966531901667753,
      0.9788680964592893,
      -1.0999172583583268,
      1.580779845255404,
      1.0281698664912555,
      0.9511171478433379,
      1.3520110293618595,
      0.6063643828619791,
      0.4777381291026162,
      1.2984330145404839,
      0.393273003130487,
      -0.47727132215694346,
      0.5231424618230985,
      0.8071563366577836,
      0.2194006010171917,
      0.8242085891466898,
      0.7954964037816865,
      1.3499024092199736,
      0.5454869624139725,
      -1.671831482695817,
      0.4763053509819473,
      0.7190415807419845,
      0.18396233390087954,
      0.5589729013477173,
      1.741747296960108,
      -14.002791160199026,
      1.606401357903779,
      -5.008636674652586,
      1.011713245690659,
      1.6535887676552863,
      -2.5030039148114667,
      1.6903226225823023,
      1.0185233633667228,
      1.2193183787035529,
      0.3906812402825968,
      2.050355463713713,
      1.3583230964526676,
      0.5353717107640303,
      0.9184900622618479,
      0.17278315934236296,
      0.7860449471106834,
      1.2621967801215004,
      0.5882732733617114,
      -2.081613454831032,
      -4.028331382618208,
      0.36659216891595525,
      1.005804919354643,
      1.5874736360134407,
      1.660205243674806,
      0.9276390719875677,
      0.5995242938021188,
      1.3080637115844462,
      0.6110705564277877,
      1.6884228392149492,
      -12.103414211852131,
      0.7885025865883295,
      0.8856951141896041,
      1.8678331553844967,
      -8.36038542329971,
      -5.680059493890988,
      1.8778240353093532,
      2.0170463328247967,
      1.547131789727419,
      1.6704368211432667,
      0.769911991658717,
      -6.4945885785054065,
      1.5461117876159505,
      2.4238412472975557,
      1.4082785332126606,
      2.0627945492260142,
      1.652912531787218,
      1.2503462858039291,
      0.6206412515351953,
      0.9536882498167483,
      1.627606887886455,
      1.017628708891564,
      1.0082056246603759,
      0.355789980661641,
      0.9780149473890977,
      0.5038587954329093,
      -0.05562275237653738,
      -6.270555633134655,
      0.2836021522826939,
      0.9560876596973905,
      -0.19371000120508153,
      0.6003273825086075,
      0.3893647957491405,
      1.3171221791647099,
      0.3083990312677434,
      0.15859735126332197,
      0.7489457779939444,
      0.46576042283826674,
      0.6410528076649145,
      -5.732082568970323,
      1.272138945053266,
      0.4220488159355195,
      1.3858681081469968,
      0.7566433913031522,
      1.5604337431516628,
      0.40122914900014744,
      0.8502558562128495,
      -2.7656047978727507,
      0.3709333715520527,
      1.4152327963119116,
      0.42879213570330393,
      0.5735830809164539,
      0.6382741837144436,
      -2.7262675134192462,
      1.0474179412618627,
      0.3105962479898852,
      0.8379309269728178,
      1.3205848275219774,
      -3.416053127814394,
      -0.9023774135197795,
      0.9056576857238742,
      2.1544619461376424,
      1.9449463246748127,
      -4.805545426566658,
      1.220948746587694,
      0.0852604680562131,
      0.04192055875445629,
      1.3097441650357289,
      0.824035346021347,
      0.7176211465976937,
      -0.09173903665454201,
      0.9092774715357673,
      0.603640535052344,
      0.6722238523377138,
      1.2545961626808708,
      -5.782585921773299,
      0.44205755755850584,
      0.9685840835661027,
      1.3138096561853643,
      -1.3916933766198936,
      -0.03255543516396991,
      0.2632706363545414,
      1.3694222136948149,
      0.323875180335802,
      2.0950984137211597,
      1.2153260392781151,
      1.1263067402186957,
      -0.31333035324529074,
      0.7109702630038908,
      0.4887432026617531,
      1.8585473475401977,
      1.1138735854028983,
      0.3033333101606898,
      -0.1315703461161386,
      0.5266069752324972,
      0.9951040191111313,
      0.46693592689481983,
      0.12787209860173052,
      -18.38630444047833,
      0.8836853354719062,
      0.8176944104364258,
      0.7149111042922135,
      1.2668473485873193,
      1.220952518659361,
      -2.0634743162578495,
      0.8194082176101083,
      0.20271519222786755,
      0.8090214477802677,
      0.4274103141154487,
      0.5789363307494753,
      1.4839479507634206,
      -0.0537973224567822,
      0.692354335547532,
      1.3176741687118039,
      1.2364564663336461,
      0.4029228430094155,
      1.8579332704757792,
      0.6502528318544462,
      -3.647701162184833,
      0.7694952972644491,
      1.7566391814174798,
      -0.2044963655700126,
      0.40669992743336475,
      -3.7457118499119537,
      0.41909299658661386,
      0.13394099341513416,
      0.6480711270484555,
      -14.861163573513913,
      -0.6964736329443011,
      0.6472316246261588,
      -9.172298800555684,
      1.314603997963204,
      1.817189776859416,
      2.5475546302110192,
      1.3646190967678637,
      1.1353261755795474,
      2.7957967333335154,
      1.3196006550712318,
      0.9552241106732662,
      0.27159576277897907,
      0.7440456242225135,
      0.7663772016742519,
      -6.1613938495241865,
      1.4717486806888818,
      -0.784106382522205,
      1.2572011056449366,
      1.177225506580465,
      0.3920198414405595,
      0.6595527396322266,
      1.2372122034787458,
      1.042728001159284,
      1.898450075532371,
      0.6430591830329565,
      0.09505183445057389,
      1.1927988405336907,
      1.155989116550376,
      0.7445981439883832,
      0.22537088605660047,
      0.739727416770494,
      -0.17555058228539203,
      -13.820904298221617,
      1.026333177461548,
      -3.85399706785102,
      0.9440492052442527,
      0.9929333818921376,
      0.6870951609264925,
      1.2690875669702204,
      2.0052729713616104,
      0.8671753613206686,
      0.8055616591153265,
      1.7748922631284407,
      0.13094165840149663,
      1.1320092252712566,
      0.22534168571674493,
      0.04216782220538376,
      -2.094866121098652,
      0.8293996929307689,
      1.3919398987666538,
      0.47538283558678646,
      1.31156104043148,
      1.2013687478349275,
      1.1045682529973553,
      -0.1118796670749072,
      1.2720914523919202,
      0.7092027655563573,
      0.689769987044979,
      1.6916355200291648,
      -0.11221416828589509,
      -0.1840855360579991,
      1.0326180309674358,
      0.5678086750783251,
      -4.363547321459291,
      -1.7295442000491155,
      0.3109557060072149,
      1.917843332062669,
      -0.21959549444892995,
      -0.2290266382233304,
      0.8809979111386487,
      -5.659135910831731,
      0.27565511790329766,
      -2.771857227188695,
      0.9832589518979767,
      1.5172564029387934,
      1.424836233731635,
      1.9958018076821857,
      0.11354992284418723,
      -9.67007734509272,
      0.6592368853865906,
      1.7058217756408318,
      0.19101339814953303,
      0.568932228262817,
      1.6337940723597544,
      1.3214126921478613,
      -1.377029107631986,
      1.2168925959947445,
      1.148469478128714,
      0.5747437767048683,
      0.35183453424783384,
      1.1005956252326157,
      -12.604111128504076,
      0.675141067213144,
      0.7846588709411094,
      1.527179717191999,
      1.2838837329539534,
      0.40339913766214724,
      0.9734090261515841,
      0.668567856207114,
      1.4844787867430254,
      0.2337180941329343,
      0.8373102553154844,
      0.8068607045273843,
      0.355116807589281,
      0.7835724949296872,
      0.7515615526066396,
      0.27858707691753387,
      -3.140863258209108,
      1.1687744747344475,
      0.14580293934964744,
      -1.134992684647929,
      1.3151039031525584,
      0.6985877308713775,
      0.8465785474467726,
      1.1859297881208763,
      -8.175006405194882,
      0.4615221355380916,
      0.7975909117033088,
      0.9779430510641005,
      1.8009854970403207,
      0.8102453800385709,
      1.3775858020147163,
      0.5170323531170247,
      -0.082591769067255,
      0.7303205725300991,
      0.10309904331260336,
      1.6831180122860163,
      0.1239695143125533,
      0.1279582664650267,
      1.6736232877192536,
      0.3095114456613428,
      -0.38828695210105957,
      -0.1003564689214515,
      -0.3932824768695819,
      -9.389670452530959,
      1.3752255217654645,
      0.2944869131501783,
      0.8827810366011664,
      0.22742226795783874,
      0.4825337268776673,
      1.2108060300599304,
      1.1546131549536507,
      1.6888734359475923,
      -0.22909452202388833,
      1.0263503523922122,
      -0.02343346490647133,
      -0.2096306113532582,
      0.07836596230056074,
      1.1140758369039292,
      1.0552920672537398,
      0.32206229140978504,
      0.9547399981269589,
      1.351994314941358,
      0.4761620317473213,
      -16.29736788534528,
      -8.706447650363033,
      2.020422101687093,
      1.8324072131301739,
      1.3960346736330451,
      1.3498041506680385,
      1.3459752167356918,
      1.136320225162738,
      0.858223005734055,
      1.0425492873819,
      0.617893195769077,
      0.5993781238773018,
      0.3745575759856225,
      0.9841553413255449,
      0.958899289553504,
      1.0291466081662524,
      0.6606286090638382,
      -1.3003337354173798,
      0.4999013169091915,
      0.9612278304899676,
      -2.8117318967421063,
      -0.03374408201532013,
      1.5026895054858591,
      0.7467376598275267,
      1.0611553084508425,
      1.0061599817545501,
      -0.25751871913338575,
      1.0206319821876015,
      0.28123419346237494,
      -0.2950231339047605,
      1.045835553303138,
      0.9929766024974078,
      0.946901120174293,
      0.2721300645149537,
      0.5090262192284253,
      -4.610315226699148,
      1.0417511019001375,
      0.2659813883278528,
      1.77666283342807,
      1.6317127103651443,
      0.8503431104505152,
      0.7786968507004389,
      -0.6100001463696083,
      -0.1405012913471395,
      0.4353809539880303,
      -0.3444174464685164,
      0.31257079985490416,
      0.9416739270530191,
      0.8170179988554126,
      1.2830725353241692,
      0.7691919574494952,
      0.7657596934312222,
      0.8804183644341076,
      0.6988325435001804,
      -3.228006051574352,
      1.552772906372392,
      -10.848087485138961,
      0.6551547435991778,
      0.17991648751998565,
      -0.011042509844649618,
      0.45456577144122373,
      1.0472909743047396,
      1.1081881864555183,
      0.33211199784199696,
      0.9585699505462854,
      -0.3227269820437203,
      0.5612398153839778,
      -1.9388645432143445,
      -3.968029476240279,
      1.1924334259392642,
      -0.08359174519533803,
      1.1423558270868919,
      1.758060109734969,
      0.9932053082921591,
      -0.3663246131631688,
      0.05113216093743901,
      1.000066129496225,
      0.34084155141569106,
      0.9345177193104885,
      0.06417654408499825,
      1.0077545124488272,
      1.6986327427310053,
      0.970512918030967,
      -0.22403554779384754,
      0.9722606249362874,
      0.0706919442016679,
      1.2388048862172363,
      0.2754747935261808,
      -0.8969432600455122,
      0.7975765880335224,
      -11.610854010797782,
      -0.12107373078352553,
      0.5177473617905743,
      1.4166575193244961,
      0.6549370396716482,
      0.15648933437192045,
      1.0188400584737813,
      0.6067177388223889,
      0.15892359943682413,
      0.06411224204207719,
      0.6275873385136673,
      0.9710265780197745,
      0.2760036470713423,
      -4.717697562651749,
      0.1784338450365787,
      0.010995994674151934,
      0.5776896246236354,
      0.8343039245276901,
      -6.442351159843348,
      -0.038450451492285084,
      1.4210910898793525,
      -0.08902800824728256,
      0.503351042572704,
      2.1070495753393446,
      -3.5464924998919485,
      0.3701207653848721,
      1.568788152625796,
      -14.341917493000839,
      0.7243346921468626,
      2.1917399577663335,
      0.3721688234914203,
      1.4334500898971976,
      1.9151207316174108,
      1.7463907032408108,
      0.6501045908664892,
      0.38318953913412257,
      1.1174941228917479,
      0.7503164133005086,
      1.5620486211654134,
      -0.06435399601481391,
      0.3587460351980787,
      0.3672962397496829,
      1.5834578927347946,
      0.9008174185713629,
      -0.06856023000271874,
      -5.019043372472713,
      1.6410307102978572,
      0.3011880233339786,
      0.22359323639287956,
      0.06343238207114395,
      0.0743756763047153,
      0.07596525026475967,
      0.16196334519217,
      0.5193730654662259,
      0.22138040288163405,
      1.2048199141981177,
      -0.3445682084298684,
      -0.3404937072449968,
      1.2083871463771783,
      0.6062612358561855,
      1.2140527935500793,
      -9.75636824634567,
      0.0794547950550583,
      0.34197886619068546,
      1.0310700398037658,
      0.011035149651771804,
      0.053415260907167826,
      0.8217592936202244,
      1.0792598163501443,
      2.195315916401442,
      0.11684257582732914,
      1.3298695120641326,
      -7.526971014865726,
      0.6915880847654889,
      0.7957868736367223,
      1.3359756763662496,
      0.6869651521652121,
      1.3502233770052143,
      -12.904161964814243,
      -1.803938939251087,
      1.4313384228816566,
      1.6461269699630003,
      1.0435115662105692,
      -0.6701198590494053,
      0.5151156501661757,
      0.7324643966963104,
      1.7621727944589731,
      -1.1829629970421611,
      0.6998329235031303,
      0.5018044665543112,
      1.0973189965998533,
      0.9542185487065411,
      -1.7275681619084762,
      -7.289255357525603,
      0.8923205833521765,
      2.0313170439537998,
      0.5324310377765893,
      1.4029163563423983,
      2.244844542501606,
      -1.9967426749590589,
      1.700674707756504,
      1.4127585222164312,
      0.3972851892102928,
      0.8643307574062027,
      -1.8380116337729513,
      -1.641207470567554,
      1.3903074322068663,
      -3.6790502130992335,
      -3.877187642060176,
      0.742286140259033,
      2.0066697922458587,
      1.9034458438539619,
      0.7054303705048863,
      1.289963544507539,
      0.336419347053393,
      1.81721966823873,
      1.4853375501934754,
      1.7730904661778426,
      0.709420189370872,
      1.2989728346313054,
      1.1861500527105586,
      -12.95990622741238,
      1.2497696470305877,
      1.4757122914028593,
      1.3743081220115014,
      -0.9963790129280566,
      0.8679682719360681,
      -9.416800258917151,
      1.0875139155831204,
      0.743717179499663,
      0.6965324541122976,
      2.309299618342221,
      0.550549626132848,
      0.7305751104884086,
      2.087614806496522,
      0.8938425510544766,
      0.7230895441066666,
      1.8566438988567469,
      1.6989286255003329,
      1.0495999015511133,
      0.7358750980722559,
      -2.112751756111484,
      0.8808649127840199,
      0.6640576972912948,
      0.6427176182133305,
      1.1497954360332145,
      1.0872211208793563,
      0.9709889258163686,
      0.27755788696911543,
      -0.1830867372987742,
      -1.615183223874913,
      -4.47404847690103,
      -2.542856008292629,
      -0.44549963715104035,
      0.7692330894009789,
      0.8977668509003335,
      1.594277512563078,
      -6.252298171908784,
      1.0803089001738218,
      -6.278731138811667,
      2.308226159132531,
      -2.0494889857926175,
      0.7885780061984059,
      1.1134120200127642,
      1.0525396415170378,
      1.2924379034859848,
      1.2074701633766693,
      1.4657088562252092,
      1.3363487863217973,
      0.5485890118334605,
      0.9621156696365469,
      0.3386821964823492,
      0.9311806986892545,
      1.1974366209797755,
      1.1460494912817185,
      1.6635237729198957,
      -0.12814088066639898,
      -12.559320996868959,
      1.4456596753506104,
      0.4513714591358515,
      1.3274830058969143,
      2.4290815469162115,
      1.0405027130410927,
      0.5930908447546448,
      0.5024187372253629,
      0.06600333937389051,
      0.7956248526195296,
      1.349844850686539,
      -11.137886618098193,
      0.5197138055053898,
      -4.3908897297252665,
      0.7164290631639363,
      0.5053612160198386,
      2.115144370488148,
      1.1455560318841198,
      -4.7096119424674585,
      0.9845100316950449,
      2.111565387566232,
      1.6196977124826415,
      1.2537054093926043,
      1.1777023977526193,
      -0.6937915344426702,
      1.5381347962602558,
      0.9823298465267443,
      0.32458582865213037,
      0.9513027932859542,
      2.7349350884957087,
      1.184724777485761,
      0.2603138343286844,
      0.8280416932488563,
      0.6064459973091147,
      -6.987012683653647,
      1.572173531455763,
      1.2091600007304906,
      0.22262741097894626,
      0.16849263357977298,
      0.30428512800948354,
      -1.7584500071948423,
      2.0293597564184056,
      1.8401499473156364,
      0.8243286484828257,
      0.3369987986092649,
      1.1223059523435501,
      -2.6472206683144535,
      -2.3278461354808844,
      1.6033547817695661,
      0.8398477317882566,
      1.6716859368060717,
      -12.64864143857571,
      -7.405074692899784,
      0.6393522571500977,
      1.4218529613925466,
      2.0635204414836794,
      0.8676930926645198,
      1.8711184013643372,
      0.6339754130170849,
      1.2162749936283095,
      -4.956996965115909,
      1.3507030105057551,
      1.8640399567012875,
      0.7380390971629895,
      1.8664457270898183,
      1.4267071662285593,
      0.42547670945174937,
      1.0226256013812929,
      0.8332584363797481,
      0.46491312784058314,
      1.314117486693048,
      1.2029943542294679,
      -2.2449401367572572,
      1.4018087046535852,
      1.191099631146259,
      1.1527857421278451,
      1.359522768559899,
      0.16937274058326815,
      1.2908939304502196,
      0.9066095948712323,
      0.1213387897912154,
      -0.11800999465422866,
      0.20012473009021833,
      0.6829495080873411,
      0.4113321547050903,
      1.0327991918515853,
      0.9167855507892693,
      0.5593634381434642,
      -3.8291632244614493,
      -3.283443597864377,
      0.2429071141592704,
      1.4567264527135564,
      1.1770436967591285,
      1.8241464706958317,
      -0.27629198841290903,
      1.0955042385154838,
      0.6471178251708697,
      0.3591849284880766,
      0.6237004284299787,
      0.6108424231571157,
      -0.37927085312073583,
      0.37310382089934474,
      1.0856460463427071,
      0.5689349767968271,
      1.006156240012024,
      -0.3349691208231315,
      1.0252123146220833,
      -0.7016654053525467,
      -5.2835452164569405,
      1.8532802654978107,
      -2.3549413244559814,
      1.263567823127643,
      0.4146144046268438,
      0.6573310229228998,
      0.7195428273603196,
      1.04279282294165,
      -4.676906250998892,
      0.5199834210996946,
      1.3094860674572557,
      0.3019340653216801,
      0.3934489614498278,
      0.6825289515085392,
      -0.4398609869233546,
      -0.133229629791826,
      -6.731188576237373,
      -13.571249743660653,
      1.353743620047773,
      1.2647785110544636,
      1.4491822424496994,
      0.5708225327085898,
      1.6756366750719902,
      -9.470234255996536,
      0.9179482451803224,
      0.646056039884356,
      -4.220367413653568,
      1.0316839661359851,
      1.8787027835825403,
      1.716035546484183,
      0.8919370459647742,
      1.5004656920395323,
      0.664613869727745,
      1.926025278942363,
      1.2707316775013746,
      0.92916580923783,
      -5.321779095171238,
      0.461450950967382,
      1.4088238211654003,
      1.292522164159139,
      0.9640438353416458,
      0.6829745397419532,
      1.1818923141802695,
      0.5318774122134154,
      1.0919212179456874,
      -1.7257869855358574,
      1.2605070704358454,
      0.9417833957256202,
      0.5902161199475797,
      0.28075231110684906,
      1.8120781762595812,
      0.5678753987382879,
      -0.12442939846585167,
      -0.10155603599114342,
      0.5825623725155834,
      -0.153700555925945,
      0.6340385514025048,
      -3.3468403512397984,
      2.1235946993940416,
      1.2710874124968772,
      1.3109383156050638,
      0.7235955527929101,
      1.0923454251220062,
      0.4200292499880793,
      0.7859136245157531,
      0.3755665502671771,
      0.36864403190030814,
      0.12628100100595396,
      -0.2709058129384738,
      1.0644382831961936,
      1.496519216196441,
      -0.09620890120268039,
      0.9601060774326521,
      -0.3475666010857367,
      -0.13704148376893172,
      1.0741345175812078,
      -0.6726215671565854,
      -0.18010576670690398,
      0.5885712107101019,
      1.1271541406219396,
      1.227355901822039,
      0.9429921562708385,
      1.8550643476050275,
      -0.4310846981879657,
      0.816643742475456,
      0.16239842529661444,
      0.7652177689595533,
      -10.905463737213031,
      1.6927733609271813,
      1.0380271489744175,
      1.509951548902833,
      0.4039220610743255,
      -0.2788092847927275,
      -0.36022655978150747,
      -0.09585996191608931,
      1.620975414224208,
      -0.2584449261505563,
      0.8277166915788454,
      -0.12330863720975473,
      0.13020498560428984,
      -7.019962315706443,
      0.440748152287946,
      0.6552124235428389,
      1.3765945558050483,
      0.5551196885938205,
      0.9393835303974646,
      1.2488379243346934,
      0.15624330443031728,
      1.5491527305898527,
      -2.697608492117579,
      0.863185853743147,
      0.43347985264628447,
      1.1809164954922537,
      0.3565084632711648,
      1.1324216232377957,
      0.049924978287681256,
      -2.805983856006912,
      0.350365684647394,
      -0.17880045335818748,
      1.2871246557909284,
      0.8235459863798936,
      0.04767950646258041,
      -0.26590151925309946,
      0.8726436247516997,
      -5.782949842149232,
      -6.232244253315436,
      1.1360364898075326,
      1.1397724790549917,
      0.16385769307033005,
      0.7212175397466325,
      1.4403811222166714,
      1.0053897497511477,
      1.6117857683160606,
      0.10109936906479405,
      0.28706199091074525,
      -9.688317264379835,
      1.1005920998120118,
      0.4030240025290641,
      1.0832547886725183,
      0.2032154108027451,
      -0.14144947558101154,
      0.7612004238400157,
      -12.950724027010695,
      1.3756977267372013,
      0.9771151008798498,
      1.4369180269349118,
      1.3384787953462811,
      0.6972919433619732,
      1.7494088237102356,
      0.3140086411037547,
      1.226284974608007,
      0.8701118599293329,
      1.1234377232134374,
      0.669373117788705,
      0.7096145067872951,
      0.6191073304945742,
      0.2946393652985117,
      0.6041694023927968,
      -4.749023863297377,
      0.16469090524205202,
      0.3413708137457978,
      0.33575097991129077,
      0.8082516848687017,
      0.39860925063646235,
      0.28552028908557026,
      0.7954473398238048,
      0.029012634156231773,
      0.8040418507251214,
      0.7689602186392451,
      0.514291778342993,
      -14.779049700057984,
      1.0417038460460104,
      -2.30601276706492,
      2.910355378599865,
      -1.5218669999712828,
      0.9353035775807516,
      0.556724150680753,
      0.6118791572898556,
      2.025004127454248,
      1.3157697638357746,
      0.37778580854988714,
      0.9360421228997774,
      1.4953651816110316,
      0.6047752335994045,
      0.787236641104424,
      -4.199391546833059,
      -9.83027665995564,
      1.6885748344867795,
      1.1322353836545027,
      1.53021335779916,
      0.4107242321652138,
      1.252554014533707,
      1.0771382699013903,
      1.2889765281241106,
      0.24309403227120663,
      0.5094077633541856,
      -5.909200898596323,
      0.48428196659073525,
      0.4730708613647015,
      2.02984466518429,
      -1.7998801877870254,
      1.2056908401125486,
      1.1339588917331864,
      1.0154648486035922,
      -1.2035782604755234,
      1.5323332485631371,
      0.629975295335419,
      0.4975785701511993,
      0.23060818216994178,
      0.6425550876672889,
      0.45748860741841707,
      0.460112730961014,
      1.1224587621033182,
      -6.0281003468927645,
      0.042187194287454655,
      1.668747468581505,
      -3.1920147620747086,
      0.5179414685443393,
      1.7374174004479568,
      0.36502241189027707,
      1.5706547725841822,
      1.2846137409447937,
      1.2070820326643816,
      -4.1717524482101265,
      1.4220333558866785,
      -1.3969303750724211,
      1.891309145146311,
      0.6094806069656338,
      1.0837399798326626,
      -2.466864292273873,
      0.6694342178449678,
      1.1562178881411949,
      1.5574932626433218,
      0.45122665705157766,
      1.960937633547815,
      -7.236428978302718,
      1.111387942201454,
      1.0775501577439743,
      1.0256129824732547,
      0.9724214629339907,
      0.925064397449709,
      1.4876719921753103,
      0.7939842378706424,
      1.053680372976787,
      1.1262013520751866,
      0.5029569920244673,
      0.9413464880770548,
      0.4068685066787196,
      1.5107849071859827,
      0.295315910278314,
      -6.771356392569816,
      1.178658463577169,
      0.44436888808445113,
      0.1493576921110028,
      0.16457399385201207,
      -2.0966930056909305,
      0.633469943833719,
      1.1331981605516812,
      1.6180627253408961,
      -0.1530326371141905,
      1.3003520483107445,
      1.4896151882727537,
      -1.7507607582720357,
      0.9623172486053597,
      0.8843176597512264,
      0.8482873000053965,
      0.34023513117000126,
      1.4591967254382214,
      0.17840290368973818,
      1.402778641959336,
      0.4165110444503069,
      -0.5698833981919829,
      1.3833690704011579,
      0.07268230461233656,
      -0.1369855160644259,
      -0.5801977042600664,
      -0.3728839916786615,
      0.8192039916899317,
      -0.262256907015323,
      -0.02725350646794322,
      0.8708781696204747,
      0.8318677867171614,
      0.48554504917168906,
      0.7523725138578438,
      -0.03006770625562923,
      -0.030027431299206358,
      -0.44196022792749184,
      -1.034301125390875,
      0.04669839401904921,
      -0.6563519805679905,
      -1.0215260719360886,
      1.5874785740038586,
      -0.13742009435459193,
      1.024646123979329,
      -0.8155170739034228,
      1.0502108776282972,
      2.012487339573502,
      1.8284960790918907,
      -0.23727873323843615,
      0.9406455121293098,
      -1.2717080016873201,
      -15.321165744039993,
      0.5295410023867221,
      0.4239011845302697,
      1.0651123633224606,
      0.03982385859562543,
      -0.2374615165253471,
      1.0795847981614881,
      1.2067515212655473,
      -3.810661109290265,
      -6.618872997199706,
      0.8166883166573423,
      -10.858685755605777,
      1.727722015904537,
      0.5554385315323649,
      -1.0121728389145528,
      1.736222455939133,
      -4.8219570340118505,
      1.558829060130774,
      1.4218401218284424,
      0.8565021664837622,
      1.1513055861691044,
      -7.944332834889795,
      1.5145218829224916,
      1.2061075748939258,
      -6.17109462467602,
      2.320525753330626,
      2.027620158206872,
      0.9924402695972677,
      1.7022433003985666,
      -6.842156539961404,
      1.2518140728979237,
      1.2697842717637942,
      1.8417663590805733,
      1.6822754067772376,
      1.2789378912537803,
      1.7349293934966823,
      -5.009863033909874,
      0.8730054640095516,
      1.9237969626588522,
      1.391742370163704,
      1.1634747110652603,
      1.5438442374533465,
      0.6817837666798794,
      -3.8895171506062787,
      0.8338606996354947,
      1.8342571415242104,
      1.5905141345239697,
      0.7117381383703033,
      1.4619617569006091,
      -8.997436112163546,
      1.1710342097517377,
      1.4294019193222378,
      0.626227718009441,
      1.7526925354204488,
      1.0351855105646013,
      -3.6934696065532044,
      1.662044228715448,
      0.5389308698690621,
      -2.5866413592991213,
      0.8876430734897164,
      -4.312879387791771,
      0.857719321710399,
      1.1732718887133153,
      1.2457902836279753,
      1.0382495339671238,
      1.9439510797183408,
      1.2979253542792768,
      1.5248467146976667,
      0.6972785812551486,
      1.409478942096625,
      1.1503612174283488,
      0.9484879088360127,
      0.31462821206901004,
      0.15069538212526193,
      0.9560598661279945,
      0.55097964900032,
      0.9072861583502358,
      0.5611940213160186,
      0.4030866656850993,
      0.3920784488546134,
      0.6690934025454935,
      1.1805872038534682,
      -3.378624353180784,
      -4.485782489999383,
      0.8765285191048826,
      1.048229522230063,
      1.6246929711857276,
      1.1610295232950891,
      0.5344520638540695,
      -0.018753931071830772,
      0.6564554739259126,
      0.36412086717635384,
      0.5065416893803957,
      -1.6152668203372138,
      1.8311146534102682,
      0.8248125655173038,
      0.2553245512876303,
      0.5261683064964933,
      0.3139643483402579,
      -5.327623269574825,
      1.2554259046814584,
      0.6627163667375876,
      0.2984931502695953,
      -3.1228250467622236,
      0.6816512686038145,
      0.8169164849450213,
      -6.0103177910459085,
      2.015525007758915,
      0.20158279966743323,
      0.44030049464120796,
      1.3269845410221457,
      0.7497849937365005,
      1.2256576408100586,
      0.2564607186136406,
      1.1574371416407627,
      -0.08757044999418748,
      1.8150817777295971,
      -9.157070627784465,
      -0.9187303230544512,
      2.042087270018127,
      1.3367898502009496,
      1.2514053088586385,
      0.47829333627505816,
      -6.1647306430391975,
      1.1144348320034492,
      0.561801644815969,
      1.8340662982851876,
      0.22449179116951776,
      0.5602147616843571,
      -3.36383237144897,
      0.5688229822383485,
      -0.3301550482937403,
      0.6536749593155988,
      -0.9114494775694786,
      1.0081320761749752,
      -9.460577796196997,
      1.158252364070375,
      1.8369969459502156,
      1.6845119281261134,
      1.4697010016340046,
      1.2828550199828381,
      1.4450124556148658,
      1.8432782839597035,
      -4.203911772735026,
      -1.9094591351322638,
      0.6533098061000331,
      1.339860992288612,
      -0.4887290917873927,
      1.7513504041704684,
      1.6056337270819925,
      1.491593760082541,
      1.3845910465696865,
      0.4229145789268655,
      0.41651083944551637,
      1.3343816235819155,
      0.9164773181375708,
      1.2132717134176474,
      1.4346092435234519,
      0.1328219349675717,
      0.13125468294741466,
      -0.09916676917884032,
      -0.12403356101236261,
      -3.449382102165229,
      0.31725805673583185,
      1.5923494150731912,
      -3.3036674065028606,
      0.4054550504252044,
      0.13926654963325608,
      1.4914196752577495,
      -2.747445198073426,
      0.18342809380063205,
      0.4127179788967075,
      1.047431062289517,
      1.8428383503976271,
      1.5170531045520126,
      1.4469860325104529,
      0.9260510569554492,
      0.3107673489204766,
      0.2669212517053385,
      2.1283154642507576,
      0.7718884913866318,
      1.1070597510563105,
      0.07700312387960588,
      -0.22266075859933404,
      1.1838318266106072,
      1.5715826787580234,
      1.4570861138581108,
      0.8826108452551424,
      -2.4501618222794073,
      1.7684998468264035,
      -0.32114442025958834,
      1.6891747936461017,
      0.9593724712149979,
      1.5162103709632315,
      -0.7413453001579369,
      -0.5487504854219895,
      -3.045203665390646,
      -0.427041183378408,
      0.4801846065138217,
      0.47429446199226866,
      -0.5826802310689317,
      -0.08572909021134524,
      0.014845004945795447,
      -3.7796632295703545,
      -0.07149016042227353,
      -15.883540250694448,
      1.7872828199806263,
      1.3782385579829466,
      0.23367571915691682,
      0.2781240789706734,
      1.3315858454248377,
      0.7774632426770679,
      -6.332163366102624,
      1.4547780325316346,
      0.9039654828944146,
      1.3223432359587537,
      1.493086574567902,
      0.8535759960684604,
      0.8227135654082218,
      0.5685611967288476,
      0.3310155894836137,
      0.37239772048134917,
      0.02844005461635525,
      0.8472553629123288,
      1.158800116834997,
      1.198011327846482,
      0.6923982450334158,
      0.98089537691891,
      1.2697348252872407,
      -0.07512599312953949,
      0.2511204970601623,
      1.058165464179125,
      0.8920299812740566,
      -4.314348041388445,
      0.6857315871933638,
      0.31140925540198355,
      -1.8751866337714973,
      0.5246995153494025,
      0.059934409499421075,
      1.3505369338566087,
      -0.0897688435943262,
      0.48150993442919443,
      -0.11767698022848744,
      -4.261175932820263,
      -0.09705785652025095,
      0.6153079947916731,
      0.7674782347539346,
      1.4485500976448293,
      0.5014174112872708,
      0.2262001695466302,
      0.9554842593418355,
      -17.182957640898472,
      -0.5522658788638991,
      2.1437540208660595,
      0.9764717631537793,
      1.089170322210643,
      -1.282640556528312,
      1.6773092658148476,
      0.6055893764114628,
      1.1189836186054736,
      0.967844577224656,
      -11.763406510233558,
      2.129186045928155,
      1.6595536994242661,
      1.2932555415063993,
      1.949919043773329,
