{
  "config": {
    "device": "cpu",
    "random_seed": 42,
    "experiment_name": "graph_refactor_ppo_corrected",
    "data_path": "data_builder/dataset/graph_features",
    "discriminator_path": "results/discriminator_pretraining/pretrained_discriminator.pt",
    "results_dir": "results/ppo_training",
    "max_episode_steps": 20,
    "num_actions": 7,
    "reward_weights": {
      "hub_weight": 10.0,
      "step_valid": 0.0,
      "step_invalid": -0.1,
      "time_penalty": -0.02,
      "early_stop_penalty": -0.5,
      "cycle_penalty": -0.2,
      "duplicate_penalty": -0.1,
      "adversarial_weight": 2.0,
      "patience": 15
    },
    "node_dim": 7,
    "global_features_dim": 4,
    "shared_encoder": true,
    "num_episodes": 3000,
    "warmup_episodes": 600,
    "adversarial_start_episode": 600,
    "gamma": 0.95,
    "gae_lambda": 0.95,
    "lr": 0.0003,
    "clip_eps": 0.2,
    "ppo_epochs": 4,
    "target_kl": 0.02,
    "max_grad_norm": 0.5,
    "value_loss_coef": 0.5,
    "entropy_coef": 0.05,
    "rollout_episodes": 16,
    "minibatch_size": 8,
    "hidden_dim": 128,
    "num_layers": 3,
    "dropout": 0.2,
    "normalize_rewards": true,
    "reward_clip": 5.0,
    "log_every": 50,
    "eval_every": 200,
    "save_every": 500,
    "num_eval_episodes": 50,
    "early_stopping_patience": 300,
    "min_improvement": 0.01,
    "use_cyclic_lr": true,
    "base_lr": 0.0001,
    "max_lr": 0.0002,
    "clr_step_size_up": 120,
    "clr_step_size_down": 120,
    "clr_mode": "triangular2",
    "use_curriculum": true,
    "curriculum_bins": [
      20,
      30,
      45,
      66
    ],
    "curriculum_episodes_per_stage": 600,
    "curriculum_mix_back_ratio": 0.1,
    "sampling_without_replacement": true,
    "coverage_log_every": 100
  },
  "training_stats": {
    "episode_rewards": [
      -0.043617639566854396,
      1.5298776318913636,
      4.480519875718616,
      2.607162462303851,
      -0.9897009594425006,
      0.664631324457052,
      2.3034643060791913,
      0.4734476252757597,
      3.1852826343711014,
      0.060721140838297605,
      -2.8712265224083273,
      -1.3501945706271694,
      -5.656137119627072,
      -4.78300013221494,
      5.274608934719743,
      -3.207397891910458,
      -1.3580329532536342,
      1.8572566372074442,
      -4.261797101848193,
      -1.300161467763386,
      0.24661957208926277,
      1.026993788911859,
      -1.205640293889392,
      -0.7094415673150681,
      -1.459133153400433,
      -1.8384113057711708,
      -1.5289589942538442,
      -0.6653796703291583,
      0.46426761807405925,
      4.424281030123891,
      3.0362145590330054,
      -0.5582076518720285,
      -0.997349520823794,
      0.9029615750591136,
      0.665459917137211,
      -2.2611833277979208,
      -3.815123564010885,
      4.891894636564247,
      -2.6702961740268423,
      -1.0555729242951593,
      -1.4190781183703096,
      -0.8493953594329485,
      1.1565689618061246,
      1.222908414815874,
      -1.1604916721331189,
      -1.8582270573874107,
      4.731809117386261,
      -5.589389534191055,
      -1.3206812723987618,
      1.7529398705923498,
      1.3573348030183274,
      -2.242279857303873,
      -3.04645562178442,
      -2.8553883225351324,
      5.04005764475899,
      -4.0131501295556085,
      -3.1188041019514934,
      -0.3490069243255406,
      7.411710598328694,
      -1.1523258991635676,
      1.660342473158734,
      3.1030475501267123,
      1.192108447600225,
      -2.0560527401749122,
      -1.4414485437053188,
      0.06123688996559906,
      1.6871185572001621,
      2.5061435435643498,
      -1.786893566261869,
      -2.630132139153665,
      -1.9907544532028343,
      -2.4118499133735165,
      -4.840909946231227,
      -0.6839974624475214,
      -2.648841492163231,
      1.2850839961374039,
      -0.9525262416520355,
      1.106875352729228,
      -4.285039768535704,
      5.631108813077778,
      -3.2002039743273776,
      2.1253332306666675,
      -1.4701458377841117,
      -1.3694791352528999,
      -6.8099504473672585,
      4.313252770445437,
      -1.8051328289979303,
      -1.6556953293101189,
      -2.7156543998062506,
      -0.5810970194744359,
      -0.7460403675295144,
      5.455873799533133,
      2.2724231511415502,
      -2.8046894360552663,
      -3.7874942918854595,
      -1.772245603357014,
      -1.3080811414737001,
      -1.2277793882882044,
      -1.156766674299993,
      2.3908334478333537,
      -2.7484088711389436,
      2.351927555673061,
      6.3565578749613065,
      1.0829473114620964,
      -2.816392660717197,
      0.7807411323699852,
      -0.03143601902482318,
      -1.8087441978945031,
      3.4025949689182933,
      -0.017037438737405375,
      -4.1666115429074475,
      -4.804793477156454,
      -1.193259249091533,
      -0.7541306422755578,
      -1.2984840819994325,
      5.726285730219603,
      -0.8632946618880604,
      4.993626225380058,
      -0.8960735571257022,
      -1.6951915588316397,
      -1.0170142795094625,
      -1.3867040749802808,
      0.6044322492073613,
      -2.111756829647112,
      1.461763179298635,
      -1.4911526415539258,
      1.1682175042361702,
      0.6225636658647026,
      1.1203400158978267,
      1.252860126770603,
      -1.5039318773975392,
      -1.2260972900917055,
      2.3446778104341557,
      0.6562600455526297,
      -1.6596103178996642,
      -3.6987601523217233,
      2.871289085640481,
      1.304205225601732,
      -2.413755874209849,
      -2.1904986669687565,
      -0.07162819967810652,
      -3.3887746614172185,
      -1.3149434764473207,
      -1.0610764980284653,
      -1.185006954494633,
      3.8332140430214245,
      -3.499978069937236,
      -1.5295221313247345,
      -1.196697712211171,
      0.6153439657872779,
      2.3719750275026046,
      0.21622345913093222,
      -4.186467497319052,
      1.8589797286715726,
      0.7949002679832737,
      -2.9960434867559838,
      -2.132684307707054,
      -3.3954146695162493,
      -0.476202565768235,
      2.717996390562546,
      -2.200915429570499,
      1.5583639477729818,
      -1.2628486362498368,
      -1.2933650997711323,
      -1.3449197111220057,
      7.389597536601056,
      -1.3667638749252935,
      3.3116711141847603,
      -2.228580517513797,
      -0.8044118364902839,
      -3.383306790836193,
      2.134824055785232,
      -1.9407384668871186,
      -1.6164647817238007,
      2.1316236776428568,
      2.399822570422411,
      -2.258193020147547,
      -0.9538976151392075,
      0.6484128441100949,
      -1.2657864128049379,
      -0.587428630076552,
      -2.7823755484471127,
      5.4072907865848325,
      -5.95305423375753,
      -1.5089213241507873,
      -1.403065547928273,
      -1.3110883997307423,
      1.6707337778708622,
      2.645634129553609,
      -2.293575008538031,
      -6.129822480708243,
      -1.6895034721730493,
      -1.5398235549651331,
      -2.0074547823823257,
      2.995570659511618,
      -2.076652466116696,
      1.4664390620644308,
      0.8783285228013095,
      0.31205277890686556,
      -1.9164733452272533,
      -4.960631273479053,
      -1.0418181558251933,
      -2.8054098696285785,
      -1.1561730388837341,
      -1.5211347931978543,
      3.885855892040792,
      -0.9519069742469639,
      -3.066366383362552,
      -4.89712892905931,
      0.8545827532510263,
      -1.804556307784673,
      -2.2331628610300385,
      -1.4431827860459732,
      3.4953663328351614,
      1.1287054308433833,
      -0.7876500702754833,
      3.3817215556040843,
      -3.900339435369599,
      -3.664384836579736,
      0.9292392208335836,
      -3.083800774666538,
      -1.9958844003341076,
      -1.3313411548360354,
      -1.2482488983438407,
      3.8407590976447272,
      2.987322551302926,
      2.4446819460071505,
      -7.166188118344216,
      -6.079381873582067,
      -3.0182998984985923,
      -4.071547706959113,
      -0.8696903699677194,
      -3.2398873902637657,
      -1.2866758488647503,
      6.044908208634762,
      -0.7596289488891158,
      5.162966528888848,
      1.7264463920007058,
      -1.2077202404003813,
      -2.0151086764051116,
      0.04221627135267625,
      0.4353929952035557,
      -0.07301432540965735,
      -3.1078521644893833,
      -1.590298643956317,
      -0.6433710555558165,
      2.6079689539423954,
      -0.6774731230736423,
      -3.8078427388648244,
      -1.1709558341618376,
      0.24590424723108484,
      1.6721116602666073,
      -3.8491112976095074,
      2.3815034754181013,
      5.440697502655654,
      -0.8340492741177882,
      1.1274233590835108,
      -1.1449243416898027,
      -0.6979441519456582,
      -1.465940734539943,
      -0.8565798009439717,
      -2.572716135569995,
      -4.938774323650061,
      2.1226162942975555,
      1.3489251405105782,
      -4.275099293835203,
      -3.579657106625313,
      3.773360125926775,
      -2.5792782356987995,
      0.40113597188476946,
      -1.0182374264865643,
      0.07249726074532609,
      -1.0622774100139967,
      -4.4779483752674025,
      1.2509469331450283,
      -2.811237054379908,
      -3.6016855625070194,
      -2.1668602306831675,
      -1.7925403516502278,
      2.9296355279135815,
      -2.4175583778380743,
      3.8012089478019266,
      -4.67383574699573,
      -4.007564095524599,
      -5.437403692217923,
      -0.1812713617949105,
      -3.2902564804483414,
      0.27683294070012177,
      0.6237439429857781,
      4.331672187298809,
      -1.3527680085769438,
      -4.905410125925975,
      2.4724442478141677,
      -4.0733657459464085,
      4.880882871925436,
      3.377326682484262,
      1.5518999359390586,
      1.8129870829277361,
      -1.3421637699673084,
      -1.6637291849977434,
      -6.308845725428936,
      3.8710466040795355,
      -0.7145297121672383,
      -3.0678096011337788,
      -0.8365371268670898,
      -3.3667739974955158,
      -3.2013252576755864,
      1.3547580301646749,
      2.8927732060120825,
      -2.1024782091593117,
      -1.725248844331813,
      3.7902375975663256,
      -1.3626317044621785,
      -1.2757152052362117,
      -4.004248641395544,
      1.4959456192747047,
      -4.5050026192595265,
      5.836301048978667,
      -1.9536936867984944,
      -0.269858519282862,
      -1.656568291667226,
      -1.604625760904552,
      -2.799693088741904,
      2.9573351322526067,
      -0.6993867562130711,
      -0.772503388813604,
      -3.0162191348055822,
      0.009773666103386036,
      3.1960979495552864,
      -2.2477998328504993,
      -1.006017716236181,
      -3.5835175225212836,
      1.7018843656306977,
      -1.3437796113598097,
      -0.9851228913976915,
      -0.8365667819008132,
      -1.3359328945624784,
      1.3201431334383775,
      0.2069702945981261,
      2.732392866041116,
      -2.2986934864731654,
      -0.8248621502128557,
      -1.4079538014881379,
      -1.699667919530679,
      0.8904323910752869,
      -1.2385281603563998,
      -0.08265036991222896,
      -0.6725810904944544,
      1.614566771713279,
      -7.076951647033579,
      -2.576891043754116,
      -1.017922931349602,
      3.7600048107198365,
      -1.7085427664626982,
      -0.628566667906915,
      -2.163462459911146,
      -0.7161609960140747,
      -2.003445120943736,
      -2.2409107522946212,
      -0.21234642407646048,
      4.05066550571601,
      -0.8421821015034126,
      2.451113060112418,
      -5.606658587894846,
      1.3371626987828527,
      1.1369337783193725,
      -2.7540297850905646,
      2.587121149163333,
      -5.467721013722729,
      1.0962142688137102,
      -1.448247597495603,
      -0.6609099649383643,
      -2.9157159301306472,
      5.321674683879609,
      0.286414449491738,
      -3.3592577732663225,
      -0.5918106399530108,
      -1.2792563443974028,
      2.422685767915146,
      -1.9988059161718508,
      -0.17018469325872088,
      5.511187093710536,
      -1.3888278135715633,
      -1.2986478975629785,
      -3.829124301750313,
      -0.9971525577146461,
      -3.6450692952600354,
      -1.1409218699973778,
      -1.0793492138264256,
      2.9098028043559094,
      3.3824931934460833,
      2.3011626956649427,
      -0.5666412590836951,
      -2.0487583369206734,
      -1.0670786959262688,
      1.5595686403777982,
      -0.5288494466335997,
      0.46854417760691447,
      -1.1332779303392766,
      -2.9594009780552977,
      -2.0627106026142936,
      -1.1441509767272482,
      0.4143015725296968,
      0.8496882714067,
      4.768232728600163,
      -0.5318615286207355,
      -3.1373044620048165,
      1.8558496281154733,
      -1.6695627132533537,
      1.5743961558136035,
      -0.04836698688561536,
      -2.1699960639966545,
      -1.4269874899495876,
      -1.0162468966135527,
      -1.3802863654145754,
      1.3773888785865245,
      -0.9117061220514423,
      -0.8719576649846337,
      -0.9830962750480845,
      -1.0394991291638882,
      -4.072196940598372,
      5.295429375184036,
      3.2433453482493055,
      -4.941884518331271,
      -3.0976919511559586,
      5.69279261478167,
      -1.6572410814992136,
      -5.697177225834879,
      -1.366747898824646,
      -1.3897235445359795,
      2.029513254133206,
      0.5906834588514905,
      -5.651003498158595,
      -1.3843760680408184,
      -1.4400776519659422,
      -4.4088244371302805,
      4.3330500183588585,
      -1.9699146109996517,
      3.0834570551279676,
      -0.7234105929955621,
      0.5011217284987888,
      -3.438530640983232,
      -3.4921627981298866,
      -2.56323197945661,
      -2.6898978729594614,
      2.1305197077277622,
      -0.8122970864717802,
      -1.28489352389465,
      0.30284253541438005,
      0.4110489918968082,
      0.8261455409295912,
      -0.49962938258661804,
      -1.5806127813865998,
      4.275475950399738,
      -1.1737825317854969,
      3.348857418775092,
      -1.601349818016811,
      -2.4331636221290736,
      -1.0556206555823382,
      3.077317151928787,
      -1.058537387473428,
      -1.6140637710409842,
      -2.724882186360229,
      -2.9496503791178545,
      -1.289013659337841,
      -1.266741967521976,
      -0.6390019980758248,
      6.056464561785979,
      0.6152122499399799,
      0.5651680284528362,
      -4.745525691707185,
      -2.9581552221790774,
      0.8886918658043442,
      3.435905796485256,
      -1.3096692807838093,
      -1.2291784199249076,
      3.486826827088352,
      0.8857145473685895,
      -2.094466038172047,
      1.9890909546558748,
      -2.3382698589548427,
      0.6696625324468277,
      -1.5559483257735325,
      -1.8465738062703916,
      -2.0687531042613876,
      -3.8907778498856946,
      -0.5366241087223875,
      1.4529496149526873,
      4.774151986240604,
      0.9682476707043332,
      -6.088371357553354,
      -2.900232013771176,
      3.042904298427894,
      -4.686646109284528,
      -1.8685192794834,
      -0.28474423763268863,
      -1.3422440130377373,
      0.9918488601274701,
      0.11948337512871643,
      3.048427008434761,
      -1.754148094857185,
      -2.269112672233544,
      -0.08725596274353525,
      3.228043729297509,
      -1.0713179965076358,
      -4.346417566038399,
      -1.4529220437213284,
      -1.782793681119547,
      -1.415955263281679,
      -1.306818305080532,
      1.8301977219924062,
      1.1999955169196224,
      -1.6269627200635217,
      -1.5294064463952437,
      2.430483735536735,
      -0.8054242037719137,
      1.320749860025812,
      -2.336426992597458,
      -2.5248733773583942,
      -1.2400079600670337,
      3.277218326448968,
      -1.2511318262303956,
      2.2792101779794507,
      -1.0628910174573118,
      -2.9579052609410286,
      -0.7345639955876433,
      -1.1127741388781809,
      -3.271612087552387,
      -1.5031815054562867,
      -1.503884136615727,
      -1.65799989073691,
      3.2213637580976333,
      -1.1121201389320363,
      -0.7631716777866339,
      -1.6203874404147869,
      0.2629217484045371,
      -3.4403957069312905,
      -1.1900248980475139,
      0.9169692421185982,
      3.8089790896238296,
      -4.166501313037366,
      -4.8889997851292,
      -3.014416444392565,
      0.3182321172289677,
      0.8808430638584488,
      -1.0278400408468835,
      -0.6031414241919817,
      3.661453682976171,
      0.26342837039288614,
      -1.2519418559134008,
      4.789896295404287,
      1.5869366411096157,
      -3.3224141924215047,
      -1.475072527015275,
      1.2946049302503213,
      -2.342162521919276,
      -0.04781288544702267,
      -2.5208131743381075,
      7.487494448450199,
      -9.761624519799803,
      1.7507080583942145,
      -5.644673957951829,
      3.71459317991417,
      1.6593184752970112,
      2.4431717831718824,
      -2.9147450322731756,
      -2.8889491251827026,
      -1.4521189781796902,
      2.6811458881650077,
      -4.025922165976044,
      -1.4505372581660394,
      -0.7019341655385004,
      -2.556328540499936,
      2.5040865814354922,
      2.5754376640099506,
      -1.7440850377366157,
      -3.2577122084909127,
      2.722318382171818,
      -0.9701689318717399,
      1.571837595651853,
      -1.0720666909102503,
      3.0454804043752355,
      -3.7664921333070476,
      -1.327026539576207,
      -6.739970587109568,
      -0.8223922884142125,
      5.589954291691486,
      -0.5050510401269483,
      0.6784422075376028,
      -0.3747487713954146,
      -2.7790447739313233,
      2.6990156323205285,
      -0.21996373738158398,
      -1.382163122996408,
      1.4896066563320782,
      3.730807328717124,
      -5.144729101805382,
      1.5606832074867487,
      -1.348576552424187,
      -2.166323609408573,
      -1.1530987205400378,
      -0.9743911343671572,
      3.2017544978819807,
      -0.9049974183360394,
      -1.6024474415960661,
      -3.7293847218202627,
      -3.7617134584420038,
      -1.1270848923695662,
      3.3277250843653183,
      2.0201143614846577,
      -1.1722963633371515,
      6.182831648014215,
      -1.830423272372746,
      -6.800470907772059,
      2.187620202286782,
      -0.004647048385018726,
      -5.58373606635476,
      5.503247242141347,
      -1.7884046381057075,
      -1.2881599345489783,
      1.6549745467635508,
      -3.487042969860998,
      1.9654557983217356,
      -3.6868082857110025,
      0.32517867263533984,
      -1.4156845236669025,
      -6.971730472579227,
      -2.9037144495628775,
      0.8538595443120882,
      3.553028200936952,
      3.5294619536055696,
      -0.2366395800886688,
      -3.7464695911583847,
      -0.5177154011098383,
      3.8329314422345897,
      -5.3641789663776915,
      1.1267288572879897,
      -0.08003186045226052,
      -1.7069755285762462,
      -1.0641858044379964,
      0.8231598823339934,
      -0.23651695863151545,
      -1.6042418191376822,
      -5.329492288794519,
      -1.2303629158238727,
      0.5608242273059517,
      -1.1506658746852845,
      -0.33757451777255254,
      1.3459170254854644,
      -3.1489820190656346,
      1.700624289200571,
      -1.822442495321184,
      1.0162942300292142,
      2.4151291466833222,
      3.406687016312343,
      1.8328061540180909,
      0.8903203051006767,
      -4.059391695428175,
      -2.092152744972166,
      -1.2870430470251593,
      -0.151301844098157,
      2.6582733120462456,
      -2.32690459895737,
      -1.150604078038032,
      -1.088010606025929,
      1.8088020975420465,
      -2.3833202361582826,
      1.6237544821359213,
      5.973790573386508,
      -3.8315636999186866,
      6.04559445595421,
      1.0248102920489197,
      -1.1500867695934576,
      -4.922591033668282,
      -1.3285202448311968,
      -1.113765505370365,
      -2.03785340416341,
      -4.360360573476729,
      -6.409827231271273,
      -3.1515061024071374,
      0.12562099500729607,
      3.1378929367740707,
      0.9514321908355733,
      1.8985757478560636,
      -0.6268089881229822,
      1.35585357784452,
      -6.815940116361005,
      3.0749754976844046,
      -2.19254901172815,
      -0.10702015412676391,
      -1.027750031741342,
      -0.6811521920634623,
      -1.456807858069431,
      0.38696507516679735,
      -2.3412804161934697,
      3.4981608336139,
      3.814082212129966,
      -7.8770043743443985,
      -1.2662958823360158,
      2.5693411132526953,
      -1.5858319094433824,
      3.275299997638019,
      -1.1879084980484946,
      -4.907996260321256,
      -1.1563754190351667,
      -3.161449523360892,
      1.364562610816344,
      2.0286107126606705,
      4.689392368381773,
      1.2425834245898932,
      -1.6162940390710707,
      -2.7015082721939017,
      -0.14965995284498013,
      -6.299363268427012,
      1.320787439279521,
      1.0926527306793057,
      7.226516130514609,
      -4.579726493735613,
      -2.6259602267715376,
      3.863649494249628,
      -1.0333559938587902,
      -1.8873577449782057,
      0.2528063584522665,
      -0.8711767186257756,
      -1.3284196700263848,
      -1.9258060163671302,
      0.7946464550556942,
      -0.39618498653033213,
      -4.631302566828202,
      3.0487221661650707,
      1.0434797565274243,
      -1.9456575527748048,
      2.137187566400206,
      2.5035378405324558,
      -3.634738685663029,
      -2.050336921733549,
      -1.823102306501112,
      1.945111601224399,
      -0.46890195762062514,
      -4.360313510952806,
      2.8078680214794822,
      -5.717782350845818,
      -1.1511939633381882,
      4.871363377821574,
      -6.147499382762185,
      -1.248564105320645,
      -2.1600457531267416,
      3.768424649528427,
      0.6293530890087171,
      -0.9163080600800079,
      0.164339160204505,
      -2.8522915742983312,
      3.2717686705355673,
      -2.4849830427321864,
      1.832454182815244,
      1.9495239276744205,
      -6.356675929686795,
      -4.368738599080389,
      3.822908453748581,
      -3.0518086604786143,
      5.1432228336443515,
      -5.871418274701709,
      1.9820627406220894,
      -2.4362513922386855,
      -2.7274748262098987,
      -2.3489262273585645,
      -1.2837515769812222,
      -0.9478630898547968,
      2.6707054601613978,
      -0.7742598744223187,
      -1.0811924285937786,
      -1.2550566019479172,
      -6.366456739050005,
      4.198303295118764,
      -2.7200306894427824,
      -1.9452133024218854,
      2.8170556647506313,
      1.2796841276924882,
      0.6146705881808316,
      -3.0978671869323935,
      1.2955973451587077,
      -2.573889910748844,
      -7.817856300587759,
      -1.3675943142764548,
      1.0807296490583735,
      -3.8844465716302836,
      0.5702614463715029,
      0.4113698281804051,
      3.06446757928258,
      -1.1578353446330782,
      -4.211982694261401,
      -0.16153689517681202,
      -3.7817023170934165,
      1.463205149187129,
      -5.856147781364282,
      2.6414930946156843,
      -2.1351618549949496,
      -1.5932112688000382,
      0.06705960074539952,
      -2.752831077556268,
      -1.8136509194735355,
      3.722656421076727,
      -1.5003539959740355,
      -3.5724308413345502,
      3.012660993186529,
      1.6459454029412501,
      -1.208171346730575,
      1.6325222577896712,
      -2.227818959261952,
      1.0563846086128938,
      -2.4867605090486746,
      -3.6405112907921975,
      0.867177505534882,
      -2.1207693244196344,
      0.31191314675372206,
      -0.6909373955762157,
      2.51987659554601,
      -1.6156286964193458,
      0.9014446779709607,
      1.2055269559651824,
      -1.516831723745742,
      -2.0052857347060806,
      -1.0947218464444213,
      -0.921858869999029,
      -1.1814066904550289,
      2.1503744515958094,
      -0.6236220594987,
      4.210749256618129,
      -2.534758985554599,
      -1.3237241460376095,
      3.6880823087697427,
      -0.8637614473955377,
      1.4052129032595104,
      -1.0037705480399923,
      -0.9558003366530406,
      2.6583346395370486,
      2.4609212737591637,
      -1.0422539332587248,
      -0.9906295557163399,
      -1.1627785186413309,
      -0.9279757648344191,
      -0.3483303153553185,
      -4.407635463361272,
      -0.40207054660424274,
      -1.8046127664090903,
      -1.129494667638904,
      2.339356390168803,
      1.169309220485815,
      -1.1743257148273156,
      -1.1777471435271507,
      3.8899232455494355,
      -2.0334736935327227,
      2.2052123631575022,
      1.7214310774375967,
      -2.7861729548100613,
      -1.4879304700174463,
      -1.3180190928315314,
      -4.679217081995789,
      -1.334378599036845,
      -1.2509186455490073,
      0.41952405808081744,
      4.075306219860535,
      -2.7202748986201883,
      -1.258211541214506,
      -3.846500919313894,
      -0.26996640259346255,
      -1.6207346434194734,
      1.0451615791735223,
      -1.5178408143904916,
      0.1079588356128025,
      0.8159443823751105,
      -1.3505083852712685,
      5.551198077324631,
      0.7627931504456887,
      -3.465431584900686,
      2.3934400576421297,
      -2.5994168473054384,
      1.1767232433360777,
      -2.242752712296462,
      -1.1170484145414556,
      4.441191422729945,
      -6.254113849274269,
      -1.0700963458379336,
      -0.898738591317554,
      1.1886475676950727,
      -1.1158880318265878,
      -0.3195389621563855,
      2.7789521555597854,
      -1.7864361338942634,
      0.03587561064233863,
      -1.4944682110910756,
      4.265283441272585,
      -1.0068425701004529,
      -1.0115186369587184,
      1.911152055788625,
      1.5732133841922744,
      -5.125293403144873,
      5.335855377812304,
      1.4143933027946058,
      -1.7627112793451172,
      1.3370482786793163,
      -1.0000713199468712,
      -0.9524456414554704,
      -0.7310389291435471,
      -2.4417037209693944,
      -1.7008888980757044,
      -2.4752986344698584,
      1.8113605673633684,
      2.9331133707420913,
      -1.3890180460287302,
      -2.5933306496406874,
      -0.2941289031479082,
      -4.1456171330734355,
      -1.483314004514098,
      0.6183274081038126,
      -0.9241330226367499,
      0.49302641488687926,
      -2.518610989326776,
      0.1725602528218244,
      2.333809232939874,
      -0.7938612500184385,
      -1.3611912527277386,
      -3.152257822758735,
      3.4764076213953716,
      -3.833121593358762,
      -1.3875200900171571,
      -0.7159096445659039,
      -1.253235321410471,
      5.046352324118738,
      2.3591765792855726,
      4.843840229491757,
      -1.8953407216218754,
      -1.1853989611110165,
      1.8469741274084877,
      0.5531409873388158,
      -1.3613796363290676,
      -6.866157040124441,
      3.2700485999697575,
      2.6195045523134555,
      0.34077743835668883,
      1.971056781979468,
      0.7527249113805939,
      0.3981724930640784,
      -1.981331543796783,
      0.6249650559822618,
      -3.879728694511837,
      -2.4416330356811686,
      -1.1284889225956631,
      2.4974097055086353,
      2.8413346831651856,
      -1.1790813091693746,
      -2.0909429948504714,
      -3.098678565153103,
      -2.6659071510727492,
      0.7505439620782902,
      -1.1715560362965514,
      -0.207057842416849,
      -1.4035708609301714,
      -1.9161685405665354,
      0.1897010449884854,
      0.8226720701390757,
      0.5177775166154676,
      9.56395849796074,
      -0.6734869990943663,
      -1.559820177883053,
      -4.559611245550756,
      -2.2097301025703975,
      2.847054394333984,
      -1.4186766738321934,
      0.6068595820610206,
      -1.9655746219570627,
      -1.227757158233353,
      0.6854434092075828,
      -0.9837910243900695,
      -1.8863691172285508,
      -2.1931595248823763,
      0.9218510327703878,
      -1.5870999245999768,
      2.6182288433250647,
      -1.7653157297487105,
      -3.2558368194743488,
      -0.9202375991057968,
      5.1367238390751275,
      0.5308637246359597,
      -1.2351507582983103,
      -2.3867008730142545,
      -1.2367039652989726,
      0.3621839046128005,
      -0.8222174078268443,
      -0.013123258649188618,
      -2.081374225069946,
      1.6138588910483735,
      1.5391785152932655,
      -3.740970758273962,
      -2.3503688425481393,
      2.212415663714026,
      -1.1164247009077077,
      -1.0573993625537537,
      2.4429075651560055,
      0.8321019146731001,
      0.042691718181623595,
      1.4911652398850088,
      -2.055063321049797,
      -2.553765479722813,
      0.1810788440248408,
      3.4444649775860086,
      -1.3519730394653897,
      -1.26636825268232,
      1.802352528432122,
      -1.2777352763951377,
      -0.20910928013005242,
      -1.0429862498124511,
      -0.8915164569336895,
      -0.03693655973803023,
      -1.3540635218328971,
      0.9173124064536391,
      -1.7019634486058386,
      -0.6860871245442397,
      -1.2326128451693625,
      0.7600131306634885,
      1.0668296979659586,
      -1.6735902231301027,
      -1.1245227079472004,
      -0.045386176836237135,
      2.795878408450869,
      0.10688966107058373,
      -0.7946831181951071,
      -0.5019927697539497,
      -1.4454443022663723,
      -1.6754407193230394,
      1.617325607627993,
      -1.9693012379689199,
      2.257674042404303,
      -3.648092785988732,
      -2.7243246073531378,
      -1.1507697714516805,
      2.64963193338383,
      -1.7363818078380213,
      0.23145507447868963,
      -1.1231497883054598,
      -0.1443961452649129,
      -1.1565725754354033,
      1.8737521143755256,
      -0.9924304136789822,
      -0.9455126387198117,
      2.4702001471060133,
      -2.4296856499710042,
      -2.558352078282372,
      1.3202582581242455,
      -0.9272234952216052,
      2.281840682006685,
      -2.8757758623296508,
      -0.6880207911612297,
      -1.4903169544518655,
      -1.7143872002263612,
      1.3847838966197217,
      -3.7955757492702586,
      -1.0634959346621715,
      -1.4980093657939997,
      -0.9639379259430337,
      3.71538706132716,
      -4.033857981705813,
      -2.596356015383184,
      -1.5009755721380644,
      2.9697082059909787,
      -1.3986132651325474,
      -1.3071999085206927,
      -1.227002998172413,
      -0.8070228047605285,
      -0.7325123748039983,
      -2.0112214324486963,
      -0.487780120266813,
      -1.2371170046559117,
      3.7945315425686523,
      -0.9251030310691436,
      0.8052143899015383,
      4.589619186804271,
      -1.6646517407301007,
      -2.716387233865068,
      5.157349494839517,
      -1.036090310431736,
      -1.4703391652721993,
      0.00022260056051595645,
      -1.2901013632716718,
      1.1338970861165163,
      -2.680810940003083,
      -1.2642527505349557,
      -1.734879816112918,
      -1.1626136212396383,
      -1.3052139078511187,
      6.301270685934729,
      -0.3652239117964486,
      0.5343008290941638,
      -3.8157202225901403,
      -0.7041676434781089,
      6.343300544367648,
      -0.6571949416768331,
      -1.0726053406960776,
      -2.1854130288674725,
      3.5798071942924863,
      -0.12770909605492037,
      -1.4181464381254876,
      -1.4428029982009432,
      -1.0134166661292874,
      3.0502057436287773,
      1.4831657566339274,
      2.5699327903031355,
      -1.1769425454561768,
      -2.0403029019643495,
      -0.5511934714959437,
      -0.3965069925645609,
      -1.1741267408235465,
      -1.1090202256698876,
      1.8549982764793826,
      4.924652966750857,
      -6.038573581807202,
      -0.24040456705070706,
      -1.0727085116965092,
      -0.8524226581180937,
      -0.39076938621616675,
      -2.245056580490812,
      -2.8592011910691486,
      -1.413948156236819,
      1.882707940039627,
      2.0948367720429073,
      -1.1730756555779167,
      -0.5678822276937222,
      6.633830515831249,
      1.6245338081815663,
      -1.9246292468709316,
      -5.78583413802315,
      -4.015738341699299,
      0.9005848816086212,
      0.6396860228329226,
      1.2731644985408463,
      8.7550694566854,
      -2.510704683519868,
      -3.159961339393769,
      -1.2116541111172205,
      0.3340190606488169,
      -3.896417429827271,
      3.641108388989483,
      0.3615713781409896,
      -2.591691265878242,
      3.604191725234257,
      0.302904556673245,
      -4.26102154869833,
      -2.1425190152538063,
      -3.724330719579167,
      -0.9591196359383929,
      -0.9152289338468206,
      5.3386354373724485,
      1.9975221740037186,
      -2.5392555665343304,
      3.448370742343612,
      0.32387205632147315,
      -3.8060975328407554,
      -1.4316009801124314,
      -1.5069334387878128,
      0.5428526122259528,
      -2.4180707252668006,
      4.057120722860472,
      2.2205786958190306,
      -5.659210574720062,
      0.10812971531766224,
      1.5087200301417056,
      -0.9118332080436066,
      -1.22788599646072,
      -1.874845401976711,
      -1.435005482128834,
      0.726802734715031,
      -1.6077584648269663,
      -0.956332276916058,
      -0.23182033197586338,
      5.38488281091689,
      -1.705598938955145,
      2.533408953633729,
      -1.8096789149612764,
      -1.3337081942157967,
      -1.2503294617833056,
      -0.21111396325547116,
      -1.1414626132011076,
      4.847603563097701,
      0.7006767086522384,
      -1.1533650142961465,
      -0.9796482935124127,
      -2.115306135833442,
      5.079888617983326,
      -3.788872609033833,
      3.792419477978285,
      -1.0946677867634576,
      -0.13458812570414508,
      -1.0912030181019043,
      -1.5165257504054979,
      -0.22846739385237202,
      -1.544103756639839,
      0.4747606898543718,
      -1.359424980278519,
      -1.4542735416391173,
      2.850043074014125,
      1.3948589607846817,
      -0.5684796657659132,
      -2.4122933454316575,
      -2.8815680657741196,
      2.573136899526755,
      -1.2748428336372315,
      5.383774741955687,
      -1.8226798475434571,
      -1.2850231623802895,
      -1.2074435179863683,
      0.8757030455287795,
      -3.0164594615335356,
      0.11750487931407871,
      -1.7244459038307087,
      -1.0569796768935191,
      -2.209297031089147,
      -0.9840082341572824,
      3.197582639950104,
      -1.026424632309282,
      -1.50662293651456,
      3.9828846385747583,
      2.239186812181304,
      -2.84037311319492,
      -1.3477227785337962,
      -1.1673174464364235,
      3.135911364136814,
      0.21492936799675422,
      1.2123758881761797,
      -1.1511849903224076,
      0.4200367593037947,
      -1.1699577248167605,
      -0.6440875854778318,
      -2.927079719275999,
      2.6929979343546537,
      2.6443537194092523,
      -1.4177202295739648,
      -0.7262416994939676,
      -1.8439948436610925,
      2.2571149881333987,
      -3.8868321719072565,
      -0.788171745797385,
      -0.9491065621554986,
      -2.7307711688881553,
      -0.7429361847391558,
      -1.1397139090209576,
      -2.2260582923765164,
      0.04827396802332684,
      4.070485898113886,
      -0.0932770544381002,
      -1.8003709114559006,
      -0.8791877933548832,
      2.8931938649838624,
      -1.4436218859182004,
      0.07491343833535624,
      0.3497589294574344,
      2.758855662468692,
      -1.0752286939968192,
      0.24833187388220107,
      -0.09598105068413054,
      3.7372867731158124,
      0.556957538182693,
      -1.4218244228655097,
      -0.8866085935237228,
      -1.8453251443636365,
      -3.279424117935384,
      -2.388196243978422,
      -1.03459463473431,
      -3.344785087514508,
      -1.3493395712404215,
      -1.2338884232059344,
      -1.2544486896990852,
      1.5733785456630436,
      0.05028945814482355,
      1.197911609837162,
      -2.8396470034488606,
      3.8096807362301304,
      -1.2353815039490776,
      2.7442753524761567,
      -2.542831948389767,
      0.27944538468220537,
      2.5637890324074495,
      -3.9859450441063795,
      -1.404796688379446,
      -1.4207444232394761,
      -1.5470063047940903,
      -2.1928081888478026,
      -1.4615281755537632,
      -0.011260398570088925,
      1.1401743894909444,
      -0.6498406699944478,
      3.576297042340909,
      -1.5332749525973373,
      4.0159391751898985,
      0.6243253669895619,
      -1.0138072865573697,
      -0.6772201999835596,
      -1.6024738337384141,
      1.1679813136514856,
      -1.0008683962690144,
      3.367228262534126,
      -2.4813041021516393,
      -1.2767581551697589,
      -0.15973416211953645,
      1.82251275330101,
      -0.999167671653872,
      0.24744258027569999,
      -1.4673959699719141,
      -2.395066398695627,
      0.8307746371361439,
      -2.539501184627957,
      -2.93704795921309,
      1.5625106202770755,
      -1.4946241701661167,
      -1.2146437945135025,
      2.969038724783293,
      1.6834178515603313,
      1.9757145852836144,
      2.2029952461227635,
      -1.1448548011119328,
      -1.1627598798982481,
      0.46666181275852603,
      3.3934657892512616,
      -1.7149543711893696,
      -3.826728296080713,
      1.8721637979116845,
      -1.4650099277406206,
      -1.254768565191858,
      -0.8703403492891655,
      0.7096507832084757,
      -1.0300483045267395,
      4.062272380819939,
      -1.064737281636427,
      -0.08642292821876507,
      0.5262729570982355,
      -1.879871351812005,
      -1.2738856601743493,
      0.4938236934700186,
      -3.4794614657849885,
      0.570680171563686,
      -1.5281272701326492,
      -0.2526684356221445,
      1.7132575340338543,
      1.7350353431510317,
      -0.5667562061941457,
      0.6577688471605233,
      -6.327108384817581,
      0.9553109053916983,
      0.5928330774339953,
      -1.1713104041860802,
      -1.1065072324993956,
      1.7443171588467448,
      0.45159114416298574,
      0.026317866607790008,
      -1.4024736882531825,
      -1.2907336122251452,
      -3.39748756188303,
      -1.3259226110280735,
      3.9056160397601682,
      -1.052700983873367,
      -2.7306809830036256,
      1.9677699086930973,
      0.3369977208266003,
      1.2669808513325669,
      -4.049046204171654,
      8.153340667578068,
      1.1990257724680164,
      2.128228088986048,
      -4.707706147050058,
      -1.722667820253415,
      -0.9927336359494925,
      1.8078702808618496,
      -0.9469936626584499,
      2.9315034398696147,
      0.40111706224851496,
      -1.4370155355576675,
      -1.3160020005223083,
      -1.797995778660939,
      -2.9661579909729396,
      0.8230211829406866,
      4.846031993011843,
      -2.5755903694766147,
      -1.1734522769468543,
      -1.1258799791685206,
      -1.065877473770286,
      -1.0119469033250004,
      2.7415542874008203,
      -0.9957031949435916,
      -0.4534139821597599,
      2.1869702417709083,
      -2.680914785373691,
      -0.2907865549854247,
      0.34965079474579486,
      -1.1977525040119872,
      -0.7784592102430635,
      -2.3445710232309596,
      1.151377112037509,
      1.6527059280570158,
      0.12586849149379975,
      -1.869807582432701,
      -0.8183561125871255,
      -0.7141025717669129,
      -1.6874541848124238,
      -1.2384258809016742,
      3.2449540155457175,
      1.3846028446288101,
      2.113819471982541,
      -0.8877536618206836,
      -1.338826865098918,
      1.1596234697911962,
      2.5082900915793855,
      -6.353334561421593,
      3.9007935568617356,
      1.679078798134975,
      -1.0660964734455167,
      -1.6790883255947726,
      -0.723328592393345,
      -0.8069021000082361,
      -1.1986300915878993,
      0.06312386796455521,
      -2.4926914500845028,
      -0.8986983606684975,
      -0.8600519947786359,
      -0.8245923787667555,
      -0.7919409549716127,
      -0.761776841023829,
      6.549645942677409,
      0.8619393072682969,
      -0.015324108840857331,
      3.2557239853694595,
      -2.481937014025992,
      -3.799516778743379,
      -2.35607775612723,
      3.4450633895780745,
      -1.3701216103713458,
      3.073849314934894,
      -1.0643422209443316,
      -0.8332799217435378,
      -1.3727205555768296,
      -0.7991849301967406,
      -0.9662438526813472,
      -0.007124501395610383,
      -1.8631096783447947,
      -1.1412450296974523,
      6.005795440410777,
      -2.51537066836986,
      0.8820577122398404,
      -0.5448273529773848,
      -1.0914223305122703,
      -1.3608593318157887,
      -0.668501379445506,
      -1.0109384881495842,
      -0.6672024398009271,
      2.7952846142271772,
      -5.070110885163257,
      2.0852003935311503,
      -1.3681526770422017,
      -1.3573509652914018,
      -2.040344023210082,
      4.399230846262581,
      3.5108819065277217,
      -1.4817383963195605,
      -0.5457400925440112,
      3.5404822009215193,
      -0.5639673808914533,
      -1.7384973759489875,
      -5.357676587113809,
      3.2033870044510686,
      1.886270162265373,
      -2.4837082134481876,
      -1.365230762449448,
      -1.04901525027358,
      -1.5914352534483462,
      3.8178209301154578,
      -2.7878921128348524,
      0.8888511227043878,
      -0.817661059886255,
      -0.9220004273793392,
      -1.303870588636458,
      3.49637603108584,
      -1.7185391505890872,
      -0.7651447999664593,
      -0.591063205522467,
      3.2488540878610954,
      -1.2422381319699989,
      3.683392471168076,
      -1.1688210880043532,
      -3.0548350415798184,
      -1.8923679445690609,
      -0.9690705118711435,
      -0.9242856151611747,
      0.764792270417578,
      -1.852232876878703,
      1.5251791128709509,
      -1.8858438180503843,
      -1.03692738217405,
      -0.9133335063200226,
      2.3358459833159895,
      -0.9432023160379964,
      -1.7758943530236424,
      0.6058692839738917,
      -1.1756373690211879,
      -1.0002112670502423,
      -0.2352609864681141,
      -0.12477269628359522,
      4.098873993714851,
      -0.5188939318933696,
      -1.2081062298518903,
      -1.1392872298530798,
      -1.0778861344427628,
      -1.053232874612298,
      -1.4093563743281798,
      -1.021770247987533,
      -0.972106759739085,
      5.309596772980481,
      -1.323472832944978,
      -1.0096737754958391,
      -1.0710591768138877,
      -2.195144562968787,
      0.7353571062681726,
      -0.3528423315006758,
      -4.557811523751216,
      6.014639213320406,
      3.7543406756707434,
      -0.6788870553212117,
      1.5724596722708388,
      -1.0039499172734079,
      -0.8736681332850511,
      -0.11965630496746571,
      1.7765572345938685,
      0.19916575508122658,
      -1.027164564913873,
      -1.2433922037002065,
      -0.9935708916896797,
      -0.4852941104982094,
      -0.5339145016141863,
      -2.0070027744456986,
      2.4210753087589665,
      -1.834673529872973,
      -0.8567763098694665,
      0.22759992435885046,
      -1.1498771763550757,
      -1.898576134843391,
      3.232318613862852,
      -1.3046108334977715,
      -1.0964291520530172,
      2.4413361080920764,
      0.9131449208480787,
      3.6279869087615686,
      -1.1717078501775633,
      -5.5876825936194106,
      -2.5093699421165963,
      0.5679351261759302,
      -4.429754611378249,
      1.7103334999937059,
      -1.1515324415396095,
      0.010365086812943902,
      -1.4121809812574742,
      -1.1035322868573245,
      3.2041903431309846,
      -2.7747475697634565,
      -1.6691109561648907,
      1.7172234054668776,
      -1.45128408066119,
      -1.0536843073079953,
      -2.5491031710889174,
      0.5504905883432921,
      4.643589599451604,
      -1.8536403090309599,
      -1.3484181464699518,
      0.13011568750601876,
      1.6896950020507435,
      -1.7899097038318503,
      -1.001743760044625,
      -2.506798936829011,
      -1.9191075016021828,
      -1.058449333577288,
      0.7900542368091601,
      7.337587545037586,
      -5.8547647765142505,
      -3.082098873486712,
      -2.687152355155795,
      5.312297692677264,
      1.5756552296025772,
      -0.7039783511464561,
      -2.0600410435569425,
      -1.7399342561885678,
      -1.9642533413696133,
      -1.3083163941021843,
      -1.1641950681011763,
      4.980072215202082,
      -3.1330650779412563,
      -4.926623034721629,
      3.291419333230976,
      -1.1018834310732397,
      -1.2877870281835697,
      -2.064827510914414,
      0.8117619622393106,
      -3.621623446232265,
      -3.7488358196203784,
      1.7764592958693284,
      -0.8010123015553884,
      -1.292975358963505,
      2.395112008355008,
      -1.7512711674624013,
      3.8233156972493685,
      -0.6766579166890514,
      -1.0958678923886513,
      -1.710152798247496,
      2.169518526395427,
      -2.104454312479848,
      -1.2065720917636764,
      0.8768891258065934,
      2.094590945051305,
      -4.07975001077893,
      1.886131481053336,
      -1.3957443319015166,
      4.320672249708891,
      -4.472999387645414,
      2.1393196763088094,
      1.946113131482956,
      2.432719838068908,
      1.1344628089821112,
      -1.2159182041892518,
      -1.755186793596791,
      -1.6141021260379023,
      -1.0223744668776216,
      3.2513376601220636,
      -2.892495752476063,
      1.030561415687432,
      -0.03156257109977878,
      -3.426662945325159,
      1.0124255752112785,
      2.0517778223843246,
      -1.8736043441586592,
      4.017166398261563,
      -2.3178244779029895,
      -4.2605481105367975,
      -1.2166307055153813,
      1.4799692935611448,
      0.3077161080512165,
      1.8337723617731219,
      -2.1546310313551795,
      -1.0968274650956127,
      0.3072636029741591,
      2.3508289713486863,
      3.4970630528987576,
      3.105165729939052,
      -1.0254551564641876,
      -1.9602861686772846,
      -4.104066436368104,
      3.234988868376507,
      0.6485096147209377,
      -1.019324131909959,
      -1.9906392977975451,
      3.7734539631977047,
      -0.38445041740374364,
      3.50947423308505,
      1.0292280440838568,
      0.14468197928100512,
      -2.734055577145738,
      -2.829858654434019,
      -4.195516115963776,
      -1.4331532599033667,
      -2.011338022996325,
      -2.7035796115619295,
      -1.3078474394753667,
      -2.529608577873754,
      -1.0776174935179987,
      -0.5495820402686555,
      1.8270400178483222,
      -2.1135661132864363,
      -1.2678491657415505,
      -1.1922683444490605,
      -1.1786121516600456,
      -1.1449104979565419,
      2.397540830321111,
      9.090052719526394,
      0.4082513219124879,
      -0.08458906758527318,
      0.5156049307212686,
      2.8136995424346507,
      -1.4701261599944324,
      -1.0532381151155332,
      -5.639152441216223,
      1.0096245556425982,
      -3.0287867376030437,
      -0.9740241160138515,
      -1.0582575889792267,
      2.919749282741561,
      -0.5825067857145663,
      -1.8143672986866224,
      -1.0361506345349567,
      1.655225828603219,
      -0.8929855582268325,
      -0.44209624282675375,
      -0.907794250232068,
      -2.6926993752276696,
      -3.3472413622356534,
      -1.2387056968587686,
      1.2664857518273764,
      2.387486546468988,
      -1.3227413209602052,
      -2.2947426441436134,
      -0.9781379896566138,
      -0.7164096188514903,
      -2.0156532629661412,
      2.533721211480428,
      -0.4044345134233445,
      -3.175568806935665,
      3.2673640131885127,
      1.8566313550970799,
      -7.193609212799343,
      3.03658673646414,
      -1.1630160401861205,
      -1.0188363333128678,
      1.4621291031039876,
      -3.6360569167661234,
      -1.7794040502156103,
      -0.6407552496302471,
      0.8973271195116677,
      1.6094834749426672,
      -1.2090017750433109,
      -1.1400836190847479,
      -1.078598968317711,
      -0.38860848235826906,
      -1.2504841064167247,
      3.2699366999655215,
      -1.3183159145719945,
      3.0233400134858845,
      -1.1684097038569925,
      -1.2039604611044632,
      1.2787547415236453,
      -1.0549145895790153,
      -1.0020601936814677,
      -1.021437690192196,
      -0.5869014138780311,
      0.6794907486027886,
      0.22111058164115593,
      -1.5144037181080248,
      -1.1105159987065125,
      -1.8472183656785615,
      0.5232231119296252,
      4.155561258440488,
      -0.3122514865809668,
      3.758999112950487,
      -7.316114559547989,
      -1.384284394012326,
      1.707430465810264,
      -2.9566216270029653,
      -1.4703248934791788,
      -1.0513652253103363,
      -0.9988570470919059,
      3.7940337902965844,
      0.539833286925639,
      -1.2710254799138077,
      -1.0284968822296736,
      -0.8541161114087159,
      -0.9600962560040328,
      2.464913903067915,
      -2.2480670510685146,
      -0.7534847000205406,
      1.8971003530305575,
      -0.9372733070145488,
      0.7598390637214666,
      -1.0740265984555273,
      5.152623229453758,
      -1.0814652345954279,
      -1.4549266949809159,
      -0.9516846891045427,
      2.535933157922754,
      2.783005360347631,
      2.7389764311856237,
      -2.8276158197931744,
      -1.212652611086257,
      -1.1433295338580094,
      1.00802079198237,
      0.07426882811983726,
      1.182099472797689,
      -3.4261738611657155,
      0.3509830836485103,
      -2.3883772601533977,
      0.8234180133631296,
      3.533839276536483,
      -1.140475371980903,
      -1.0789495996787875,
      -0.24716686478938166,
      1.3898633831875584,
      -1.0140545994015417,
      0.9308625805483473,
      -1.0137160939856154,
      -3.0898291335906216,
      0.31748265646050267,
      0.14577127339148666,
      -1.243410182433076,
      0.3755784038013208,
      -4.70589045864827,
      0.9585913493336444,
      0.4782633610222674,
      -3.165142718828011,
      -2.478706839865927,
      -1.4579447348198458,
      1.183447752445467,
      3.2375292335204335,
      -2.481911710503809,
      3.5343224599748426,
      -2.6108213761144246,
      -2.0261263237672544,
      -0.08699065995346045,
      -1.2042797504505078,
      3.627305163881302,
      3.2924302914775394,
      -5.070769577639991,
      -2.1104324709427407,
      3.2044196762698576,
      -1.201778213494097,
      3.4770751470069277,
      -0.9951171547251652,
      -1.8220726218087724,
      -1.0901805190403466,
      -0.463554171419888,
      0.20591356442836495,
      3.7451146773588713,
      0.024725743922641152,
      -1.1338533333788396,
      -1.0730209162453397,
      -1.2146996695615657,
      4.480213743255112,
      -3.11470755028638,
      -0.15263267540458525,
      2.1105657747287614,
      -1.3018001751094224,
      -1.3393888683107058,
      3.3978231998984243,
      -0.09548521728633697,
      -2.1978377269499125,
      -1.6064994579212961,
      1.5800405986673804,
      -1.7829494062461158,
      5.102835349847964,
      -2.12181401452077,
      -0.9328412328110673,
      -1.0106066756537029,
      -1.9490234830596307,
      -0.5131877537872602,
      -0.9862507761854117,
      -2.0269015165580497,
      -0.11091955602716264,
      2.5116095793840483,
      1.173650840896896,
      1.3607795293804392,
      1.1399365657114022,
      -9.21093154939892,
      -1.031457882459466,
      2.258307442889405,
      -1.0992900140555164,
      -0.8616453052943707,
      -1.1284915481368663,
      1.7168175140807704,
      -1.0493319243412782,
      1.6190787136682947,
      1.7242006275607535,
      -1.6900991995655534,
      2.5254605313721865,
      -0.9062514193182111,
      -0.8669669192639657,
      -0.8739912912202074,
      1.863852727110993,
      -2.2589016764835783,
      3.2644480810953356,
      1.3395707990709993,
      -0.9896877224380966,
      -0.7863174225367886,
      -0.9155143334794823,
      -2.0411773797928983,
      0.3077036921597042,
      0.08362370120511775,
      4.249254678081877,
      -1.1806681193422361,
      -1.114854463220683,
      3.086328777155442,
      0.27926030131797885,
      -2.337817405526525,
      -1.1916061780274672,
      -1.1246020410316846,
      3.617999806033381,
      -1.0337350661794575,
      -0.8732575849381528,
      -0.970929118945901,
      -1.5685511993890506,
      -3.301063660802079,
      3.637333426823883,
      -2.8481112669353363,
      -1.8845874251349535,
      -1.047254464355974,
      -0.9951459142849479,
      0.48316596029118225,
      -1.1159008415502822,
      0.26554399128006045,
      0.33652677758181654,
      0.09962651798312366,
      -0.7236855071179379,
      3.9258425686084437,
      0.5351855725030753,
      -1.0705171227815335,
      -1.0161280015515952,
      0.5898115481499806,
      1.0739057463501833,
      -3.442571285899429,
      0.4982794747316258,
      2.6894677357380417,
      -1.2223189253000206,
      -1.2238854813093547,
      -1.1533095411649859,
      3.777046256752141,
      0.8998172929170611,
      -1.0627831076413292,
      0.5910978633682981,
      2.5558159085981136,
      -1.664485307780556,
      -0.9157209931501218,
      -0.986643473274536,
      -1.373496742367113,
      -0.04009693374489942,
      2.5853262245766153,
      -3.4432333511322057,
      -1.4945703579358984,
      0.6834402561032462,
      -1.133915997530752,
      -0.10347606723617608,
      -1.136466525294073,
      2.6873454293608363,
      -4.438453710566408,
      -0.8421940905074554,
      -1.0220808735640823,
      -4.101450793696949,
      1.3566767496760168,
      -1.4825052025667138,
      3.4377708764363497,
      -2.07986539507899,
      -0.5161358464455106,
      7.175797648001074,
      1.0865960540040127,
      -2.2805591360154702,
      4.83485376404632,
      -1.3376741458172794,
      3.07581827547822,
      -7.0083177011602675,
      1.4991441503427398,
      -4.374801645881055,
      4.303808513889982,
      -5.690509134645462,
      -0.4373276474430483,
      -2.6094172063063836,
      -1.3937229282897985,
      -1.4672929662788499,
      -1.1132554830123649,
      2.83279885404517,
      -1.5515962312594367,
      -0.5638174524080538,
      -1.0635862255711177,
      -1.1579623853374545,
      -1.0945878097788155,
      -0.5657320426487524,
      2.892436965916101,
      -1.3663136471689004,
      -1.111760816499768,
      0.948723828320202,
      2.5663167673958336,
      -1.198636850652903,
      -1.1227505591488172,
      -3.2173193440317656,
      1.53596819897811,
      -1.3926685458762997,
      -1.3020054444257292,
      0.0778969033105541,
      -1.206828172518748,
      -1.1381505642438674,
      4.954370959576813,
      1.2886499033441723,
      0.7056163044265166,
      -7.0281389890791095,
      3.5201605097299975,
      -1.116219092829022,
      6.066141948826074,
      -0.6399558563710152,
      -5.168160939043003,
      0.25242585832879605,
      3.2898585478153306,
      -2.6224577307096952,
      -1.14839363839699,
      -0.865340084456173,
      -1.0844254115009795,
      -3.4448143311011377,
      -1.17612509750836,
      -1.1108029368855077,
      2.778348738021911,
      3.8598313231690673,
      -2.967393166816209,
      -1.2078960296403591,
      1.0501648789828586,
      -0.9669255386869219,
      -0.9223341179924625,
      -0.11614246903887382,
      -1.1182326561820357,
      -0.8935191118204147,
      3.660755134716166,
      -1.2551942430377285,
      -1.181070592614203,
      -1.1152133103470605,
      -1.1723306436948226,
      -1.0442887421850624,
      2.9975736112919473,
      -1.0840405610130206,
      -2.3909530672005226,
      -0.5764033231392538,
      -0.9952581490136713,
      0.7610764645443544,
      -1.9727146892256597,
      2.431525609634993,
      -0.3362953584696762,
      0.1633054092105547,
      -5.484626405644694,
      2.0103102777125264,
      -0.9464725351314972,
      -0.3805291774991282,
      0.955227399646877,
      -1.0389444695336214,
      3.5927716929141402,
      2.3740510206096075,
      -2.9392818644831205,
      3.4126160956919698,
      -1.6942548938160098,
      -1.1395445069722958,
      3.0051714284004314,
      -0.4026633554887863,
      -0.10257809261036915,
      3.032067707300781,
      -3.3282675108648916,
      -2.8464949694915367,
      2.8241564729437187,
      -0.7522051539657663,
      -1.1361755474016233,
      3.024328552279461,
      -1.0287643920199285,
      -0.9784354162152556,
      -2.995885870752724,
      0.5590343889890291,
      1.742975795893433,
      2.727616402103778,
      -5.109565937604966,
      -1.034905697967383,
      0.1550689709872889,
      2.337691289525188,
      -1.1044628752945296,
      -0.305819377816264,
      1.5474642044849451,
      -2.495787185366715,
      -2.6582325904012114,
      4.179196845552292,
      3.6840117198525006,
      0.06591015548005119,
      -1.6134617587147502,
      -1.0974985419202794,
      -2.1061429255241855,
      2.7173713478813024,
      -1.0998018027488676,
      -0.8686216881180343,
      -2.0198266554669857,
      -1.2220556910218239,
      -1.1015721693496718,
      1.4350422103030116,
      0.10507653485288787,
      -3.3426335516907786,
      -2.5969852603789096,
      4.080444871483596,
      -1.33051873846387,
      -1.5191683127121771,
      -2.181593843062095,
      -0.03937981816030989,
      -2.874271063271214,
      2.6941498078869612,
      2.4230836767322605,
      -0.9769499092650817,
      -1.636743657028259,
      3.854499473143628,
      -0.9789535636446621,
      0.6109240687170416,
      -0.9486919053123973,
      0.8918795918001803,
      -1.9093469679982786,
      0.7670192363276894,
      -1.7764348836962014,
      -0.8530566274830222,
      -1.6797490952876113,
      -0.9353551395440624,
      -0.58827935670901,
      -1.5420798808894285,
      2.712176719337145,
      1.2942028319214884,
      -1.0090691682222617,
      1.7598762476834329,
      -1.01872491325067,
      -0.8787734805531695,
      0.1191816579427698,
      -4.583575885465667,
      -1.4382809730245034,
      0.6521555555612026,
      -1.2750015972283906,
      3.82025416010399,
      0.04708302436997358,
      -3.379239860359042,
      1.506399303629657,
      3.4358543550847847,
      -3.798122867939516,
      -1.6058179210596544,
      -1.1822697042136976,
      -1.0027586223701168,
      -0.9548827755436611,
      2.2120529476171646,
      -0.575645703119448,
      -1.171182191679302,
      1.5769364974515148,
      4.315899751465307,
      -0.07719573026154203,
      -1.3007434334325805,
      3.5212817199745143,
      -1.5668113367680858,
      -5.750032250329079,
      1.1145881649986538,
      2.2978153861302033,
      -1.3011613495760246,
      0.7992490517827872,
      -2.6659554730157824,
      3.716607348341028,
      -1.23012581000046,
      3.253509313120804,
      -1.1042373910163672,
      -1.0464603582277918,
      -1.975354763764627,
      0.9291248343134286,
      -4.107569127626838,
      -1.0683234639478763,
      3.5566799785382046,
      -0.24705144891924968,
      -0.08268767224105478,
      -0.45811021065686475,
      -1.3803489478553137,
      -5.835178370061963,
      2.7623602783267938,
      1.9475313851298184,
      -2.265617170437677,
      -1.1497128634162483,
      -0.6825868819482704,
      1.6468328527780467,
      -2.675820880777195,
      3.4546729809209937,
      0.15814479955549932,
      1.8773171234054882,
      -4.124303367515199,
      -3.750582133097603,
      1.8921300478033647,
      -1.4959959146687187,
      1.3145074741618954,
      0.5961818289939971,
      -0.9160274205231238,
      -4.595041053587264,
      1.9743064403700652,
      -1.2856821130341043,
      3.6464565397717665,
      0.048495753706084166,
      -1.1526646733801023,
      -2.0227351964121367,
      -2.3255068313532745,
      2.361521200356086,
      0.8628319361209458,
      -0.794924552959123,
      -5.7481771596565245,
      2.5707490080239124,
      -1.3826999857088993,
      1.3450184700305232,
      2.0867107271699856,
      3.795759590032485,
      2.2151448793507678,
      -1.1073529620757565,
      0.23137142401784772,
      -1.5935519305544326,
      -2.0403611444594416,
      1.2720737583133932,
      2.1195811174180785,
      1.0827819812522508,
      -1.013942163710912,
      -1.6158098321838004,
      -0.9355884126533588,
      1.4828426518347797,
      -1.9414817204369832,
      -1.5377327838663328,
      0.2003950852255325,
      -0.854790537073338,
      0.9269357476718356,
      -2.592893943747612,
      -0.6089308093042882,
      -0.8293318023737272,
      1.972178346936984,
      -0.43608827250786253,
      -6.6235599436478125,
      -1.2223084614592008,
      0.5512465146434933,
      1.2882470383703386,
      -1.3429160118507382,
      0.45118331754370766,
      -1.084003264228068,
      2.372157753331226,
      1.0812788309601395,
      -1.0113953719924076,
      -0.9124370082114888,
      2.5144805732597817,
      0.776955035270032,
      -1.723283403956215,
      -1.603870819369555,
      3.749265876526879,
      -2.462449061200982,
      2.664563082172428,
      3.648362501560012,
      -3.0783722396302418,
      -1.1150991325556903,
      0.4936010819824159,
      -1.581433741714282,
      3.6456978536778006,
      -0.9614856785141261,
      -0.0928306853317658,
      1.395022038221421,
      -0.8371991834668936,
      -0.037511992940788,
      -0.8213871164618944,
      0.11340947453349304,
      -1.3727041319363027,
      -0.8582796661566906,
      -0.8229630438307721,
      -0.7195260207077253,
      -0.6224169806715336,
      1.422667413881182,
      -0.869802190535721,
      2.66790260789827,
      -0.8740014373886018,
      0.9150015279341168,
      0.08723888559049175,
      -1.0912919034185418,
      -0.8060365771676734,
      -0.9045398014225429,
      -1.1736189414900102,
      -1.011144563608635,
      -0.9624840384563725,
      -1.1839037240431605,
      -0.9464785801068017,
      1.1064426985493667,
      0.02208471484327218,
      -0.21811754652864368,
      0.475231622562319,
      -0.9138078687670532,
      -1.1367911049755233,
      -0.37973861459495284,
      -1.8629561794613578,
      -1.134247445477844,
      3.735615139680985,
      1.7103901078952901,
      3.148565510125782,
      -2.110481225927249,
      -1.085507609487853,
      1.0365221054579703,
      -6.952598685294589,
      -1.3470342972436171,
      -1.334935297253113,
      3.660212619814491,
      -1.6539377527312369,
      2.038115470295219,
      -1.0905126419378064,
      0.22571702330630794,
      -1.0358870885819573,
      -0.1539707452272051,
      -0.9800399574381716,
      -2.2626612792773653,
      -1.237210347931609,
      0.4052938706488872,
      3.339448374426879,
      -2.2680444709595564,
      -0.9244582065918443,
      0.39290586484524526,
      -0.8888947587518577,
      0.6226870081100568,
      3.153757175951918,
      0.8398138905948522,
      1.5443221847032724,
      -1.1110671472857627,
      0.27407192301636696,
      0.48866619866419525,
      -5.601068027525576,
      -1.7511406826299447,
      -1.612663232329762,
      -0.8417960662068938,
      1.0851294719965408,
      -0.9226040327742965,
      -0.4171531785660093,
      -4.20339351130843,
      1.0085192793960611,
      -0.7097813605725481,
      -1.3228445020058701,
      -1.8269290176413417,
      2.095722728893656,
      3.398311304345175,
      -1.129505103491582,
      -2.7694966672291432,
      -4.888696110670215,
      -0.28881528636338194,
      -1.2155289793214838,
      -1.733910219721478,
      -1.4429264948286686,
      5.6646843972668295,
      3.6332802099554775,
      -1.264157227721694,
      -1.1890028973954678,
      -1.1222830098735974,
      3.1864189170134347,
      -1.1536861457395797,
      0.11687916100744145,
      -1.147619734030742,
      -2.8468970149038606,
      -1.3822238666329965,
      1.6737950449075034,
      -0.6605913558919311,
      3.4224744367115676,
      -0.8356564215221627,
      -2.1065690161040185,
      1.6662638167500505,
      -1.3610682369568383,
      -1.7758504991826614,
      -1.745763926013548,
      -0.2890786986313594,
      0.8447367957774823,
      0.08200318760801928,
      -2.0242000828286995,
      -2.141946925119046,
      3.142590356725368,
      -1.3740304744962126,
      -1.769688378371044,
      -0.6434323049193235,
      1.9233282485164067,
      -5.723501191734863,
      -0.6478306354376202,
      1.0977791683537386,
      2.065117095471187,
      1.7481204790104485,
      2.4840111740037467,
      -0.07984749784527412,
      -1.1766664570920056,
      -0.8944504937494758,
      -1.0151432085199188,
      -0.04947192922269028,
      -0.9729409632055078,
      -4.202592963837762,
      -0.9085009690315159,
      2.384897500754035,
      -4.254620472287312,
      -1.474231078664668,
      -3.0094995643196083,
      1.9458209390364416,
      0.3642235035168502,
      -0.4355394240081505,
      -7.466957554490922,
      -1.677571330103942,
      3.718720649142371,
      3.6623398254392905,
      -3.288927994237054,
      1.262796240841056,
      1.972345176579176,
      -2.458514092031064,
      -3.923919623861445,
      -1.429797849736059,
      -3.0448102356099684,
      4.434320481472048,
      2.885296901757618,
      -1.69242184417629,
      -5.395111959126328,
      4.159344213772626,
      -1.9599699786260507,
      2.030048814893374,
      -1.9373556287297993,
      4.470334929689668,
      -1.7899054858162398,
      -2.9477725524070433,
      -1.1132680143620493,
      -1.1823719373065102,
      -1.1163735022744175,
      0.15601465850089358,
      -1.0727654161165412,
      3.725275013754242,
      -1.3855036553147917,
      -2.0675650707687754,
      -1.1960651478822366,
      -1.128572817206819,
      -1.543352417249357,
      0.9859937951742994,
      1.7111794471347725,
      -2.1802915069768405,
      3.9026295875613766,
      1.4559529617117648,
      -1.3636856605109438,
      0.9011182656029074,
      -1.8939473158692204,
      0.3792530582001912,
      -6.092133590984896,
      1.627681160563794,
      3.771681975139667,
      -0.6622724528729151,
      -3.242437533960131,
      -3.05698281566418,
      -1.1594148977435734,
      -0.9975153194435518,
      2.356008814699455,
      -1.196236630937641,
      -1.989739520810182,
      -1.0913720786342265,
      1.2788986405197669,
      -1.5792417708777098,
      3.246488008640026,
      -1.0325825085854718,
      0.6974563753101427,
      -0.05201586763848892,
      -1.3732785838379975,
      -1.2850425155422251,
      -1.5807225779962109,
      1.2990953654203259,
      -0.033050951203731915,
      4.515074678030311,
      -0.22036074098826985,
      -5.866176713965461,
      -2.403050603870882,
      2.3008216871378844,
      -0.1876107241988627,
      -0.8556265181420564,
      2.233901144641937,
      0.2463325588159615,
      1.5385225706999044,
      3.0902855317483695,
      -0.9022768474197487,
      -1.365721459629788,
      -5.2599232203424355,
      0.13505581207900752,
      -0.04336200188017292,
      -1.0233493764209003,
      -0.103398846701933,
      -0.16531322270961535,
      0.5777661526849751,
      1.507514809295146,
      -5.0729007993484325,
      3.6255607017773075,
      -1.286058809820549,
      0.5316932616808856,
      1.1466010632204986,
      -0.41132628182409525,
      2.7553014926364567,
      -2.203291608805979,
      -0.8732470732310338,
      -0.10960181490239096,
      -1.7439378638432927,
      3.0447223558824965,
      -1.661920127054654,
      1.9661272071661136,
      -2.7704706713693477,
      1.2035709668922716,
      -1.6737916800675263,
      -1.3812066771369604,
      -1.489747992774199,
      -0.775351567968131,
      2.525928047788741,
      -0.4454419227521131,
      -4.4739458760220865,
      -0.42880063920482947,
      2.135166189565509,
      2.9116426629794687,
      -4.405201867907876,
      -3.413134958747109,
      3.655853273376567,
      -5.413032807515694,
      -1.3229064770688213,
      0.4867294329826767,
      1.7697101362130518,
      -2.5114504007889535,
      -6.520893852959375,
      8.420643783350128,
      -4.563902660073294,
      -0.20155363111109348,
      1.8825601472940474,
      -4.388327647417707,
      1.5029357973792465,
      1.9735717834786897,
      1.160882163202503,
      -1.1405685141031991,
      -1.0790329629426079,
      -0.6473407261255038,
      2.706259969590588,
      -0.4087654123506599,
      -1.5056450328205555,
      -3.515871440222508,
      -1.0702581266724756,
      -1.8687429053789506,
      0.41546826657841196,
      -1.3029920074774897,
      -3.611475760135559,
      2.4219885394755893,
      -1.0701542058278717,
      -0.045095649898319046,
      0.5959354620599566,
      -3.8313909401505124,
      2.768111352277434,
      -1.2316675945111257,
      0.22114855208737194,
      -0.37815044294592115,
      3.0300151140659493,
      -1.9013132172283185,
      -1.5864502278122066,
      3.8155956044082533,
      -1.1707415707770625,
      -0.1222993242870507,
      2.640305066424022,
      -0.01568053828593796,
      -6.321763677737883,
      -4.25767077189772,
      -1.7273731123658713,
      2.575169517661111,
      -2.806263999683007,
      -0.10071115440331391,
      2.7524415684370247,
      0.02116386361320488,
      1.5870670409473042,
      0.7238744941666003,
      -4.245416242420651,
      -2.1815357252555727,
      2.280191181334403,
      -0.6403262815788096,
      -4.577797130073324,
      -3.7182775065834326,
      -3.767785412672569,
      -0.5392105281545386,
      -2.843478167832362,
      -0.3484468074850276,
      -4.764079085712831,
      -0.7512171073854252,
      2.591919165472869,
      8.21285087749898,
      -3.06585457126888,
      3.6333287702129518,
      -1.5441309341204992,
      0.061621324070363914,
      -4.893496244693891,
      -0.9637886004449331,
      -4.92940254670751,
      3.83364953928662,
      -2.279089264793119,
      -1.350178923914516,
      -1.6729330154559854,
      2.442699920813457,
      -1.2378791884838631,
      -4.187589867537763,
      -1.9406931018984703,
      6.161994596368505,
      0.12897047906661763,
      -3.6766993397644363,
      -1.9106998951479595,
      2.500194053959558,
      -0.36401394910502016,
      2.3706545275733113,
      -3.635030485665643,
      3.853450060564927,
      -4.888169720667645,
      2.155958764790022,
      -3.1173875021066757,
      1.1086760557903996,
      4.6435839929660165,
      2.22560610993119,
      -0.8931081509274742,
      2.3086750372186398,
      -9.803452562674332,
      -1.1514081146345871,
      -0.5502340596574629,
      3.7389339254250964,
      -2.891633042328065,
      7.019399075071659,
      -1.4856920702741,
      0.7707899523033119,
      1.3087776775120765,
      -0.026099546889624126,
      -5.858801622673539,
      -1.0913428129863452,
      -1.0348727652507592,
      0.6967307416785896,
      -3.5753107436155482,
      -1.0298253001433082,
      1.0420986929279015,
      -0.9889229775915968,
      1.3288394670440908,
      0.034095508096149696,
      -4.0105245180942735,
      -4.036621484157342,
      -0.12173924607113573,
      -3.696503441767522,
      -1.2755654661107432,
      -1.865468849204182,
      -3.802572820667257,
      -0.9530475684059346,
      -1.6232775402585184,
      2.541607076525387,
      0.8647511885924302,
      3.050193775988073,
      -5.606436762133797,
      -1.7200878496473855,
      -4.472313994570724,
      6.815622167689493,
      1.7211689306837454,
      -5.037092381648507,
      -2.3753843923641496,
      -0.9743878550539562,
      1.852624375870226,
      -4.007497836829604,
      -2.664012483694676,
      -1.6700905532211403,
      2.009137159476687,
      -3.1549044796811483,
      2.5313332189293045,
      1.5224391694856942,
      -5.321985249634265,
      -4.245771104860181,
      -1.1853920993067102,
      0.2343823808795661,
      -1.7500971069887796,
      -1.7203188048547116,
      3.7002113936640324,
      -2.2140859622095297,
      3.788695750528179,
      -4.510816301792445,
      1.331166266097215,
      -1.197280037085464,
      -3.7910487440843452,
      2.125749343072778,
      2.018431224204591,
      3.1000611264343823,
      -2.6687481445101087,
      -5.751678810751989,
      1.1668305860734807,
      -1.3863592586784663,
      -2.8480061681227475,
      -1.113357093189448,
      1.5404690374738392,
      -3.1024652636163395,
      2.0224211524060682,
      -1.1970119115634836,
      -2.955858782479002,
      -1.1423379586707179,
      2.65353300717212,
      0.18459627049463312,
      5.557281928416071,
      -0.7290707062054371,
      1.2731285796351672,
      -1.6430144469732477,
      -2.1902043793513206,
      0.33322571994650796,
      -0.08258080098036213,
      -3.305970968035257,
      2.4330243506896534,
      -2.3225237272011974,
      -1.0861173555886685,
      2.6559819509954723,
      -0.09834224673633818,
      -0.3390478006917642,
      -4.162529179460306,
      -0.09057180557277156,
      3.5018303437325065,
      -4.093831618564048,
      -0.11218107962223828,
      -3.0551858489765995,
      1.629658114157591,
      -2.3180174556947426,
      -1.268818254313226,
      1.3591009545078347,
      -3.4107041490590158,
      2.958743190043694,
      -6.481827000035337,
      0.20817831004099918,
      5.3683653791033334,
      1.799421587611279,
      -1.2455747268177526,
      3.103239793560868,
      -0.5808610946581916,
      -5.157023771323651,
      -0.9961732067744619,
      -4.846680591631868,
      6.692443359930933,
      -3.522644841986782,
      5.44486184678858,
      -7.0723215868815,
      3.593127679392436,
      -3.330986904887631,
      2.6051641604355584,
      0.0268990574900132,
      3.2935789485183813,
      -2.601741053795184,
      -0.6527417474258385,
      0.1890582911307641,
      -0.8898660168296746,
      -5.447791834996108,
      0.3618443947746779,
      -0.6369598024016369,
      3.647941300746578,
      -1.9699927151345775,
      -4.18190943574948,
      -1.884565254960347,
      -3.797023480905441,
      -3.0392529112251965,
      2.1487192784542337,
      -1.8101048068331478,
      -1.3813325562979974,
      -3.060032063103354,
      -1.1991103592291865,
      0.6363421713420718,
      -1.729192780711124,
      -1.286838326268615,
      -3.0144161984195286,
      4.11190763673143,
      -1.6722115483888034,
      3.3983350589161825,
      -4.560704579608095,
      -3.6652415441808017,
      3.1981250941710706,
      2.892786646353331,
      0.014872660143476213,
      -3.0007582515158,
      3.541683366805878,
      -7.388540878050275,
      -4.274044583000008,
      2.6293381076526714,
      1.4274085018231908,
      1.943334053563142,
      -1.114467767877804,
      2.344121425036354,
      -7.550007989140519,
      1.7211433249551464,
      -2.291281989005412,
      2.5959080876668597,
      -0.9822412147153081,
      3.804002922782663,
      -6.731882965896637,
      -4.621899660544757,
      1.9128944073012124,
      -3.794467523170023,
      5.960192145567952,
      3.4506371160631093,
      -2.353304361072295,
      -5.296999616924039,
      1.8428448659230212,
      -5.695042305239495,
      -3.476692733361276,
      -3.3891904948978633,
      5.4232919542652445,
      0.6442381898825081,
      -2.282011534523129,
      3.868416656072115,
      3.642167469900821,
      -1.1731006773461938,
      -3.5667071469093083,
      -1.186450162342087,
      -0.6649562782476407,
      2.105372719642919,
      -0.007967014478784673,
      -0.2529308754484334,
      -2.642641477210263,
      -3.510876507764979,
      1.9188367737608187,
      2.7229413300479424,
      -4.443999707432602,
      -1.3348284621442243,
      1.18661197907732,
      1.709390212595175,
      -1.5637314210634858,
      -1.038841793138725,
      -3.7112293830301404,
      5.573771009061251,
      -0.6782741992816396,
      -2.4365013582300694,
      -2.682328893611873,
      -1.440829848088971,
      -1.5663048380688833,
      -0.28778500647511646,
      -4.967459207242427,
      3.592242827212669,
      -6.28392697064047,
      -1.1903201921123907,
      -1.7095458463626105,
      -2.780666273402733,
      4.941733044594393,
      -1.7229051698374174,
      3.2941908302159026,
      -0.03607225754338439,
      -1.311229463394893,
      -4.006366179536469,
      2.4144755063003895,
      -2.5588606755109295,
      0.33494372487589696,
      -1.2587897820957525,
      -1.1842534735029093,
      0.26088843000115225,
      0.43967703898329225,
      -1.144923886856967,
      -1.2198698927966038,
      -1.1497430464554417,
      -1.0872406760971323,
      0.7274684818998065,
      -1.0945492475590868,
      -2.8720538712677954,
      -0.14947031003291195,
      4.172906099252277,
      -1.3859407234001901,
      -2.3591551746251143,
      0.8693339356358253,
      2.2737842165659576,
      -3.462159147086538,
      3.7593143355878764,
      1.2242807089523633,
      -0.9685036275914791,
      0.910118521288681,
      -3.9141250186833836,
      5.390412520558262,
      -1.8157357958875178,
      -2.2744127899999818,
      1.8255432292689822,
      2.0016856731850536,
      -2.0047500682618695,
      -1.1097107083558495,
      3.023135233517885,
      -5.587609264711467,
      -6.23498505197212,
      2.913723069291869,
      -0.6748952045105212,
      0.7179620354333139,
      2.1421362866287565,
      -5.560628569748587,
      6.8016780647199955,
      -1.132679263023771,
      -0.043001015839333245,
      0.17408132344996502,
      -0.009774288310742785,
      -3.0344287983443072,
      -6.759309637296131,
      -1.124965345687911,
      -2.2094727202323434,
      3.8325992534169844,
      -1.3269870922714482,
      2.6219372073852547,
      -1.4172114052812357,
      2.4523829720434724,
      2.490793046679163,
      -0.49727551427814753,
      1.1449033423627468,
      -6.619505859151781,
      -0.5761543325692403,
      0.34102254867883464,
      0.5730232068337779,
      0.08270982825048556,
      -3.7540411104473557,
      -1.2009876377284097,
      1.9325952828266368,
      -1.374172792843939,
      -3.203879498153655,
      -1.5338134666800138,
      2.939868432851062,
      -1.8754948192156666,
      1.504480922959312,
      -2.0784112565795896,
      0.8921705221172427,
      -3.223790552900893,
      2.2919058922919824,
      -1.2521234143962092,
      -0.3377539967299875,
      1.1698118577267467,
      -4.43306997169413,
      0.5135393295302345,
      -1.6789012510237271,
      -4.372421704626292,
      -2.6247082077821453,
      2.188131615978155,
      0.6328120823779444,
      0.9651701599420685,
      3.843860796968013,
      -4.7862506352561915,
      -1.4853845808024009,
      1.6131705300074604,
      0.3431861244879672,
      -0.26353427873246826,
      -1.4732056800226143,
      -4.972103813188389,
      -1.1212153507325344,
      -2.1349546193179263,
      0.3580640501958363,
      -1.4219201888601953,
      -1.0024251096328565,
      1.7506244631539811,
      -2.5100550214790367,
      -1.0793913585936452,
      5.767817587181096,
      1.6027464784804086,
      -1.2102655387936194,
      -2.349327585324278,
      3.5252151516920316,
      -2.4018028768254016,
      -4.447322973739663,
      -4.276285037692926,
      -1.202408302239401,
      4.464941689562764,
      0.5903118778466345,
      -4.818827619912481,
      -1.4323698754011658,
      4.772874114219798,
      1.1166106537922786,
      1.8418642723694916,
      -1.7446740541898695,
      -1.1975859998810676,
      -3.503641530345556,
      2.9906532774592423,
      -0.9551918410685116,
      -0.8517979339643398,
      -3.662786575942511,
      -4.223051444187214,
      3.7327662808152158,
      3.748481600414433,
      2.1698695003762936,
      -1.4580901066741503,
      -2.1771610422934917,
      1.6865937988549558,
      -7.548720286825311,
      -2.0766113712869556,
      -1.3857231911636525,
      -1.4507011671945342,
      0.9334161920972954,
      -0.1722807765959954,
      -1.0108990813529664,
      1.2446793501446107,
      0.13144426061702708,
      -0.8165483370591271,
      -2.756732545561444,
      1.3525706287692598,
      -4.745014636273107,
      -0.9972099175136568,
      -1.0206697505943958,
      2.6930461603678815,
      -1.1786514631709726,
      2.9361902558140245,
      -1.3423860833597199,
      2.634953629239978,
      -1.1762425198883706,
      -1.110907677586015,
      -2.4836276161886497,
      -1.4060379867452388,
      -1.4815577653284633,
      0.9898749516775447,
      -1.3650111228045934,
      -1.0496943414651918,
      -1.178629457589391,
      0.19478543686423216,
      2.2711287163502747,
      -2.0114635711256255,
      -1.0338138704236668,
      0.20215922793698665,
      -2.4071917720378178,
      -1.309510385707065,
      1.7852427589980981,
      3.20326839271738,
      -0.7631487418999205,
      -1.178333199791305,
      -1.939284819842035,
      1.1496940540712899,
      2.9071871499685704,
      -4.643534533650589,
      6.79358130697667,
      -1.225221949578602,
      -0.9078792447813108,
      -2.397565347712528,
      1.1901573977235218,
      -1.0203232504023376,
      -0.8728438027858987,
      2.417896465714941,
      -6.291375203244246,
      -1.2165194648912028,
      1.0321674877755969,
      -3.6902234394053344,
      1.425270607353292,
      1.6044321596094702,
      -5.330214476691602,
      0.5976884567095048,
      -1.3019103061799528,
      -1.3565635181473679,
      7.514490767807213,
      -1.1544928816336466
    ],
    "episode_lengths": [
      12,
      3,
      7,
      5,
      6,
      5,
      5,
      9,
      3,
      7,
      4,
      1,
      20,
      16,
      4,
      10,
      1,
      4,
      11,
      3,
      9,
      8,
      1,
      3,
      2,
      3,
      3,
      12,
      15,
      4,
      2,
      13,
      2,
      5,
      9,
      6,
      20,
      6,
      2,
      1,
      2,
      1,
      11,
      3,
      1,
      5,
      10,
      18,
      1,
      6,
      10,
      8,
      13,
      2,
      7,
      12,
      4,
      4,
      11,
      1,
      7,
      9,
      11,
      3,
      2,
      5,
      8,
      2,
      3,
      6,
      6,
      9,
      10,
      10,
      4,
      8,
      4,
      13,
      8,
      13,
      12,
      8,
      1,
      1,
      15,
      11,
      1,
      1,
      2,
      18,
      6,
      7,
      7,
      14,
      20,
      8,
      1,
      1,
      1,
      7,
      2,
      15,
      3,
      4,
      3,
      4,
      5,
      2,
      4,
      7,
      6,
      20,
      1,
      5,
      2,
      8,
      9,
      9,
      1,
      4,
      2,
      4,
      17,
      4,
      5,
      1,
      2,
      14,
      7,
      8,
      4,
      2,
      5,
      6,
      3,
      13,
      2,
      8,
      4,
      11,
      5,
      20,
      2,
      1,
      1,
      2,
      15,
      1,
      1,
      11,
      4,
      6,
      8,
      3,
      9,
      5,
      2,
      2,
      4,
      4,
      16,
      6,
      1,
      2,
      20,
      9,
      7,
      9,
      2,
      4,
      15,
      9,
      6,
      7,
      6,
      2,
      3,
      1,
      5,
      5,
      13,
      16,
      5,
      15,
      1,
      1,
      1,
      20,
      5,
      18,
      15,
      5,
      4,
      1,
      5,
      2,
      7,
      7,
      4,
      11,
      14,
      1,
      6,
      2,
      20,
      3,
      3,
      6,
      15,
      10,
      5,
      16,
      1,
      4,
      4,
      1,
      4,
      20,
      4,
      3,
      16,
      16,
      1,
      1,
      2,
      19,
      8,
      15,
      15,
      17,
      12,
      5,
      3,
      1,
      6,
      1,
      12,
      11,
      2,
      4,
      11,
      9,
      6,
      11,
      2,
      3,
      6,
      10,
      17,
      1,
      2,
      16,
      17,
      15,
      3,
      7,
      3,
      6,
      4,
      4,
      6,
      9,
      18,
      9,
      5,
      17,
      16,
      2,
      3,
      9,
      1,
      3,
      1,
      20,
      14,
      5,
      15,
      20,
      3,
      8,
      16,
      3,
      17,
      10,
      17,
      9,
      4,
      3,
      11,
      10,
      3,
      15,
      3,
      7,
      9,
      10,
      2,
      2,
      3,
      8,
      18,
      2,
      11,
      3,
      2,
      14,
      8,
      7,
      6,
      13,
      9,
      11,
      1,
      1,
      17,
      3,
      11,
      11,
      20,
      8,
      11,
      1,
      7,
      8,
      11,
      11,
      2,
      7,
      5,
      10,
      1,
      18,
      4,
      1,
      3,
      15,
      1,
      13,
      8,
      6,
      10,
      3,
      1,
      15,
      7,
      1,
      8,
      5,
      7,
      20,
      17,
      3,
      9,
      2,
      8,
      6,
      20,
      1,
      20,
      3,
      5,
      11,
      2,
      20,
      10,
      8,
      4,
      4,
      20,
      9,
      10,
      4,
      16,
      7,
      3,
      8,
      9,
      13,
      17,
      9,
      5,
      3,
      1,
      1,
      14,
      1,
      6,
      1,
      1,
      2,
      4,
      4,
      2,
      6,
      1,
      5,
      4,
      4,
      1,
      14,
      5,
      13,
      5,
      3,
      4,
      13,
      5,
      5,
      2,
      2,
      3,
      5,
      2,
      1,
      13,
      4,
      1,
      1,
      6,
      1,
      16,
      17,
      2,
      18,
      17,
      6,
      1,
      16,
      1,
      14,
      6,
      6,
      14,
      3,
      2,
      2,
      10,
      2,
      17,
      9,
      14,
      16,
      14,
      6,
      2,
      4,
      4,
      1,
      20,
      13,
      5,
      15,
      8,
      3,
      1,
      3,
      6,
      2,
      7,
      4,
      1,
      4,
      20,
      13,
      1,
      2,
      6,
      12,
      10,
      7,
      13,
      4,
      18,
      4,
      1,
      1,
      4,
      7,
      2,
      6,
      7,
      4,
      3,
      2,
      4,
      20,
      3,
      8,
      8,
      11,
      17,
      16,
      3,
      18,
      15,
      10,
      2,
      5,
      8,
      3,
      9,
      4,
      4,
      4,
      1,
      14,
      5,
      3,
      3,
      12,
      4,
      7,
      3,
      2,
      2,
      10,
      7,
      12,
      15,
      7,
      6,
      1,
      11,
      1,
      6,
      11,
      1,
      16,
      1,
      6,
      1,
      3,
      12,
      4,
      2,
      9,
      5,
      4,
      3,
      2,
      13,
      19,
      5,
      8,
      16,
      20,
      16,
      3,
      5,
      1,
      9,
      9,
      9,
      2,
      6,
      5,
      9,
      10,
      3,
      20,
      6,
      18,
      3,
      5,
      5,
      2,
      4,
      2,
      6,
      9,
      9,
      5,
      10,
      3,
      5,
      2,
      18,
      4,
      6,
      2,
      1,
      10,
      4,
      3,
      20,
      10,
      4,
      3,
      9,
      9,
      17,
      9,
      9,
      4,
      7,
      8,
      17,
      5,
      10,
      12,
      4,
      1,
      4,
      7,
      2,
      18,
      19,
      2,
      4,
      6,
      1,
      5,
      2,
      17,
      10,
      3,
      20,
      12,
      7,
      1,
      8,
      16,
      5,
      9,
      6,
      2,
      20,
      2,
      8,
      2,
      6,
      12,
      12,
      7,
      2,
      17,
      6,
      4,
      3,
      1,
      16,
      4,
      4,
      20,
      1,
      7,
      1,
      12,
      6,
      2,
      3,
      5,
      2,
      5,
      3,
      7,
      2,
      20,
      2,
      2,
      6,
      3,
      13,
      1,
      1,
      4,
      18,
      12,
      3,
      14,
      4,
      2,
      1,
      14,
      20,
      1,
      20,
      20,
      20,
      13,
      7,
      6,
      4,
      2,
      5,
      5,
      16,
      2,
      3,
      8,
      1,
      7,
      6,
      8,
      2,
      12,
      2,
      18,
      1,
      10,
      6,
      6,
      5,
      19,
      2,
      18,
      15,
      5,
      6,
      4,
      5,
      9,
      4,
      17,
      6,
      6,
      9,
      6,
      4,
      5,
      1,
      12,
      4,
      1,
      14,
      15,
      8,
      7,
      17,
      4,
      5,
      4,
      14,
      2,
      7,
      8,
      2,
      7,
      7,
      17,
      3,
      20,
      11,
      5,
      19,
      4,
      3,
      3,
      12,
      8,
      7,
      17,
      13,
      17,
      3,
      3,
      17,
      15,
      3,
      15,
      5,
      16,
      5,
      14,
      13,
      17,
      1,
      14,
      12,
      13,
      1,
      3,
      20,
      5,
      2,
      2,
      7,
      5,
      2,
      10,
      8,
      7,
      20,
      1,
      8,
      8,
      5,
      9,
      4,
      1,
      20,
      9,
      14,
      3,
      19,
      5,
      2,
      18,
      11,
      5,
      13,
      3,
      1,
      18,
      5,
      4,
      1,
      3,
      4,
      11,
      13,
      13,
      2,
      17,
      6,
      19,
      3,
      3,
      4,
      3,
      4,
      12,
      1,
      1,
      2,
      4,
      3,
      6,
      3,
      2,
      2,
      1,
      5,
      1,
      1,
      3,
      3,
      1,
      1,
      2,
      1,
      3,
      16,
      6,
      12,
      1,
      6,
      6,
      1,
      2,
      2,
      5,
      4,
      3,
      3,
      4,
      2,
      18,
      1,
      1,
      11,
      5,
      16,
      1,
      16,
      10,
      3,
      20,
      1,
      13,
      5,
      1,
      9,
      11,
      4,
      4,
      4,
      6,
      8,
      1,
      10,
      18,
      1,
      1,
      8,
      1,
      18,
      5,
      1,
      5,
      2,
      15,
      7,
      1,
      9,
      9,
      8,
      6,
      4,
      2,
      2,
      1,
      1,
      20,
      15,
      5,
      2,
      8,
      3,
      1,
      11,
      4,
      14,
      2,
      8,
      9,
      9,
      2,
      7,
      8,
      7,
      1,
      4,
      8,
      17,
      2,
      2,
      1,
      5,
      6,
      11,
      2,
      1,
      4,
      5,
      3,
      17,
      3,
      5,
      4,
      5,
      5,
      5,
      6,
      8,
      14,
      4,
      1,
      5,
      4,
      1,
      5,
      10,
      3,
      9,
      3,
      8,
      4,
      2,
      2,
      9,
      11,
      5,
      7,
      6,
      15,
      10,
      3,
      9,
      5,
      2,
      7,
      10,
      7,
      11,
      9,
      6,
      2,
      3,
      3,
      18,
      3,
      3,
      7,
      10,
      9,
      1,
      9,
      3,
      8,
      2,
      3,
      3,
      11,
      4,
      6,
      1,
      1,
      11,
      4,
      5,
      4,
      2,
      16,
      6,
      6,
      1,
      1,
      3,
      1,
      12,
      15,
      7,
      7,
      1,
      11,
      12,
      18,
      1,
      8,
      8,
      3,
      1,
      11,
      3,
      8,
      2,
      7,
      1,
      7,
      14,
      3,
      4,
      12,
      6,
      1,
      8,
      2,
      2,
      2,
      6,
      2,
      6,
      1,
      1,
      5,
      2,
      18,
      4,
      11,
      8,
      3,
      3,
      2,
      13,
      5,
      12,
      1,
      2,
      1,
      5,
      20,
      3,
      1,
      3,
      1,
      1,
      1,
      1,
      2,
      3,
      4,
      1,
      8,
      2,
      12,
      11,
      2,
      4,
      7,
      11,
      1,
      4,
      1,
      7,
      3,
      3,
      2,
      1,
      2,
      5,
      3,
      7,
      10,
      16,
      6,
      9,
      1,
      2,
      4,
      3,
      13,
      2,
      3,
      4,
      3,
      3,
      1,
      4,
      4,
      4,
      1,
      1,
      4,
      8,
      20,
      4,
      2,
      1,
      7,
      19,
      3,
      2,
      6,
      2,
      1,
      2,
      10,
      4,
      3,
      17,
      11,
      5,
      2,
      4,
      5,
      5,
      9,
      1,
      5,
      17,
      2,
      3,
      15,
      2,
      6,
      8,
      4,
      6,
      1,
      1,
      7,
      7,
      8,
      8,
      3,
      17,
      2,
      2,
      7,
      2,
      7,
      3,
      18,
      9,
      9,
      10,
      1,
      2,
      2,
      5,
      16,
      17,
      3,
      5,
      6,
      6,
      2,
      1,
      1,
      5,
      1,
      4,
      8,
      1,
      7,
      4,
      10,
      10,
      3,
      1,
      7,
      1,
      2,
      7,
      15,
      6,
      1,
      7,
      11,
      8,
      8,
      3,
      16,
      3,
      1,
      9,
      3,
      1,
      1,
      3,
      9,
      2,
      2,
      1,
      4,
      9,
      3,
      1,
      13,
      4,
      6,
      7,
      11,
      1,
      5,
      7,
      7,
      1,
      4,
      1,
      12,
      18,
      5,
      5,
      5,
      9,
      6,
      5,
      9,
      8,
      14,
      4,
      5,
      1,
      12,
      13,
      5,
      5,
      2,
      1,
      3,
      8,
      8,
      7,
      4,
      1,
      6,
      2,
      3,
      5,
      2,
      1,
      4,
      13,
      10,
      1,
      18,
      1,
      2,
      1,
      8,
      7,
      7,
      4,
      2,
      2,
      7,
      2,
      2,
      3,
      10,
      4,
      1,
      3,
      8,
      2,
      3,
      10,
      3,
      2,
      2,
      3,
      10,
      7,
      6,
      2,
      2,
      1,
      3,
      3,
      2,
      11,
      5,
      12,
      2,
      2,
      3,
      2,
      16,
      13,
      3,
      2,
      1,
      4,
      6,
      4,
      4,
      1,
      11,
      4,
      3,
      2,
      14,
      6,
      2,
      2,
      1,
      5,
      3,
      4,
      1,
      7,
      6,
      2,
      2,
      4,
      8,
      2,
      15,
      4,
      5,
      4,
      3,
      7,
      17,
      7,
      6,
      1,
      1,
      8,
      4,
      5,
      3,
      1,
      11,
      1,
      2,
      3,
      5,
      3,
      15,
      3,
      11,
      5,
      3,
      5,
      7,
      3,
      1,
      2,
      1,
      10,
      6,
      3,
      4,
      5,
      8,
      6,
      4,
      7,
      12,
      1,
      1,
      1,
      4,
      1,
      7,
      12,
      10,
      2,
      7,
      1,
      5,
      2,
      9,
      4,
      4,
      2,
      1,
      10,
      3,
      1,
      2,
      9,
      2,
      2,
      4,
      2,
      4,
      14,
      11,
      8,
      1,
      4,
      9,
      1,
      2,
      6,
      6,
      1,
      1,
      1,
      1,
      1,
      8,
      6,
      4,
      3,
      2,
      10,
      2,
      3,
      6,
      5,
      1,
      1,
      3,
      1,
      1,
      11,
      5,
      1,
      9,
      3,
      8,
      5,
      1,
      2,
      2,
      1,
      7,
      7,
      14,
      5,
      6,
      1,
      3,
      3,
      3,
      6,
      2,
      3,
      2,
      2,
      18,
      3,
      4,
      11,
      9,
      1,
      4,
      2,
      4,
      3,
      8,
      8,
      13,
      3,
      6,
      8,
      3,
      5,
      6,
      2,
      1,
      4,
      3,
      1,
      1,
      15,
      3,
      4,
      3,
      1,
      8,
      5,
      10,
      7,
      5,
      1,
      3,
      2,
      12,
      3,
      5,
      1,
      1,
      1,
      7,
      7,
      1,
      1,
      16,
      2,
      1,
      1,
      5,
      3,
      12,
      8,
      5,
      9,
      5,
      5,
      1,
      1,
      2,
      5,
      4,
      1,
      10,
      1,
      9,
      10,
      5,
      5,
      2,
      7,
      5,
      1,
      4,
      6,
      1,
      1,
      3,
      3,
      3,
      1,
      18,
      18,
      14,
      14,
      7,
      1,
      8,
      2,
      1,
      4,
      2,
      16,
      8,
      4,
      4,
      14,
      7,
      8,
      2,
      5,
      8,
      2,
      3,
      1,
      5,
      13,
      1,
      8,
      4,
      17,
      18,
      16,
      5,
      4,
      5,
      5,
      1,
      2,
      2,
      14,
      3,
      2,
      16,
      15,
      1,
      2,
      15,
      7,
      16,
      2,
      7,
      2,
      2,
      6,
      2,
      2,
      5,
      1,
      14,
      5,
      9,
      1,
      6,
      11,
      18,
      13,
      2,
      7,
      13,
      2,
      5,
      8,
      4,
      1,
      2,
      2,
      1,
      3,
      10,
      5,
      4,
      2,
      3,
      5,
      7,
      3,
      3,
      11,
      1,
      14,
      4,
      5,
      2,
      2,
      2,
      4,
      3,
      2,
      1,
      2,
      14,
      6,
      3,
      1,
      6,
      6,
      5,
      3,
      4,
      4,
      8,
      7,
      12,
      13,
      8,
      12,
      1,
      2,
      1,
      3,
      5,
      2,
      1,
      1,
      4,
      1,
      3,
      5,
      7,
      2,
      4,
      4,
      3,
      1,
      15,
      2,
      15,
      1,
      1,
      11,
      4,
      7,
      15,
      8,
      1,
      15,
      14,
      3,
      2,
      1,
      9,
      3,
      1,
      16,
      3,
      10,
      2,
      5,
      7,
      5,
      12,
      5,
      20,
      2,
      1,
      3,
      5,
      15,
      3,
      5,
      2,
      9,
      1,
      1,
      1,
      10,
      1,
      12,
      1,
      4,
      1,
      3,
      5,
      1,
      1,
      3,
      12,
      2,
      5,
      2,
      4,
      3,
      3,
      7,
      9,
      2,
      18,
      1,
      6,
      2,
      3,
      1,
      1,
      6,
      7,
      2,
      1,
      1,
      3,
      6,
      6,
      1,
      5,
      1,
      3,
      2,
      5,
      1,
      9,
      1,
      5,
      4,
      9,
      7,
      1,
      1,
      5,
      9,
      3,
      7,
      4,
      8,
      4,
      6,
      1,
      1,
      5,
      2,
      1,
      5,
      1,
      6,
      8,
      4,
      2,
      6,
      17,
      2,
      3,
      2,
      17,
      4,
      8,
      10,
      12,
      7,
      12,
      2,
      5,
      1,
      4,
      11,
      19,
      2,
      7,
      1,
      3,
      3,
      2,
      5,
      2,
      3,
      3,
      2,
      1,
      1,
      2,
      7,
      6,
      3,
      5,
      1,
      3,
      2,
      3,
      6,
      2,
      6,
      2,
      4,
      2,
      1,
      2,
      11,
      10,
      1,
      20,
      6,
      3,
      3,
      6,
      4,
      19,
      2,
      2,
      2,
      1,
      3,
      2,
      4,
      3,
      3,
      3,
      5,
      1,
      1,
      10,
      3,
      14,
      3,
      2,
      1,
      1,
      1,
      15,
      3,
      3,
      5,
      1,
      1,
      5,
      3,
      6,
      1,
      1,
      2,
      1,
      8,
      1,
      3,
      20,
      3,
      6,
      4,
      1,
      1,
      7,
      1,
      2,
      7,
      7,
      3,
      2,
      3,
      1,
      1,
      3,
      4,
      16,
      5,
      2,
      5,
      1,
      1,
      3,
      2,
      1,
      4,
      2,
      4,
      6,
      1,
      3,
      6,
      4,
      6,
      8,
      2,
      1,
      12,
      6,
      5,
      15,
      1,
      1,
      18,
      3,
      1,
      4,
      9,
      6,
      8,
      2,
      3,
      6,
      1,
      4,
      12,
      6,
      11,
      8,
      14,
      4,
      4,
      9,
      2,
      1,
      8,
      2,
      2,
      1,
      1,
      1,
      3,
      5,
      2,
      1,
      3,
      7,
      1,
      11,
      17,
      5,
      1,
      1,
      2,
      1,
      1,
      9,
      3,
      8,
      17,
      4,
      1,
      6,
      7,
      19,
      9,
      3,
      13,
      1,
      7,
      1,
      20,
      1,
      1,
      6,
      2,
      10,
      1,
      14,
      1,
      1,
      10,
      8,
      12,
      2,
      1,
      1,
      1,
      2,
      1,
      3,
      1,
      2,
      4,
      1,
      4,
      15,
      7,
      15,
      9,
      18,
      14,
      1,
      6,
      3,
      1,
      7,
      4,
      13,
      5,
      2,
      1,
      2,
      5,
      5,
      2,
      8,
      5,
      3,
      3,
      2,
      2,
      1,
      1,
      12,
      10,
      2,
      7,
      7,
      1,
      8,
      5,
      1,
      4,
      3,
      8,
      9,
      4,
      2,
      2,
      5,
      1,
      2,
      12,
      1,
      2,
      4,
      6,
      1,
      4,
