{
  "config": {
    "device": "cpu",
    "random_seed": 42,
    "experiment_name": "graph_refactor_ppo_corrected",
    "data_path": "data_builder/dataset/graph_features",
    "discriminator_path": "results/discriminator_pretraining/pretrained_discriminator.pt",
    "results_dir": "results/ppo_training",
    "max_episode_steps": 10,
    "num_actions": 7,
    "reward_weights": {
      "hub_weight": 5.0,
      "step_valid": 0.01,
      "step_invalid": -0.1,
      "time_penalty": -0.02,
      "early_stop_penalty": -0.5,
      "cycle_penalty": -0.2,
      "duplicate_penalty": -0.1,
      "adversarial_weight": 0.5,
      "patience": 15
    },
    "node_dim": 7,
    "global_features_dim": 4,
    "shared_encoder": true,
    "num_episodes": 5000,
    "warmup_episodes": 1000,
    "adversarial_start_episode": 1000,
    "gamma": 0.95,
    "gae_lambda": 0.95,
    "lr": 0.0001,
    "clip_eps": 0.2,
    "ppo_epochs": 4,
    "target_kl": 0.035,
    "max_grad_norm": 0.5,
    "value_loss_coef": 0.3,
    "entropy_coef": 0.02,
    "rollout_episodes": 16,
    "minibatch_size": 32,
    "min_mb_before_kl": 2,
    "hidden_dim": 128,
    "num_layers": 3,
    "dropout": 0.2,
    "normalize_rewards": true,
    "reward_clip": 5.0,
    "log_every": 50,
    "eval_every": 200,
    "save_every": 500,
    "num_eval_episodes": 50,
    "early_stopping_patience": 300,
    "min_improvement": 0.01,
    "use_cyclic_lr": true,
    "base_lr": 0.0001,
    "max_lr": 0.0002,
    "clr_step_size_up": 120,
    "clr_step_size_down": 120,
    "clr_mode": "triangular2",
    "use_curriculum": true,
    "curriculum_bins": [
      20,
      30,
      45,
      66
    ],
    "curriculum_episodes_per_stage": 600,
    "curriculum_mix_back_ratio": 0.1,
    "sampling_without_replacement": true,
    "coverage_log_every": 100
  },
  "training_stats": {
    "episode_rewards": [
      -0.005928829416926969,
      -0.38166730226124734,
      1.726749339401249,
      1.4081696713882212,
      2.806268077116705,
      -0.8079393077319261,
      -1.2649830939420534,
      3.223373386323628,
      1.7106216832395562,
      -3.7301160645387377,
      -1.1686962827701641,
      0.6302759985747795,
      -2.0094859883433545,
      -1.7371161296148945,
      -1.6831017557782235,
      2.0743171017269892,
      1.8254365413900269,
      -2.086119669534842,
      1.194619668499354,
      -2.396635890970232,
      -1.9749202908209713,
      0.17903678730256434,
      -1.3377534031811829,
      0.30748957726943366,
      -2.5796422441316884,
      -2.751762380610719,
      1.7017128705926456,
      0.24751486023404162,
      -1.8881758558093482,
      4.504276191653471,
      3.89672712565693,
      -1.0734874917630326,
      -0.4733917561074484,
      1.0645382931441647,
      -5.849009980090926,
      -0.5585331809165568,
      -2.0231698042999677,
      -2.100049224650047,
      -1.6414730107784923,
      8.30163249614487,
      -0.8004071099903903,
      -2.3709562693101884,
      -0.25774444030601906,
      -2.502654006686587,
      -0.10928604851001267,
      1.6881271563584122,
      -0.6876115401446483,
      -1.6093021756915822,
      -1.6202476325574913,
      -1.493355643473293,
      -1.7567351543715077,
      -1.6148885776352642,
      1.8342476112555608,
      -3.327315990261607,
      1.7091400023692576,
      -0.7806352433183722,
      0.6225905142744415,
      -1.6473626427757988,
      -1.9212782660770373,
      -1.752888898865169,
      5.5565995379157185,
      -1.944440996954936,
      -0.6010969756579246,
      -0.6537586411557123,
      7.359839195607793,
      -4.800038417525909,
      -1.2233204185737918,
      -4.144523355492214,
      -0.26405621374214605,
      0.8821023763490159,
      -1.8680544942803186,
      2.418317087849774,
      -0.5749558219511932,
      0.6517730000842937,
      -1.4746941393737367,
      -1.817990408234631,
      -0.8261946660280134,
      -0.7767698296878054,
      -2.818468301073059,
      -1.972404889446642,
      3.0513176318115103,
      0.5449294439675227,
      -1.768465980601665,
      4.345018280573694,
      -0.2978243633655334,
      -1.6478573148124591,
      -0.384638651192896,
      -1.3501379770984148,
      -1.6667041587684326,
      -0.9062651694641906,
      1.2440505853637496,
      2.997438899604139,
      -1.5280766412646263,
      1.5489676422663463,
      1.199727381258013,
      3.197613452714509,
      0.3163518895778379,
      -3.7229038104772614,
      -1.4461869997656318,
      -1.3486658488816086,
      -1.812942063318114,
      -1.8211490639051586,
      0.45712334182407666,
      -1.4438132210810481,
      2.710156323351123,
      -0.8432702356567783,
      -0.8338660842044743,
      -1.8574739010053711,
      -1.2084390617455847,
      -1.51564295832783,
      0.09174278511014533,
      0.6332642768575256,
      -0.9636308574314305,
      -1.5783084476718376,
      2.684917409261481,
      -0.9449922151266852,
      3.0714060767033993,
      2.604527522268786,
      -1.8912538163699977,
      -1.0779276545899104,
      -0.7383944265590958,
      2.142713321037274,
      -1.6612505968245688,
      -0.054964157997453356,
      -1.8314231631101712,
      -1.5765427473573566,
      -0.26514121467428203,
      3.295127879375987,
      -3.8180914608857988,
      -2.4129470743928128,
      0.03833814574056982,
      -3.1878719522614185,
      0.07310568095504816,
      -1.3018912156584068,
      7.625011057860479,
      -1.3205120520833913,
      -1.9089242890262783,
      -1.8503369203052906,
      -1.8196110996719972,
      5.4385346855900245,
      0.17065169350731524,
      -0.2854115160955184,
      3.0431620596646263,
      -4.188820947179803,
      6.486242772653998,
      -1.7454940838207298,
      -2.094546518124386,
      -2.301132222005577,
      -1.5136643574186177,
      -1.4071655411846717,
      1.2612882019524425,
      -0.013657288391413558,
      -1.0837260610335766,
      1.6181812016329693,
      -5.062156826365781,
      5.156466900658099,
      -0.3443194612834066,
      2.6781869235153875,
      -2.3604455546849143,
      -1.5367260535001932,
      -0.593363886259789,
      -1.1181655534396469,
      -2.138155980046049,
      0.7475589217513106,
      -0.5169476840112464,
      0.11880059390904418,
      -2.1570500723204518,
      -1.7055221476458957,
      3.0852966913648308,
      -2.4234524643157354,
      3.0010670191222792,
      -0.1671480892410525,
      -2.344539982887314,
      4.5800792968510935,
      -0.43424685903666194,
      -1.0762452107674432,
      4.072539010855556,
      -2.5440907044650727,
      -0.04810558856469527,
      -1.6207362178760703,
      1.0602086366742027,
      2.3697641017367235,
      -2.6720284209454195,
      -0.5745210353344326,
      2.1820496146569424,
      -1.3876536879293773,
      -1.79088726570085,
      -0.9209814088727499,
      -0.7237943546317028,
      -2.3650032461655575,
      -1.3901316446109981,
      1.421286962467819,
      2.1398314219131023,
      -0.3177425267167099,
      -0.33659745472828007,
      -3.3214921210434936,
      -0.5691858900862266,
      -1.6994795685593438,
      1.7875658869546194,
      -2.263840775000945,
      -0.6260529801607569,
      0.4565722128814189,
      -2.271028330987943,
      3.20842517602801,
      0.4880134326959021,
      -1.7837162674548666,
      0.5012904002956285,
      -1.4800583052186074,
      -1.0503076333222754,
      0.3708344493234854,
      -2.2906069681723236,
      1.151476306333923,
      -2.438052222692521,
      -1.6489901573552819,
      1.0998293642780488,
      -1.5794353572241215,
      -2.512937339641077,
      0.16103804163854551,
      2.7461627114803493,
      0.415583234116676,
      1.218531455241882,
      -2.32576219683636,
      -2.931018101113465,
      0.0927261443765518,
      -0.8344902863998739,
      -1.7109178546114772,
      -0.4374466935772131,
      -1.3911326246439335,
      -1.9307927739311976,
      -0.11547933475302347,
      1.2768352618380387,
      1.1899753746009745,
      -1.3746247771608167,
      4.87635898255682,
      -4.800612687556201,
      2.6915005331682322,
      -2.46289543606249,
      -3.5213554901160413,
      -1.8551074450149676,
      -0.6788747965810732,
      3.436677838091344,
      1.0117540393426419,
      -3.525087640889153,
      -2.6260381571205516,
      -1.7946843893261957,
      -0.07025385394145212,
      0.1508308537418372,
      0.6770869210513302,
      2.139769838517547,
      -0.1064612084706702,
      -2.526097731504708,
      1.226114847535467,
      0.6453309961189533,
      -1.6972709444613918,
      -0.6090956022643365,
      -1.2979153136268389,
      -1.3230208587274044,
      -1.098672306700635,
      -1.365804922795875,
      -1.4216632692548965,
      0.32955386386390595,
      -1.4401123779131517,
      0.2736075814809653,
      0.013976236028034605,
      -0.39396008598106996,
      -1.1253220418543413,
      0.21738844836712196,
      -1.1515943001966438,
      -1.425755575430753,
      4.880152760970333,
      -5.635602937690375,
      7.432625654551353,
      2.9894125161881484,
      -2.0296738680867614,
      -1.6576357013962253,
      -0.2904640982294606,
      -0.7218858775542086,
      -1.3743808973812068,
      -1.1684600760625785,
      -0.7812639246792731,
      -0.6269118624453281,
      -1.3365627892729148,
      -0.9421495878198494,
      1.981975324554394,
      -1.2923931694138011,
      1.1433757661320918,
      -2.117436331101075,
      -0.06967535037650441,
      -3.811815086411428,
      4.130439397205448,
      -0.8354946830662231,
      0.602198020656298,
      -2.0714581923748643,
      0.0029426287945577556,
      -1.9097773105455338,
      0.27209745561753895,
      1.1673069041044521,
      -3.0520914387823455,
      0.7689103247539687,
      2.9450599978519625,
      3.730225193373563,
      -2.1759291093055966,
      2.3932880992182994,
      0.9669382311484007,
      -2.6604811077197863,
      3.2132946294897016,
      -0.9888732317781274,
      0.003705395396967237,
      -2.6665759531293647,
      -4.211418128363423,
      -1.817584022984851,
      0.7195012280194619,
      0.44674872328486415,
      -2.364962093327844,
      -2.158009560974818,
      1.3109968842582411,
      -3.040136527149596,
      -1.619395895461519,
      7.410941396314018,
      -2.9657395116640304,
      -1.9123838683728889,
      1.4124147570705408,
      -2.4214643343674744,
      -0.4218904855702288,
      0.6820343826537636,
      -0.4741460006137438,
      -0.6470426784917106,
      2.0666899393453044,
      -1.2572840957528482,
      -3.578408188013033,
      2.570437575342174,
      -0.13127742118723507,
      -1.5126848814800773,
      -0.3408189446044042,
      2.158558309181113,
      -1.8270825998048803,
      1.9820422951012433,
      -1.6836655785244155,
      -1.9189620790481767,
      -1.9920289300383702,
      -1.2831074541396932,
      0.8848619964506603,
      -3.3560626334132677,
      -1.8095105085118546,
      2.9265727648217896,
      -1.6365634271062852,
      1.7171981376632395,
      -1.6403924900253333,
      -1.5160468931249156,
      1.7182080726163709,
      1.6652684424166644,
      -1.16757918756067,
      0.5735696777501638,
      -1.6647623150098114,
      -0.9404581453951051,
      -0.49585067812140854,
      -2.458103756899724,
      -0.2717756369670401,
      4.348641978087335,
      -1.6195834200515489,
      -1.6002698072127588,
      -0.24851492916037138,
      -0.09820342515474251,
      2.76678263372437,
      1.1093225159858908,
      0.20535735076955808,
      -1.080186001848526,
      3.1440956477713997,
      -4.437939426294255,
      -1.4785455867325281,
      -0.46166136717048445,
      -5.176310828563886,
      2.920008289603855,
      -1.8009620134164188,
      1.7362160467645291,
      6.418796686889794,
      -4.813473169853286,
      -3.3385062836024595,
      -2.657760480305505,
      3.3547976462767686,
      -3.555464061511765,
      -2.241968609715822,
      -1.7115341141825602,
      -1.514452920350859,
      2.4351897034311047,
      3.1238364925580093,
      0.1253208547456912,
      -1.5416942503150213,
      -1.4313583995766495,
      5.179590886607206,
      2.5416556815892393,
      -3.0842476180779026,
      1.1918167973033582,
      2.140514266343999,
      -0.8242176810343382,
      -2.8951399572470233,
      -1.151477599685229,
      -1.5564211680679438,
      -2.797266187417219,
      0.7998047973319538,
      -1.6965178330980226,
      1.1608072685879833,
      0.18009456948570318,
      1.2871142055355789,
      -2.31527942797865,
      0.10321589945468213,
      -0.9102723698134836,
      -0.6098823604748417,
      -1.2464340017233848,
      -1.6874423560450553,
      0.6221826345033481,
      -1.8526144577013322,
      -0.5410612191208142,
      -0.9281345420068742,
      0.17285751945822125,
      2.1718113467241724,
      -1.520487935958445,
      5.714032221824564,
      -2.317262959594769,
      -1.9217414665688533,
      0.18425468464085348,
      -1.9332466353269833,
      0.41412713606104135,
      -2.935270667673967,
      0.7190687130519695,
      -0.7715043770813987,
      0.16912639933880358,
      0.13426820313193422,
      -3.571383838897244,
      -0.022824421198115452,
      -1.773704768665496,
      2.265765319304913,
      -2.3863510918009214,
      1.859458845724408,
      -0.5237982592298627,
      -1.4575683535704238,
      3.009048197326291,
      -1.1702768135699553,
      1.906365544825937,
      -0.2837187427108837,
      -0.6546317951142222,
      -2.2211329946334324,
      -0.9910840862198395,
      -3.02781092982325,
      0.045031507746297716,
      -2.94936499671289,
      2.3876405768099693,
      -2.3494398763732227,
      2.9166928101955594,
      1.8932143575966833,
      -1.8264848051817415,
      -2.4320746352410727,
      -0.6287550817408324,
      4.9320031109401725,
      -2.7087668733174297,
      -3.774960849393075,
      3.6553352375107924,
      0.3817974069745329,
      -2.2539286923175297,
      1.026745222761734,
      2.5611908298381634,
      -1.685350897785404,
      -0.16077796880592427,
      -2.4151288965901365,
      2.2531483487845234,
      -1.6772399973157128,
      -0.37237419299803715,
      -1.6787273110397931,
      -2.927405567038498,
      3.6061751829181987,
      2.3689168922095805,
      2.455350681597323,
      0.570587801188584,
      -2.0093181201324772,
      2.7223869100650737,
      -2.5395580291417543,
      -1.6894748142732503,
      -1.635001376067891,
      1.7740836354703502,
      -1.8597135563766267,
      0.5412643355793222,
      3.508302955371257,
      2.739450139161781,
      0.37593732015602155,
      0.960055480831812,
      -2.2138491743592006,
      -2.537098787862237,
      -1.4862079261156274,
      -0.9447180122974568,
      1.7908634513713704,
      -0.12465921120313339,
      -2.6778737631376375,
      1.8184691175083563,
      -1.6617916875369556,
      -0.44442118653155865,
      -1.394887557996962,
      2.8972101110376776,
      -3.4545846029316505,
      -1.6632353445352668,
      -2.926213562563318,
      1.8963038753093548,
      -1.541564241898251,
      -1.568246298454182,
      -1.454217720581742,
      0.4456396372988145,
      -0.18828120632828022,
      1.8165494329326883,
      -3.3085829278241574,
      1.032511041222353,
      -1.7075916921852303,
      2.838764093825024,
      3.6633747336507607,
      2.2909732988825855,
      -3.657431358018653,
      -0.266142763730554,
      -3.0095734313009004,
      -3.490717807856378,
      2.1931190796932247,
      -0.38975373008201947,
      0.7763106800923939,
      -3.5271987334661814,
      -0.7224019465460497,
      -2.10527635554962,
      0.8916926471146764,
      -0.8897449362510631,
      -3.807375337725799,
      2.1928677720183667,
      1.3156048922228174,
      -0.7932577538151337,
      0.16074536815028484,
      -1.3578688350097208,
      0.9081397608126313,
      -4.106074751544182,
      -1.9753754590593127,
      -0.1657119395402188,
      5.4266528450033995,
      -3.896041145616476,
      -0.2079411185217256,
      1.182168443974789,
      1.2702108558150011,
      -0.4355234402404753,
      3.1041281589112972,
      2.6843967263525568,
      -4.414488652450284,
      -2.0974630508293406,
      1.2586227468440052,
      0.2007898843640975,
      -1.317087395584907,
      1.225301895297908,
      2.154981543320175,
      0.5993191680105999,
      -1.507476168041388,
      -0.5682108922045452,
      -4.101602967125918,
      -3.0619311726662573,
      2.4795334744327326,
      0.788675118875699,
      2.6992410721220796,
      3.27971544597588,
      -0.7915963597645794,
      1.9371705571829956,
      -4.501081579149313,
      -1.5407229391473192,
      -0.25852757386729447,
      1.9222325521514556,
      -2.5068973695357175,
      0.7878592810576155,
      -2.2231956572185942,
      -1.6379891070570864,
      7.454146976898715,
      -4.581969522124092,
      0.4966035910655653,
      -4.231080369038989,
      0.47065164531876386,
      3.241873417996078,
      -2.2403835634792393,
      0.2132014892663307,
      -3.942183444925826,
      -1.3062926924587561,
      -2.2614527347065745,
      1.1897864256632844,
      -1.7406514411601095,
      -0.46000568619888715,
      -1.198740958174931,
      1.0450229025327102,
      0.010574356649073913,
      -1.8698683280594959,
      0.683637236801929,
      3.357838412456993,
      -0.14716087783263476,
      5.320746112608228,
      -5.234528151570346,
      0.2134253731368997,
      1.7118841721149922,
      -2.599069331063614,
      -3.7311656569468727,
      -2.0160150505936087,
      -0.4761349888268476,
      1.0964941870296778,
      0.3739671890277245,
      -3.453764072318144,
      1.1505168559703123,
      -0.12588007376117627,
      -0.5315706302787336,
      -1.5461843908513877,
      2.269178060502246,
      -3.327782425943125,
      0.07865182396182868,
      5.083958559516248,
      -2.0614149474059924,
      -4.958713896128236,
      -0.747674773170926,
      -2.947017078821001,
      2.3027058196919885,
      -1.4890393056707776,
      0.745075791737601,
      -2.0603625498942018,
      -1.4087581346052909,
      -1.8896129840885416,
      -0.8049715698547484,
      0.7038269120139188,
      -2.0844676316917434,
      -1.762137978619306,
      3.167434782055845,
      -3.239605371582873,
      1.8551037681134996,
      -2.448022312206447,
      -0.650234174341299,
      -1.8476283575701986,
      -1.6939888756927926,
      -1.7360216838728446,
      0.6008878770654579,
      0.8696074544897165,
      2.113251012120136,
      0.09370775146654675,
      -0.8374124308272651,
      -1.1997105750167427,
      1.4923651719109001,
      0.8721897677514876,
      -0.3426440219481681,
      -1.4308177267532067,
      -3.153197816259179,
      -1.8536649401023144,
      -0.6711276495571836,
      0.51377074100755,
      -1.297000108067703,
      1.8074383236255893,
      -1.3626467686322485,
      0.8746764521472087,
      1.1036377688688435,
      -2.8701481743587802,
      -4.395725264722693,
      3.369318490885132,
      0.2511504586024862,
      -1.6400597134468868,
      -1.9621357635066785,
      6.139397920295633,
      -1.5488206506994202,
      -1.3802465098784291,
      -1.6781079766080635,
      -0.2032117760528204,
      -2.828142872076705,
      -3.679991805649803,
      -0.6462073144671032,
      -1.1080670913688677,
      -0.30750613951759254,
      0.7419864014408286,
      -2.705626950990898,
      -1.0708038718963884,
      0.8417203043407425,
      -0.46826360428950575,
      2.530217994813134,
      -2.1616619406088535,
      1.109933498358445,
      2.6425778110215363,
      -2.207475269572056,
      -0.7755292620001113,
      0.7193255384669341,
      -0.6107480899993136,
      -1.3062179781644034,
      -2.0308305639485837,
      0.03404283018152632,
      -1.8320906930248446,
      1.2509000769255825,
      -1.6579294388747265,
      -2.603373539734897,
      -0.0757302960564355,
      2.4431944419572167,
      0.3427949727737071,
      1.2703157538181262,
      4.775409097720119,
      1.0349722751312416,
      0.9781036282477164,
      -4.6026404907753555,
      -3.435125068076724,
      -1.6550938839811689,
      -0.5563742372861601,
      2.7622432647643596,
      -4.038907966459966,
      1.6263726682943713,
      -2.486694323808898,
      3.5592114578286647,
      -2.85371789460113,
      -1.7030723031288937,
      2.160567639697724,
      -2.241135203280666,
      1.933307632207732,
      -2.2176372134839797,
      -0.3029105840568234,
      -1.1221696822162675,
      -2.756991270071471,
      -0.7980625306650163,
      -1.18609830086436,
      -3.6784393626438074,
      -1.9356705726532182,
      -0.9716258785236856,
      0.04467798994941663,
      -1.339553303671463,
      -1.7900617471893798,
      0.4989710905613377,
      2.6434844828606763,
      -1.5945291176203187,
      -1.2564037425590526,
      -3.4245613675525526,
      2.778423524296872,
      -0.6274255123576308,
      -3.3592548732261567,
      3.5785941758074697,
      -0.04577240067246502,
      -1.296453106645376,
      -1.7327255867568059,
      -0.6952225441242665,
      2.2205923057583967,
      -1.665352803917015,
      2.4350405392741665,
      -3.5921942575384747,
      1.4562602129151367,
      0.2946067839974187,
      0.31571232909446795,
      -3.1031282130797573,
      0.6368085091390571,
      4.990523488201698,
      -3.4358965641588064,
      -1.7024361933903491,
      -3.0812994226868193,
      -1.9991008986024865,
      0.6049419079869353,
      2.1048088919048356,
      -3.292169246199289,
      -0.6275777877062538,
      0.9947610103754834,
      -1.36384792629653,
      0.4170381922383309,
      -1.7820916637530781,
      -1.8751833697563614,
      0.1396613700351721,
      3.351908028163287,
      -1.744825059646248,
      1.7608174195434814,
      -2.047983158052009,
      2.390581223565885,
      -2.1809045449774294,
      -1.3794223665347758,
      1.8354973035111661,
      -1.9937533373864613,
      -0.844259939150404,
      1.038724795442437,
      -5.81957106910135,
      2.505542569678281,
      -0.17345526629925156,
      -0.27641988701077125,
      1.9842523375680345,
      -0.23604534133764443,
      -0.2855679282053042,
      1.9709090655290673,
      -2.8872908750723627,
      0.29473710427596045,
      2.463822094256838,
      -1.8255396247864368,
      -1.540188734876024,
      -2.7902588526530283,
      3.9714383125937873,
      -1.8186522087403183,
      -5.376783702376504,
      1.55606655809497,
      -1.1471416027601422,
      -0.9863137875816348,
      -3.4961743539186116,
      -0.36326173777337245,
      0.07186492374669808,
      -1.7902977476857767,
      -0.7523622978544601,
      3.579772665695994,
      -1.7360017542256156,
      0.028686474681621152,
      0.27098110255265745,
      0.6684468705714959,
      1.3849553535712131,
      0.6881714180851124,
      -5.58760688588277,
      -0.913442836457508,
      -0.9765616091479843,
      -0.7150232080119965,
      -1.1087015635985193,
      -3.228607230103623,
      -0.4447588776316732,
      5.977000599778405,
      -1.002577789101444,
      5.002772490925445,
      -2.2028331503544596,
      -2.5676757541181936,
      -1.3185184831275694,
      -3.2437996448651196,
      -0.23620079504729644,
      -2.703743741002129,
      3.1752224170437557,
      -1.6722072662781944,
      -2.687966417116299,
      2.1716818715793997,
      -2.0000971051932765,
      4.959756525285356,
      -1.696288488231352,
      -0.5930472969021782,
      -2.4358041120993743,
      -0.01702717800367004,
      1.2645064494049132,
      0.5550834272587435,
      2.43923099865528,
      -3.28696538791018,
      -4.372196476282526,
      2.306542421189598,
      -2.636867305710463,
      1.1356573972309718,
      1.1284087581919235,
      1.847456580072585,
      -3.1182166038100254,
      -6.053561472586641,
      -0.45909035419619504,
      4.261544059846097,
      -2.3968479684505826,
      -2.1702409792192565,
      1.6148618965025159,
      -0.46268317623828725,
      3.0366838538360175,
      -3.6391095497745263,
      -0.198638286860219,
      -2.4734355958882506,
      -1.0186683674866812,
      -1.6795767458110307,
      -1.1272289540354992,
      -2.759381685339985,
      -0.8828135137870399,
      2.264683219010695,
      -1.6568320966942582,
      3.3698475563482218,
      -0.6491230318650049,
      -2.1788124716823516,
      -0.38714250464635025,
      0.9243244627057532,
      3.5070345623326857,
      -0.7228974199625268,
      -0.35574703399588237,
      -4.895175535062718,
      2.8023535939146345,
      -2.8845806012185324,
      -1.7688547142605175,
      3.324593928011333,
      3.1793289062402117,
      -4.5143047761769255,
      -1.3625506860609118,
      -0.9510624880224154,
      -3.9948657043708264,
      -1.5114184156140131,
      2.4536107552008786,
      1.9912430858470063,
      -5.437483026524553,
      8.430004858791502,
      -2.7139364916683393,
      -1.5494631143894395,
      -3.2427336511072102,
      -0.8737914531037869,
      6.2720873066709135,
      -7.0194916974654085,
      1.6750400171026532,
      2.2734120386906462,
      5.756697268563029,
      -2.7024400647219715,
      -2.8904732417172263,
      -1.1393749564107358,
      -0.4723706277176772,
      -0.5985888803007071,
      -1.6569002225788783,
      -1.745841405797937,
      2.1510254917695995,
      -3.1492451094859635,
      -3.282266439544179,
      -2.4175255725439873,
      -1.75680693190219,
      1.8619158512726226,
      3.5119214395622205,
      -2.090964534983862,
      -2.023243695655275,
      1.3749452391766201,
      0.7811885368946474,
      1.6926038226733793,
      -2.320257648078681,
      -2.5132296642793506,
      -1.3913666980813555,
      -0.5749885323582444,
      -0.6131449591761378,
      0.9946629420433063,
      0.9064663889046946,
      -1.239252100259124,
      -4.624580404327718,
      -2.7667487410981817,
      3.856915221578937,
      4.800327619266298,
      -1.370990953545884,
      -0.071390329605166,
      -1.4630784792763334,
      -1.4152326537184423,
      -0.715080057773226,
      2.481459027967811,
      -3.1404258421241322,
      -2.8647799375003746,
      3.5557286750717205,
      -0.4943817004277221,
      -3.3481797606710826,
      -3.2791788805373794,
      -0.3814347738802799,
      -1.237739415618562,
      6.989800094672511,
      -3.6375175344168658,
      0.4632629967527109,
      -3.6513735930586715,
      2.4978184893269724,
      -0.9304751508213012,
      -0.3736168937652324,
      -0.1193183399840555,
      2.495112920838766,
      -1.5898854342272788,
      -1.0232823981560681,
      -0.9641373141445131,
      -1.9343769726078441,
      3.1732070202180744,
      -2.644272632415979,
      0.0893468405717407,
      -0.03219860542589603,
      -3.19205381362519,
      2.91320377057879,
      -1.2747040590293748,
      2.2359430608153072,
      -1.3703314955754307,
      1.0677347664925372,
      -3.274790617505504,
      1.5341865869521103,
      1.4359751722655254,
      0.6522745349003981,
      -5.937676453228846,
      -1.1803967628004226,
      1.0402389999080506,
      0.6627572302897774,
      2.6232280608270915,
      -5.186096176736196,
      -0.7906615239994703,
      0.4572197949402411,
      -0.850331321784413,
      -2.878501531639343,
      -1.7167671417038326,
      5.624291924158035,
      -0.5248383809733215,
      -0.9479420023144145,
      -3.0382635891290537,
      -1.525671027787948,
      2.4158475067784777,
      -2.9441795888970304,
      1.8444852679471004,
      4.560334082248479,
      -3.3089833929790866,
      -1.741847799327561,
      2.8043810485390637,
      0.550918066525521,
      -4.387052542931287,
      -1.2489888053989615,
      -0.8877396696519507,
      0.8055730550378458,
      1.2966480004531777,
      -3.187577342664018,
      4.392096819634115,
      -6.829016476436207,
      -1.4570626318688964,
      -1.0109001684077255,
      -1.7866955394951145,
      -1.9354048293603383,
      -0.9225635854298857,
      1.6688361040418809,
      -1.4538993103370128,
      -0.15864964359275957,
      1.2873093121569024,
      -1.8730742359717634,
      1.7864433330333873,
      -2.2181492984462308,
      -1.185960152355035,
      -0.6464613583538759,
      1.9445383196980102,
      -1.6231934941706658,
      0.009588969895389043,
      3.0584962086843053,
      -2.6291996921090877,
      2.846340324122523,
      -5.415489510733915,
      -3.514138277339658,
      5.636145828620557,
      4.298035002971252,
      -4.174495138888892,
      -3.489261019045562,
      -2.873087839227086,
      2.0540706725018185,
      2.0453470038481676,
      -5.45524721607553,
      2.3428790780155344,
      -2.623296060623188,
      0.1752214465800469,
      -1.3020730373014109,
      -2.0480319242808847,
      -1.5842695810077285,
      -3.1943014507453626,
      -1.8433165559723996,
      -0.1567553708262293,
      0.1711643950198971,
      -1.6682858546510804,
      2.0980651607954024,
      -1.2392198417187366,
      -3.407763085301995,
      6.799931624932725,
      -3.4233654829703863,
      -1.659735945151544,
      3.9112897256695427,
      -2.1439943725410378,
      -3.8707414182836164,
      -1.565308969207636,
      -0.8144390358521534,
      -2.19303628359376,
      7.734320519758418,
      -4.93785260823165,
      -2.115363958770548,
      -0.7890603761285239,
      4.147320427325902,
      -0.42105407486301105,
      -3.3427406777791795,
      1.2411064056018377,
      -3.029330219271758,
      1.8898976375721015,
      -5.917492200496685,
      -3.3697319911109735,
      -1.2606789272893972,
      2.577762213774447,
      -4.266672627158366,
      -0.7382342919095055,
      -0.853429911096572,
      4.038023701484124,
      1.9525995903529647,
      -5.620536858327177,
      -3.8181777500061114,
      -0.6266930902124863,
      1.162396252521595,
      -2.3557312696342745,
      -1.5837788882543158,
      5.2963168943358925,
      2.9754854249060654,
      -2.852884259197381,
      -2.181413444155406,
      -2.785444618783039,
      -2.705764616278138,
      1.5955280020230225,
      2.6523509110588113,
      -4.831557687729274,
      -0.9165607754609365,
      -2.129448978070102,
      -0.7752141775716864,
      4.3157206589192025,
      -1.1668067425884994,
      -1.6891990833105313,
      -2.0802818611685785,
      1.1143324882996493,
      -1.8141209961504203,
      0.3870172209043018,
      -1.60753221241879,
      2.032814353420136,
      -3.7419566571590925,
      -2.141919946683254,
      3.3924600056510505,
      -0.9037323559154186,
      -0.6319846719518274,
      -1.1416514627564522,
      -1.5853854480021523,
      -0.37843741713962487,
      1.3694740210389629,
      1.9022312058696857,
      -3.8505595730337827,
      -1.0425578576363086,
      -1.411646104175241,
      -0.6497792187465191,
      1.4561519734733925,
      -0.2620122717848194,
      -3.7954563688746514,
      -3.198708778588255,
      1.1644715406401884,
      -1.8659273668113052,
      0.04425305882257957,
      -1.1986940390002925,
      -1.4680209653442708,
      1.8309847503274337,
      -2.507860678411258,
      -1.705238866126924,
      -0.5171767722136948,
      5.7419707630328025,
      -4.517278330325064,
      4.132906188481649,
      -4.573557697197893,
      -2.950686125862605,
      3.0018259457073624,
      -0.18171505415943967,
      -0.8381264677390272,
      -3.006443967189451,
      -2.0147618917728423,
      -0.37599511822575626,
      -4.012773905764324,
      -1.5075941720924975,
      3.2703704870415375,
      0.7903898937921165,
      1.0922927080031473,
      -2.728853232059913,
      2.2573833761146265,
      -1.0166153933478812,
      -1.6551291373577244,
      -1.1535141241937548,
      2.8390500702343258,
      -1.6260548203073482,
      2.143426515591644,
      -2.714433372788908,
      1.296950416977563,
      -0.7610954629591241,
      -0.017602803155293445,
      -3.524820520818476,
      0.67479222479243,
      0.7397676294083797,
      2.3740130670271764,
      -2.8451199811758205,
      2.7128506171990128,
      -4.098235931660487,
      -1.552780128629808,
      -1.2638545692635317,
      1.7221116500391846,
      3.679279036980553,
      -3.664831966313751,
      1.4140364463453565,
      -2.31771468719847,
      2.918317988761795,
      3.2260627560469786,
      -3.1425403951476856,
      -0.9427725167116097,
      0.3696124708643008,
      0.12334369995260963,
      -2.822886969076623,
      -1.353051783246518,
      2.0907177151980694,
      -2.734420384933397,
      -3.2216973693992665,
      -2.289918234390655,
      -1.4999375491750855,
      -1.889512915803814,
      -1.7065197012387139,
      1.703872770872769,
      2.6437474585710206,
      1.5959758803903425,
      -0.23150712044983568,
      0.1468346346291029,
      -3.845141567148265,
      -2.677790615742925,
      -0.030623517687288306,
      -1.5089987765711779,
      -1.9366581247330836,
      0.8725330201928764,
      -1.6696202439885388,
      -1.8820496264760782,
      -0.4696317891085937,
      0.07237690370079819,
      0.1422790401923778,
      7.870474038444835,
      -1.9325115969323514,
      4.242299731548143,
      0.5746029358473357,
      -3.1132038128286075,
      -3.4951813859106005,
      -1.0837852304152813,
      2.7334521316292704,
      -1.7361196896449098,
      -1.5015852876916838,
      -1.713264120653167,
      -0.1558478054888382,
      7.890452534906967,
      -2.6254434929016846,
      3.05919588751254,
      1.161609211481887,
      -2.2384057393446097,
      -3.585025556246853,
      -0.14283087959856156,
      -3.2268267754328455,
      0.566008781005479,
      1.6339036678010523,
      1.643171307252869,
      0.19381705702367924,
      -1.4562560485817764,
      -2.6852047144338784,
      2.650319835570841,
      -2.9521684421764283,
      -2.751728258829237,
      -0.0649754288426787,
      -1.4132378036964794,
      -1.328874593852902,
      -0.6264072412059905,
      6.905758223474764,
      -1.9658193290743737,
      -1.0645152061502596,
      1.1085629536107104,
      -1.4766135912149565,
      -2.2174378018540737,
      -0.14882382348126288,
      1.0756287318094366,
      -1.1739435798754465,
      -2.2216363561533874,
      2.925282058863142,
      1.7707182625903326,
      -3.315658425422064,
      -0.25231109046114464,
      3.5870661912178736,
      2.5697633607111854,
      -1.174187655011882,
      0.8914852090084422,
      -1.3517975600327965,
      -1.8327815945088415,
      -3.2042443237706264,
      -0.8371374340623282,
      3.5809467561992374,
      0.12366247137417835,
      4.046852898426399,
      -1.8781302979305923,
      -2.357058547895693,
      -1.6156127709030996,
      1.793890395145528,
      -0.3551200036719897,
      -1.9289721393555543,
      -2.4212554414375127,
      -1.7947276587016994,
      -1.2671592736734885,
      -0.4793796536032981,
      -1.8243579635455298,
      2.7879672565379203,
      -0.6534254629239951,
      0.3454669017540559,
      -4.515507914654555,
      -0.6617492395521342,
      -0.9053216460462028,
      -2.342306432817635,
      1.575780692914912,
      1.948836361802678,
      -2.06687071918883,
      2.2025067226482937,
      -1.9098304109066673,
      -2.476267124841687,
      -1.3980142591690485,
      6.069856851013483,
      -2.0728700700978075,
      -3.3892396930030513,
      -1.867206246251419,
      1.0459581727789606,
      1.0458221910300465,
      -1.1654910867306376,
      3.577191819075988,
      -0.9269564461387556,
      3.4892276627656527,
      -0.3111835582102199,
      -3.1381740677638827,
      -2.097876777151812,
      -0.6679112023877987,
      -2.0944499749441547,
      -1.7669909687736671,
      -2.6291487372593254,
      1.6188512250065876,
      3.36475901734908,
      -5.251861025611757,
      -2.154402320505665,
      -0.5422627458732614,
      7.031992777062038,
      -2.043903786338994,
      -1.9389926749267365,
      -0.0029461014826903664,
      1.6515242878199619,
      1.5745628819981747,
      -0.60330055017975,
      0.07632218515242256,
      -5.083345890851902,
      0.06972125161693077,
      -2.854866850326715,
      -2.6881726290320263,
      -2.594101722905322,
      2.4690350805447943,
      -1.656760262717977,
      -1.0671914865491536,
      2.6849565235615245,
      2.7599530735151303,
      -1.274081504483005,
      4.763929690062631,
      -4.240099664572531,
      -0.553579095568566,
      1.7050927675371397,
      2.8578109971373555,
      -3.1385374239505808,
      -2.2380583184514533,
      -0.8114415505053358,
      -4.260361132833209,
      1.1776690414502564,
      -0.7107763705443544,
      1.6451776714400843,
      -0.43860264411542726,
      -0.4798539339957629,
      1.8260016515763695,
      -0.40066570371352606,
      0.14936673629928077,
      -5.079522845538161,
      3.2507616120602068,
      -0.5264619476478035,
      -3.960617642964984,
      -4.402624791919922,
      2.1743484731046476,
      3.1620065481049715,
      -5.001450655255307,
      -1.0537816719521538,
      -3.305360640765577,
      1.3975382153973326,
      -0.7928657465194503,
      -0.06710534434784392,
      0.7348419498140053,
      0.5961739054106727,
      0.8451386182971752,
      -2.9172674633594733,
      -1.3729738688119868,
      0.7227263001192802,
      -0.055029681069576286,
      -0.7655582081209812,
      0.06824285816080033,
      0.9318954894440943,
      -0.7116075612872044,
      -3.428578858594788,
      -1.2961526800322787,
      -2.3150833506692865,
      1.1061576559275488,
      0.6626617660805578,
      -2.701119003774437,
      -1.8872466836924255,
      -2.0609159338721055,
      -0.4136733248161271,
      -1.511031475786126,
      1.5526867756222524,
      2.551742381738977,
      -0.07509633776776745,
      -1.3942268770895352,
      0.2083808194097294,
      -1.519543265184764,
      -2.34862589441234,
      0.22570796209391675,
      -0.06177120550275769,
      -2.3174434020747787,
      -2.171570094122587,
      -0.4111563592461467,
      0.9738274979926109,
      -1.1410582737294237,
      -0.5937899973291336,
      -0.8287159219228334,
      5.288689605775216,
      1.9646088688106231,
      -1.7670695900095288,
      -1.4766790715428235,
      -1.3751465639764229,
      -0.12105736836157222,
      2.4475374307245628,
      1.0337983076965171,
      -3.1426357856894054,
      -2.3669693061339494,
      0.024686846081756718,
      -2.1992585282967503,
      -0.14182038456170032,
      -0.1623267278795355,
      2.5337599196429483,
      2.973828740315339,
      -4.938656019976477,
      -1.4995097973294573,
      -1.8414499658828172,
      0.34170551780274083,
      2.7824525816061834,
      -1.8043156525116828,
      -1.6707793311642483,
      -2.2126048428810883,
      -1.8499061306340936,
      -0.13020660837681863,
      0.7406484298672197,
      -2.190250705489677,
      0.6581505070441972,
      1.5518550516442091,
      -0.42082481779309655,
      1.365635072535604,
      -1.1398386513315075,
      6.882007885516883,
      8.712282934790135,
      -1.03208946530514,
      -2.037555894863987,
      -1.8491668536971053,
      -2.2081520192542863,
      -1.5654251794989942,
      -1.3689820610464902,
      -1.4567600266243215,
      -0.20104022191493764,
      -0.9259135316260371,
      -0.0564046095501623,
      -0.23586797490639788,
      -0.7549312701435151,
      6.553349075275625,
      -0.9554471943957109,
      -4.561649068179193,
      -1.0282350822900983,
      -1.6226435323687065,
      -1.6327337073747354,
      -0.41709828430907736,
      2.257634900161598,
      -0.5635533122033094,
      5.034565988867856,
      -5.456880934977137,
      2.395772656575716,
      -1.6741561940217677,
      -1.926805396554006,
      -1.3842930434779934,
      -0.2900057279034547,
      0.2056244859896036,
      2.677465949218372,
      6.520628370775391,
      -3.1797787733743497,
      1.4273771094004783,
      -4.091217622566223,
      -1.5270322820220588,
      -0.7373467303726595,
      -1.26137720831424,
      2.9190741737713815,
      1.2131940325574408,
      -0.9073141848030133,
      2.4602607702137638,
      -2.464567700257195,
      -2.2461354763624874,
      -1.5298076568149177,
      -3.6927044927216692,
      1.7244222869092545,
      -0.030602865112396294,
      -1.872299465357064,
      0.6263882295060559,
      -1.8682402510648162,
      1.7171913288959875,
      -1.3656723966966524,
      -0.662938479613706,
      0.6447908207132625,
      -3.839317685732541,
      1.9256145335729342,
      1.6939761309523982,
      -2.7719010700209017,
      0.0691459474196312,
      2.0858477966033733,
      -1.6935278324250898,
      -4.247232458968517,
      1.065400949526541,
      -1.7397714394454322,
      -0.48276436136244977,
      6.4292497701751765,
      -2.037454412388056,
      -2.2670839174738293,
      -3.3430080207137056,
      -1.4773983155208519,
      -0.3843723833231586,
      -1.87080678435645,
      -0.14873816229177883,
      0.48763643438937687,
      2.0554528715208344,
      -0.06960501278569942,
      -2.238402014437898,
      1.7281764078317992,
      -6.585578860726727,
      3.1853639601770776,
      1.7412471655223618,
      -5.099326249919977,
      1.304127212440242,
      -3.365287574107296,
      0.7354636470720031,
      2.090746296409009,
      0.9450827173895241,
      -0.7089802498811866,
      -2.31698572090197,
      -2.994689642795971,
      1.413278392279882,
      1.1074897639248866,
      -0.00903232221217698,
      -4.873989476330849,
      4.012277249811166,
      -4.362638135581381,
      -3.4225488310710093,
      3.37002546451024,
      -0.6411083462236331,
      -1.4201668120693984,
      4.221057133086591,
      -3.0455493057737506,
      2.9409332706267057,
      -5.50454755381934,
      -0.908920275914592,
      -3.0749629960877067,
      3.2171641033562994,
      0.23976687770769012,
      0.3082650741735824,
      -5.011041457073915,
      3.3365733466072873,
      -2.6728668555506694,
      1.9018567389127705,
      -2.9464713271849186,
      1.9393204446137426,
      1.5374209140953887,
      0.5869375937192345,
      2.460992630322492,
      -2.833071773771244,
      -2.221272177869433,
      1.3336136933034202,
      -1.3133740920292587,
      -1.30503305895888,
      1.858281867970629,
      -1.0831890870232261,
      -2.8148745486534152,
      3.0674787091177453,
      -0.2930196063172589,
      -0.28225852497918336,
      1.1281518460512472,
      -1.3404431486843023,
      0.9561795716055663,
      -1.898663885245414,
      -0.114210533348164,
      -1.6408581862641056,
      -1.8895229973631498,
      -0.3647844423149472,
      -1.9117673439790717,
      -1.8935975382354149,
      0.026974548575874002,
      4.582842313470976,
      1.775667254065623,
      -3.502328850184437,
      1.0601672750830256,
      1.5250601112113327,
      -0.3801597090439346,
      -2.3703156921056063,
      0.5427854672763907,
      -5.140872556340625,
      -1.6668916047884776,
      -0.4886488949310066,
      -0.29836018844840184,
      -2.0561959601392816,
      -0.3721166624145388,
      -1.76602377704101,
      0.8493280291108156,
      2.829451692559075,
      6.540928849607074,
      -3.316337871893503,
      1.5644435314651879,
      1.4994858447904569,
      -2.5047952318525346,
      -0.252909045886767,
      -1.6084078556842074,
      -0.20834097515722605,
      -0.30399364558751196,
      -4.373452087272889,
      -2.941803532833957,
      0.3019871523221783,
      6.777046865956624,
      -2.461120451667209,
      -2.5621245526991703,
      0.4303854826221779,
      -1.5405806819297232,
      -1.6795986427545535,
      -1.6174035402779752,
      1.5003020673173462,
      -0.4871094397496113,
      1.8447125748456774,
      0.6118910649789548,
      0.26869956145844515,
      0.6518921303801604,
      -0.736101555147078,
      2.052410083633954,
      -1.871872534622104,
      -1.3206699668351303,
      0.09398800490190196,
      1.5023052188941384,
      -2.774258292496391,
      5.186713806128639,
      -1.5909899165922838,
      -4.032235607276297,
      -0.268937191140993,
      1.2535341009346421,
      2.962853186182692,
      -1.7862337694267414,
      -3.9078969228835723,
      0.0954633481429179,
      2.243534435605106,
      -1.9363600677417363,
      3.291497236160675,
      -0.9858986493565418,
      -2.7840134165239894,
      -1.0817152780734358,
      0.8338706972277359,
      -1.4254428945782387,
      -0.6790717110559751,
      -2.980896507650586,
      -1.4621311409506874,
      -3.4335840217417597,
      1.8272048374437388,
      -2.3995330237169252,
      -0.391899327448215,
      1.7792165667470667,
      3.582215531676902,
      0.42328388365789993,
      -0.005031022737501001,
      -0.06135330329037458,
      -4.2586878803751205,
      -1.5506229860511496,
      -1.2385956520542079,
      -3.0957705790743244,
      4.757154755000014,
      1.7636289630138648,
      -1.2910578130609855,
      0.15931810005235392,
      -1.3088836476493855,
      -1.3244770231741763,
      -1.404121765108869,
      -1.356146508561708,
      -1.6541312629828844,
      4.167256915854189,
      -2.06933499860855,
      -3.101888663324014,
      -3.0878581728444985,
      1.3764683605456898,
      2.384104959697277,
      -4.041386232570632,
      -1.1098338162559234,
      -2.232031442744877,
      2.5596008227547027,
      2.97234222793412,
      -3.5383801986857475,
      3.8897865371245373,
      -2.606509944877858,
      2.001131609515065,
      0.5956836000597755,
      1.1922441475367296,
      -2.50254124467871,
      1.8838516691116318,
      2.0834520718917573,
      -0.705773613350794,
      -1.8499732947497298,
      -2.7133925768911555,
      -4.7864562000617585,
      -1.1374712547459347,
      3.140605426832597,
      0.43494116631357194,
      -1.2850534712590225,
      0.43500869102585527,
      -1.031897536234204,
      -0.4419238030100203,
      -2.241094562916665,
      -0.3252868247498893,
      -1.1737682656202217,
      1.1762876025970093,
      4.715322642108666,
      -2.395068252573017,
      -3.217313343612373,
      -0.8995637346232107,
      0.6590028991483272,
      2.5225245993841314,
      -1.3818887021206139,
      1.3914807639041542,
      1.750635565449492,
      -2.735431962686379,
      2.621427280589818,
      1.0103819132621426,
      -3.7842468660518924,
      -0.4923637730759253,
      0.23596467443735347,
      -0.32335041186295954,
      -2.475223290547471,
      -1.7864169664045522,
      1.5953349784531308,
      -2.1057123041410364,
      1.80117730162711,
      -2.433684127946773,
      1.996848482831692,
      -4.784211587872985,
      -0.6499939613482482,
      -0.46633584062418365,
      -2.934604183557476,
      -0.8345257056523951,
      -0.3216777452366414,
      3.3307954230555534,
      -0.41329893937845663,
      1.6645637552416486,
      -0.8758006109854627,
      -1.4460563683883219,
      -1.1808739755427657,
      -2.17269351269486,
      -0.5937007168089924,
      3.128845196074084,
      -3.9052567406181486,
      -3.8669547279363865,
      3.659502089144232,
      -0.9741177699057586,
      2.0115673039326896,
      -2.575753566335691,
      -3.268426778347475,
      -0.6023642627010417,
      2.3434775356968705,
      -1.8245571064135122,
      -1.9821032243443768,
      -0.3627196657333288,
      -0.038828883902525924,
      0.06214893538498023,
      -1.853158437364048,
      -2.33043235032589,
      1.018057234246366,
      2.9844853139808434,
      -1.5412847562402208,
      0.7955827234429814,
      4.083819885991339,
      -1.8360421348813936,
      -0.5518780552394842,
      0.10455502730822219,
      1.1676902502394044,
      -2.9566375720664366,
      0.12154164631014197,
      -0.7193349568542682,
      -4.367401326626812,
      3.1633380386850085,
      1.761459659032206,
      -2.35377864561304,
      1.6371089697388364,
      -1.3932374339881077,
      -1.627774283897998,
      4.105678738790371,
      -2.2217562896591625,
      1.3411270159137687,
      -1.577722512592812,
      -2.7133733795280457,
      1.4537292791091163,
      0.76264106883734,
      -1.648493359013961,
      -0.12866890329386582,
      -1.5336610700874047,
      2.986772666133633,
      -1.934648816233317,
      -1.0650950748221293,
      -1.69800388419588,
      0.8906298402499676,
      5.323749753045904,
      -0.5185905880764886,
      -0.7612451084439578,
      -4.172881917200064,
      1.8905017971952287,
      -3.5512477737442234,
      0.3845361693486454,
      1.082913688048185,
      -1.8352692559813302,
      -1.752328403649027,
      0.26500047315110786,
      -1.4387891318826649,
      0.014829243610200549,
      1.0690571317737665,
      1.6427098063838164,
      1.2110447693275517,
      -2.0098419632477444,
      1.7568496882826963,
      -1.9107921232145753,
      0.4252120881805743,
      -1.9067167185000775,
      -1.318517571618398,
      -0.01733680183002967,
      -2.7979282885983636,
      2.1666997670003596,
      3.1669230238991455,
      -3.360784400554622,
      -1.1788903912890047,
      2.8687736728697644,
      -2.978051809707262,
      0.06206812335356693,
      -0.39902757606704975,
      -1.7424620498260117,
      -3.139072846793674,
      1.3810554381691373,
      1.338146816188068,
      0.33155089019410755,
      1.3169302657003454,
      -2.7806067176991904,
      2.1344017135401216,
      0.4511734497189057,
      -3.382045606847994,
      -1.9986485958856481,
      -1.76509907099645,
      0.24245783171324026,
      0.3386947305549983,
      5.496348820916107,
      3.478829889314978,
      0.913482901898427,
      -1.8966428423237236,
      -0.8187701113805923,
      1.854728897698855,
      -4.019078388998393,
      1.3495351098795956,
      -4.087709288795884,
      1.0022598213130771,
      2.34900537635272,
      1.0388200140781947,
      -1.5050818577037832,
      -3.343927877686118,
      -3.0423017277873674,
      -0.9429595108681963,
      -2.1384993486872372,
      0.08580115202046518,
      1.7262378466758506,
      3.8899523503605415,
      -1.6916127442264135,
      2.7088973917651606,
      0.6788344842985756,
      -2.010142028354808,
      -1.243893920007889,
      -0.6560048431410953,
      0.30451680841056816,
      -4.417555011557058,
      2.9679060605730814,
      -0.684424005683406,
      0.0957882087524079,
      0.5684295203731615,
      -2.0678870211664613,
      0.27680428838364085,
      3.727579357684387,
      -0.2782836007393962,
      -1.3409686545179653,
      -1.4047621566049866,
      -1.0610677262305794,
      -0.07123527650074296,
      -1.5935975660831567,
      -1.5608954079749005,
      -1.195335481051527,
      -1.1010402210630172,
      1.4343471768885945,
      -3.246866696768612,
      1.6610920104759472,
      -1.2545323920434885,
      1.8962072778539254,
      -1.7787313614629956,
      1.4134718044287862,
      0.2283479766151728,
      0.5773222680049936,
      -3.3625098400246793,
      1.3074262616760275,
      3.1818972356790343,
      -3.9517934386888127,
      1.8392889046409575,
      -0.6764422244554605,
      0.19240804547178836,
      1.042141999948067,
      2.038232485282964,
      2.814011462037392,
      -2.6718817068214884,
      -0.9967345687788451,
      -0.7474785837137329,
      -1.1508639293629128,
      0.47757436371871553,
      -2.679048351223562,
      -2.2648029884993353,
      0.0893341250837083,
      -1.706027413787735,
      2.7208286807700457,
      2.2255773050682106,
      -1.2241209091220633,
      -1.7154625635674363,
      -1.0124563007744367,
      2.3333290156910866,
      3.344122172806271,
      -1.9913451563087456,
      1.0688832923701912,
      -0.1535841360754916,
      1.2623108181096558,
      -3.723920294213822,
      -1.587971326119693,
      -0.786311385684021,
      1.7021220472377567,
      -0.5000705459005712,
      1.855421220005641,
      -1.463902129373853,
      -2.108917440980958,
      1.9614681431078964,
      -1.5081910092191666,
      -1.0543854950741423,
      -0.02773086340371106,
      -1.0716282781227484,
      -1.5274396249149722,
      2.713302869841825,
      -1.3209027575230576,
      0.5226776963103846,
      -0.8496850258433233,
      -1.3508743964679213,
      -1.2654042840431834,
      0.3727983889465574,
      -0.48599014591665163,
      1.9526008092791558,
      2.7033599618683146,
      -1.7588729797339362,
      -2.052859331924896,
      -0.16885443861580351,
      2.047282686969581,
      -1.4289807953851137,
      0.9361832268309989,
      2.5415003119064568,
      -2.35571101772053,
      1.1421999882579201,
      0.5172208221137676,
      -0.10321835436216809,
      -0.4179706099201218,
      -2.659158441951019,
      -3.48634829683744,
      2.501110059858154,
      -1.5649272205902078,
      -1.0694881697402823,
      1.691860310889623,
      2.6359636633888996,
      -2.78120059320922,
      -2.752548087661572,
      2.320584594400394,
      -1.4016843319138919,
      -1.3098822598964508,
      -2.03460994405675,
      3.5547686244302223,
      -1.9206221436871131,
      2.929011262107558,
      0.3454423919463142,
      2.5037080822439934,
      -1.8776527195589898,
      1.5022679569933857,
      -1.7753471689275626,
      -2.2312961901760224,
      -0.22181028034306519,
      -3.4056932492247713,
      -1.6609545394226748,
      -2.6556933753162983,
      0.1422430967433881,
      3.7020724592920695,
      1.714408349832584,
      1.5867576527631613,
      1.472798250124125,
      0.05340449718481044,
      -0.028080693015894775,
      -1.4795580793619627,
      2.8928511139572803,
      -2.123823992205373,
      0.9985722844943492,
      -1.5084876218999526,
      -1.580313288003263,
      2.94852352487978,
      -1.930167053894124,
      -1.3276433484096823,
      -1.2449977024851921,
      3.6932247556978215,
      2.059729866728617,
      -2.765073262668754,
      2.6152669595977263,
      -2.4037800538733016,
      -1.3179276933597912,
      -1.5706583005482404,
      -1.325420620160769,
      -1.2430428864861254,
      -0.31877400607948564,
      -1.2623416144044954,
      4.828427046987021,
      -1.7047159417898472,
      0.38185517271024405,
      -3.5045477802644753,
      0.060201054062054615,
      -0.2975734040640874,
      -1.2350385409122282,
      -1.6569181144114653,
      0.36497091806791715,
      0.7391730563352517,
      -1.5767275610185343,
      2.6444269453326874,
      -2.4474761644902836,
      -0.5593164780313671,
      -3.6549859371565043,
      1.3638554181528204,
      -2.1696223365828344,
      -1.5967088319872649,
      6.821797739264945,
      0.32530858440735977,
      5.855647471546979,
      -1.0458925667093029,
      -1.7595304739819584,
      -1.5532830839857479,
      -0.3618882288875975,
      0.6483995019427587,
      0.9479069974517476,
      0.9183170852209358,
      -0.8564786371269447,
      1.450805734411691,
      -3.0944160682328485,
      3.298765289621798,
      0.7037910896709304,
      -1.5075595752348185,
      -3.7554814723876166,
      -2.387395051545112,
      -1.441669659699845,
      -0.6076125508625543,
      -1.1658066878763806,
      2.7552931739354953,
      -0.3977407783193998,
      1.904896070848708,
      0.667128182495659,
      2.913171305771609,
      -2.9374132246231124,
      0.11841324799309833,
      -0.05794717860267817,
      -4.355073913317806,
      -1.0088147588175067,
      2.9330704755687282,
      -1.9150709297118944,
      -1.3339460267115688,
      3.1896803642751497,
      0.6053315812859528,
      -3.924045614285147,
      0.04703371252592653,
      -1.3147868161144318,
      -0.25102727439400674,
      -0.4600150859496519,
      1.0809444558012158,
      0.25788091335964203,
      2.59335414746064,
      -0.608408442757177,
      -0.19729390601029195,
      0.586970236711894,
      1.0458047208676184,
      -1.5555910625108442,
      1.9862791815874605,
      0.8829189058083745,
      -1.6361728445587314,
      -1.5124420167222057,
      1.0175811405492388,
      1.8679463540198231,
      -1.36481594667252,
      0.5698832295627336,
      1.0177674072290768,
      0.4276877685245266,
      2.3129367000790033,
      -1.5025709573201116,
      1.4610806856938734,
      -2.16019994221469,
      -2.7646894928256422,
      0.09034407582242576,
      -0.4426100785737028,
      -1.3278299725087577,
      -1.2451618136681604,
      2.0125251689121573,
      -1.126356043655062,
      -1.6230140621724267,
      1.1264704108410974,
      -0.47234087361505345,
      -0.41345194491148796,
      0.24294556176971688,
      -3.218119679234636,
      -0.1837075383730971,
      -1.0546498523665435,
      -1.4048188314871888,
      7.109953932747504,
      -1.3862490868226467,
      -0.5483650451573545,
      0.48748995896188285,
      -1.2768510976077716,
      0.6602330579784046,
      2.6807437684225066,
      -2.470837341336358,
      -1.0722597475654116,
      0.2860230800256003,
      2.631185958435243,
      -2.253474752710076,
      -0.35398496227631027,
      2.6484480487949487,
      1.3793597696075155,
      1.7295491289538687,
      2.5142447744037826,
      0.14312201414710612,
      -1.3375001658360652,
      -3.4848476592532833,
      -1.181546227082746,
      3.314530419996877,
      1.037455552102813,
      -1.2361182433245839,
      3.3432757532857798,
      -1.1278721434684538,
      -1.411462877062502,
      -0.21261082931387032,
      -0.74807068755123,
      -2.759484050814371,
      -1.1552320740934117,
      0.23330196484427068,
      -1.08837597588807,
      -0.8778314959590408,
      -1.1052141943123517,
      -0.8505735585874358,
      -0.053421766493920275,
      0.2855593486971728,
      -1.440658380119097,
      2.3696856060458407,
      1.8813432099886627,
      -0.16292699142571854,
      -1.158146544246071,
      -1.4661361182038335,
      1.956456276639928,
      -0.1483306394331313,
      -0.6272821939316789,
      -1.4015535078868968,
      0.33981700007013516,
      4.139794342807251,
      -1.4315755415663478,
      2.159022619707221,
      -1.0144612774840662,
      -1.2013219115039742,
      0.1368522813328098,
      -2.3907210575443436,
      -1.0052762155083292,
      -1.8429213513765794,
      2.3548412096228626,
      0.6665747207468324,
      -2.416900680900668,
      -1.339350093189918,
      1.7707024020247886,
      -2.6107168563901313,
      1.9232334714875896,
      -1.53298544568591,
      -2.274886999074922,
      2.1651893727385008,
      1.646008221402023,
      0.6232246513449483,
      -0.1107848501957921,
      2.9846880756841934,
      -1.366737127527532,
      -3.1389555512465073,
      0.9346465334246152,
      -1.2370546068840242,
      0.32544967588471263,
      2.7935740632336072,
      0.18792668875762464,
      0.6858540819064114,
      1.5332810356084736,
      2.65722085754268,
      -0.16957224262948256,
      -1.2818467210443127,
      -0.0022475101586829638,
      -0.47595760592734904,
      1.094517245474512,
      -1.2044934608203153,
      -1.2121606420797337,
      1.1719498807007955,
      -1.1155332902780402,
      -0.009311828302150604,
      -1.2159934753069161,
      -0.889397908558172,
      -0.5239330111751667,
      -1.2950865228694433,
      -2.2786081374400746,
      0.3068602327907727,
      -1.2363865394653213,
      -0.9929131597338484,
      -1.4363424194412107,
      1.068942636047824,
      1.828812199370926,
      -2.998189256024271,
      2.2309581180733082,
      -0.8783008733985511,
      2.23075307726139,
      0.28810393877082086,
      -2.163859301412834,
      -2.428967271070822,
      2.4073363184151906,
      0.0319197847218462,
      -1.4389604699169531,
      -1.3423789571664126,
      -0.8150387965366496,
      -1.3255885115363324,
      0.36516145795551314,
      -0.4503182911109631,
      -0.3042276129594618,
      0.24975193480824776,
      6.454732462735759,
      -1.7558940408016208,
      0.28818784217814675,
      -2.092850151604963,
      -0.6370059285950564,
      3.026199251733816,
      -1.4185192854875708,
      -0.6313397539931632,
      -1.635750851699054,
      -1.3794488767638595,
      0.6773952240498788,
      1.6587609208360057,
      -1.2560586203191137,
      -1.4053371066417273,
      -0.49809446210598307,
      2.4453178664393556,
      2.094964411672907,
      3.055839307900035,
      -0.37921514923469635,
      -1.4708026589010912,
      -1.0509957111194643,
      -1.3449442310136943,
      -2.720764756615263,
      -0.031855955307352635,
      0.28924380090572466,
      1.5170516163557048,
      -0.35458729066268724,
      -0.6047852687215995,
      -1.3233169622372172,
      1.1349593332091092,
      -2.047927749790378,
      2.914947751378192,
      0.9998539464966165,
      0.6728983532229618,
      -0.37796596483371026,
      -1.6622415085998161,
      -4.221911282591807,
      2.228055229417052,
      -0.20229653340385934,
      -0.21442618788856793,
      0.5928095646998945,
      -1.206351338372702,
      1.9463888460298584,
      0.050294380553549956,
      -1.7026807221194393,
      1.641812413774588,
      2.832822013939026,
      -1.7753401699187243,
      -1.1865126606029934,
      -1.1200641461011676,
      -2.1340665049134944,
      -1.7970450305639334,
      0.9551289977897695,
      1.240184808072097,
      -0.8762156722232833,
      0.22757156311615756,
      -0.9150290424797702,
      -1.143864136558563,
      -1.0819821099595295,
      2.152814270324585,
      1.4299694063957888,
      1.517220120022734,
      -1.110329161837738,
      0.2792864491533329,
      -1.0947924427222266,
      3.1648025272703153,
      -1.195169154435791,
      2.118819143619808,
      -1.0908823337055167,
      -1.0344586977873071,
      1.0752222888610803,
      1.6884622283375212,
      -1.6912101395888284,
      -0.9997998200068869,
      1.1460978489078415,
      -0.9522269666947508,
      -0.9089506029200543,
      1.2752902547540257,
      -0.9390124504948717,
      -0.8969023278580449,
      0.5895149038697363,
      -1.4664709919008003,
      -0.974350873026236,
      0.7326064080541244,
      0.05468907947831231,
      -1.0868075036398428,
      1.6887096587283241,
      -1.121553613265457,
      0.3484914768848978,
      -1.094553752738732,
      0.06970409399012611,
      -1.0285088684592274,
      0.26378662975422384,
      3.118821779075321,
      -0.9833369482678521,
      1.4746150385864671,
      -2.050204668454284,
      -0.1404836486207296,
      2.103042001993457,
      -1.3018148909031175,
      -1.9156101404648656,
      -0.9626953007568056,
      -1.1943853087812293,
      -0.3687358973113904,
      -0.03139499278199792,
      1.201116422321324,
      1.0497182155702092,
      0.9402035014713614,
      1.5287241807033014,
      -1.7475773505060928,
      -1.4395934537194925,
      -1.5083427152997444,
      0.4148294399260164,
      -1.3332949115985473,
      0.6809076460579373,
      3.1925290214279194,
      -1.2018547783052143,
      -1.1414115273852596,
      -1.1751126256051312,
      -1.1098997642961055,
      -0.05613298392977606,
      0.40245405412075397,
      1.2770500902510649,
      0.8013776990745198,
      -1.5414577061484471,
      -1.2339634907092942,
      -1.5509991949993456,
      1.9640378007373864,
      1.5917061121389495,
      1.8444876288860392,
      -1.544213432504292,
      2.038817446176717,
      -1.2554051881952626,
      -1.320593352527131,
      -1.2387960604019501,
      -0.733428518815264,
      0.43921886201620564,
      2.90896497103287,
      -0.06562456588215426,
      -0.4271082060133429,
      -0.08259772216095868,
      0.5361488666953065,
      -1.4742257862845314,
      -0.7752531627409988,
      -0.8943059321599628,
      1.9692387820604496,
      0.39070588825279096,
      0.41452493526127365,
      0.8132491353526232,
      -1.1488099027818681,
      0.6152707508922681,
      -1.1149197369665147,
      0.4214507639151768,
      1.2378196395993157,
      0.5381033801111113,
      -0.4114923086069454,
      -0.8052728729671637,
      -0.9694939470485969,
      -1.0307006482826808,
      -0.9800368198687704,
      -1.0488563396078943,
      0.42080458411144867,
      -0.742536130033087,
      -1.1371304172052197,
      0.9030641652930673,
      1.0165879392947015,
      -0.9813471678889276,
      1.7966164790806123,
      0.33979131554845143,
      1.8648326827969801,
      -1.432083238560142,
      -1.666150264304652,
      2.014234916081615,
      1.699395579818095,
      2.0331936167755997,
      -0.476164325444417,
      -0.2120291611674705,
      -1.17765186322782,
      2.7390345376420404,
      1.0202348118115747,
      -1.9854471023878633,
      -1.1663941464624499,
      1.0100135639420336,
      -1.0892030262803007,
      2.255161793590843,
      0.0921558401023661,
      -0.016714345386302898,
      -1.12726021817522,
      -1.1328608414180492,
      -0.5374320380415772,
      -0.6722515204065378,
      1.0274495363384677,
      -0.5355177643842883,
      0.3945409767488085,
      -1.1445510225066169,
      2.4043697653352396,
      0.722863164027127,
      -1.098877934466052,
      -3.530547806181117,
      1.5515483344313998,
      0.8639261303159191,
      1.3619556368139634,
      -1.0224474077585965,
      0.16675963084689616,
      -1.265055597964416,
      -1.189797592709339,
      -1.122990993664523,
      -0.8490507715347837,
      -1.031170184937466,
      -0.9806113267781842,
      -1.2841648804564945,
      1.772804644907096,
      -0.9150377963915041,
      -0.8750046787382585,
      1.9293509407197127,
      1.2098070263843308,
      0.9714254520120054,
      -0.924262334898829,
      1.3421600303466739,
      1.063356989180349,
      -0.9918263540291195,
      0.8620690070700107,
      -2.0089635005387714,
      -0.0008726784715662461,
      -0.9299705849941683,
      -0.3379824565410243,
      0.35728410837793045,
      -1.3912425968643505,
      2.4201099455199184,
      -1.327408402285142,
      0.09294559003831193,
      -1.29906602135152,
      -1.219833789941075,
      -2.948650606977269,
      -0.10712270027537052,
      -1.8658006630454809,
      2.8615004681669656,
      -2.3595041269346115,
      2.434502133781619,
      0.7055170953620958,
      0.6090934851928821,
      0.6871875440233475,
      1.520933985844966,
      0.756476400369684,
      -3.578866453993747,
      0.25503326549096805,
      -1.8533441065434801,
      0.32461223813515716,
      -1.2927825120933458,
      -1.7170655649328688,
      0.7015557107995947,
      -1.8690803252971435,
      1.5949674291326366,
      -3.273558454202037,
      3.4080294264862476,
      1.9224771181634641,
      3.433900501614069,
      0.36030420227401383,
      0.8808036498082223,
      -1.3364745267698526,
      0.774473504764278,
      -2.1245861589043944,
      -0.056070286182147155,
      -1.2948158856297913,
      -0.6033521341805277,
      -1.1914970175068262,
      0.38080048577658254,
      -1.0392278023175614,
      0.10430047595978348,
      1.0801055456307376,
      2.1089774288803174,
      -1.1728375792839356,
      0.9988470532564164,
      -1.646200062902086,
      -1.1453006147244413,
      -1.0832672806050494,
      -1.0276085449066714,
      -0.9773898374721073,
      0.34443876899455106,
      -0.36872096695586276,
      2.6060033511279985,
      -1.1193943102199653,
      -0.440876711973189,
      -1.050742468276641,
      2.773712146324426,
      0.2675035390999412,
      1.927935173963096,
      -3.2669402404194603,
      4.498138924793797,
      0.2958516013931667,
      -1.2519873274699231,
      1.5311177389775164,
      1.2162867972916045,
      -1.1467570618823282,
      1.8720988496867044,
      -1.0586697993866623,
      0.749170507458899,
      -1.072580387930439,
      -4.0413133381660815,
      -1.1024967833999126,
      1.3788144885279237,
      -1.2250285896945197,
      -1.1543245602875776,
      -1.0913367212438054,
      -1.0348672876144254,
      1.7406778858743543,
      1.4992839920261458,
      -1.0832923702539514,
      -0.5068299130686232,
      -1.4227352777519766,
      0.1865707126729088,
      3.3265471962424065,
      0.6161455700831568,
      2.8802956175639336,
      -2.0000292932617647,
      -1.4072285166649479,
      -1.5285553830705967,
      0.18261752118661767,
      -0.518106410500593,
      -1.2543898072122839,
      -1.180358334057306,
      -1.114578247865929,
      4.384524865955237,
      2.4762348793990903,
      -0.5445631461551246,
      -1.115085910844996,
      -0.06830752173986021,
      -1.075270911830015,
      -1.0204100496059973,
      1.363758616187357,
      0.5787300867277546,
      1.1515973990573427,
      -1.0149104723973608,
      0.4202975299016857,
      -1.3625575566547274,
      -0.7092045107509665,
      -0.5511067884310772,
      0.40759841633490157,
      -0.3370121186315459,
      -0.6541435023807322,
      0.6698098896816932,
      2.1756928339459747,
      2.2826404969915854,
      -2.0280012238002887,
      -1.1323743258015497,
      1.1323912742031386,
      -1.2832040797893278,
      -0.3868489429319436,
      -0.8307782193997018,
      -0.7848500856482671,
      -1.453898157899478,
      2.0375711619400767,
      0.03470385614796623,
      -0.6528812141933594,
      -1.2181791164317926,
      -1.1482409586112028,
      2.278739639842943,
      -2.7526869817789814,
      -1.1834741742197519,
      1.0641100758259359,
      -1.1687061460017683,
      1.8780873157282623,
      0.1940864256808792,
      -0.5095526253375007,
      2.0494090557994102,
      -1.3718077129061301,
      -1.1975339405450036,
      -1.1298804322274993,
      -1.2962488320936634,
      5.349380256438301,
      -1.5385454416212287,
      -1.2551399311482125,
      -0.20977615840648278,
      -2.2573899448381796,
      0.5828703861030211,
      3.11196458589028,
      -0.8385813566747926,
      -1.4242231731691086,
      1.330207177840778,
      0.2673445015070096,
      0.6631594779254841,
      1.577387176793802,
      -1.3060677480260932,
      -1.3586997310897155,
      2.0932011483411985,
      -0.09660524698675421,
      -2.7005107256533463,
      0.6654643163915424,
      -1.47789225368707,
      0.12040202949996492,
      -1.236436471238679,
      -1.0250723513801572,
      -2.183725640009325,
      2.1435087380979967,
      0.8979764508251169,
      -1.4144169029030886,
      0.929519885745291,
      -0.28573125981419645,
      0.8498283976235916,
      -1.353476481137311,
      1.3774244739488053,
      2.681351124580326,
      -3.5055296214758442,
      1.0357768343774576,
      0.12725356517719866,
      -0.6375105306652008,
      1.9533529251346344,
      -1.234557985362121,
      1.6798084080299271,
      -1.1842011754332424,
      0.05041069016666577,
      -1.178736946785143,
      -1.1131324306514614,
      -0.926360023052029,
      0.10977488945434932,
      1.952747909227031,
      1.0780483391186917,
      -1.0951999332510214,
      -1.1245220435672152,
      0.031731269054431355,
      -1.3081761655081658,
      3.0836537478443464,
      -1.240472980291994,
      -1.4038175950948992,
      -1.136916872907825,
      0.58249450724093,
      1.8399475604804523,
      1.1550489875211831,
      0.23786775803285842,
      0.40294334512980257,
      -0.05682913285664648,
      0.8941815717334803,
      -0.46152406185437844,
      0.3262975533607607,
      1.105803094678731,
      0.19081259578364496,
      -0.5129614939592055,
      -4.970860158521129,
      -1.2055647857365637,
      -1.1370268115164366,
      -0.8034609347143578,
      -1.0484930530019256,
      -0.9962642459597744,
      0.7685085374354257,
      0.771832593662847,
      3.3514514350079176,
      -1.4902357130539028,
      2.5194876149295693,
      1.0752592891031119,
      -1.7024317650208423,
      1.3431047172858,
      -2.844753738769268,
      0.9880159258614027,
      0.06280370270146429,
      0.31047242238566974,
      -2.1257595115924883,
      3.3638965502137816,
      -3.5440101981031153,
      -1.5238575988124174,
      0.5276110700049677,
      4.464625756172596,
      -1.6204601488348862,
      -0.7221941309219854,
      -1.3805997638653373,
      2.1957118532193243,
      -1.3744039441816756,
      -0.02176715819926356,
      0.7667069500647256,
      -1.6148534068943445,
      -0.6527109536808464,
      -4.129139553522995,
      -0.32460039094059967,
      -0.13201334416826482,
      2.0970525467651284,
      -1.4779798254463605,
      0.5519931293986073,
      -4.689485595016857,
      -1.3603424173175855,
      6.980130627330988,
      -1.6509227502964736,
      -1.5250368488556607,
      1.063848946546336,
      0.1899932935802744,
      1.5511344135606082,
      1.6967298414304115,
      -0.4319177682961791,
      -2.907414122050245,
      -3.1192781897467916,
      2.816998069961361,
      -1.837437166008091,
      -1.4890958424414533,
      -1.5768083646258004,
      -0.6271321022648249,
      1.3247551644127764,
      -2.5136126786977657,
      3.9262057786984585,
      -0.23102467115084435,
      1.0547794341076058,
      -0.22216117210773745,
      1.4391562870000132,
      -0.464864607286236,
      1.2206130665595218,
      -4.2126648660647135,
      -0.8002918748637919,
      0.731282745702548,
      0.5197676179024869,
      0.36860194698547044,
      -1.3060159942062537,
      2.6799500874023163,
      -0.5441110806394778,
      -2.436711836542568,
      2.157745472585766,
      -0.17277607799397354,
      -3.5464996523608288,
      1.5708765420376585,
      1.7355541218675228,
      1.2601926698232782,
      0.38825689017950926,
      -0.05112210039721421,
      -0.2003299267360512,
      0.2518180534494965,
      -1.3844916588904523,
      -2.58739601940145,
      5.0373593724050325,
      -1.6295305263786928,
      -1.2784279166114183,
      -1.2016187677223924,
      -0.47715938472417674,
      0.37351960503950765,
      1.703873102338559,
      -0.33372526869132135,
      -0.2319624487753278,
      -1.393451786089963,
      1.570495813720622,
      1.7872378587890094,
      -0.7381321845721879,
      -1.1445193466195438,
      -2.022410920449915,
      0.5188924125086943,
      1.2494327511170136,
      -0.44655154963551563,
      1.8401120318799038,
      -3.2650894494963563,
      2.7911305731147147,
      0.04826571467784646,
      1.1395368430034867,
      -0.5589796126370002,
      -1.5458970745467595,
      -1.2463406517791804,
      -1.4160928976046758,
      0.9781137953181406,
      2.7130061008605084,
      -1.3055531769269122,
      2.6476037694816545,
      -2.384396672689407,
      0.3031017616059822,
      0.26627701633917944,
      -0.8654863943720362,
      -3.78300375213069,
      -1.8552633194453112,
      -0.44318891147101,
      3.749070560989262,
      1.642511445935079,
      0.6284103616173906,
      -1.3131287323415566,
      0.36877564896865445,
      0.4256148193125573,
      -1.758161519498429,
      1.953342458190533,
      -1.1030706822882355,
      0.5938571027332773,
      -1.1982278327474418,
      1.0032961578201618,
      0.5766391091944383,
      -1.5151313057246867,
      1.6096404952291066,
      -3.864172510902116,
      -0.022407939335414462,
      -0.1604568019091488,
      -1.9189866642578353,
      2.7301843640724814,
      -0.4333863279629221,
      -0.9142284048452459,
      -1.2931895394779072,
      -1.676407988848609,
      -1.155912637340408,
      -1.0927561076237475,
      0.06370750854731583,
      -0.3608809781886394,
      1.855930668136771,
      -0.7957491200246136,
      2.8081014583753823,
      -1.4549078066202439,
      0.9950610971029293,
      0.13122592399282806,
      0.10601187734116135,
      -1.3868620494344366,
      0.2842487608933375,
      1.167186927580147,
      1.805100303257881,
      -1.2559732928488594,
      -0.3720743481234081,
      -0.66913382513324,
      -1.1668838962149337,
      -1.1025561456626085,
      -1.2690402097771438,
      2.7563781652584254,
      -1.2429072522657068,
      2.6104469700777924,
      0.3692984803069649,
      0.7826898038465133,
      1.5595354405152473,
      0.1587166712368071,
      -0.37721913003052376,
      1.304393357807262,
      -1.2884401673677268,
      1.1331652118687525,
      0.9755728219427386,
      -0.7508030495744591,
      0.05035034969779473,
      -1.1292907671221535,
      -0.6709093982351568,
      -1.8770804638173835,
      -1.1551228914346638,
      -0.9760862405636942,
      -0.10335493038682086,
      -0.9241419531146498,
      -1.1080232373586156,
      1.3380574666137137,
      2.539609913655471,
      0.1945050969045944,
      -1.0893558689171674,
      -1.0330859564304944,
      0.5496735273276595,
      -1.0352717961282365,
      1.448818441237139,
      0.13754947980131965,
      0.6379993698025817,
      -1.0593108810658276,
      -0.2881846284114617,
      -1.0523424640359613,
      0.5935461177487507,
      0.8573587906251536,
      0.7296223688372598,
      -1.1098597918056023,
      1.7400432470291398,
      0.6410251517639192,
      2.1774874177692105,
      0.5795372259931936,
      -2.9830228006388446,
      -1.1493026985040302,
      -0.6822560683394997,
      -1.5821255063886839,
      -0.31320975922469474,
      -1.1392493046530845,
      -1.0778521869291902,
      1.6892774530605148,
      -0.8989742420055769,
      0.9493504073978825,
      -1.8961079210016851,
      0.7579336849847764,
      1.6095688008396676,
      -1.5331598163516702,
      3.0061940296788396,
      1.4442646581233272,
      -1.1605417136800336,
      0.5944028725825741,
      -1.0425752225287943,
      -1.6682482997255383,
      1.5841404058690118,
      -1.4988409662749036,
      -0.1919970587995632,
      -1.1713506055131306,
      -1.1065431085044755,
      -1.0485308776676132,
      -0.3510037514946548,
      1.8996880471470494,
      1.010632353993772,
      0.4692564725143915,
      -1.0819064683178141,
      0.8730769360584307,
      -1.015655525399293,
      -0.966570397170607,
      -0.9220109716189382,
      1.2753688643871208,
      -0.20777052437203036,
      0.17376178693124422,
      -1.8894460099579042,
      -2.306937291006932,
      2.4593436498276127,
      -0.9570505036906158,
      2.4450369889404295,
      -2.7620601590820844,
      -2.2407931853963925,
      -1.4847305134724333,
      0.4557228413434944,
      -1.3184700912822525,
      -0.04527226553640862,
      -1.3993462441261106,
      1.4240783932321395,
      -1.7261802849395531,
      2.3232055777100165,
      0.0036507265891655982,
      -1.4653257930743202,
      -1.365295646756128,
      -1.278049851805743,
      2.1814400210521523,
      1.0427211924779303,
      -0.5468583689503497,
      2.500409751191802,
      3.4544751232732556,
      1.7122420027481053,
      -2.9411670005018578,
      -0.5925861620015964,
      -1.6437378628031,
      2.564675740016199,
      -1.247119502631834,
      -1.5654266527221912,
      -3.88401163266157,
      -2.8858809576666262,
      3.795896246776774,
      0.6523474868695771,
      -2.0470382400987246,
      3.330496030499574,
      -4.0384960315712854,
      2.5277112348366866,
      -1.6657691310595797,
      -1.5376967427125112,
      3.0198711190075516,
      -1.6907400450926913,
      1.7452256541271363,
      -3.4434212978545653,
      2.9205313610164465,
      2.3016528456571415,
      1.793354507438582,
      -0.4088170711700263,
      2.7238177296222412,
      -4.091486067593969,
      2.5367895675271264,
      -2.410243230680678,
      -2.523000923504006,
      1.55516937232733,
      1.5119481581225482,
      -1.7502004720854696,
      1.3583349567443013,
      -2.2453498391309634,
      -0.5321981530714534,
      -0.604137894946144,
      -1.361059926988217,
      -0.860815536703402,
      2.4175077372195086,
      -1.4930189018336706,
      -1.878287145298317,
      0.09357497879643484,
      -1.4415461719274427,
      1.7513532270296295,
      -1.3156801617904015,
      -3.133176223307493,
      3.479196431812238,
      0.1393458359064168,
      0.46406523573710895,
      2.0283961785122613,
      0.9152316727169095,
      -2.5327212439832514,
      -1.921160294133712,
      2.0666401049248604,
      6.01955861994302,
      -1.931584100265211,
      -1.388603408149638,
      0.9917645295433106,
      0.8005294277883239,
      -2.27962807447704,
      -0.9422210846032903,
      -1.4137458207990596,
      -0.6128010451759965,
      1.7230157971900997,
      1.0500871071796842,
      0.10366225829074172,
      -1.3676228894128082,
      -1.7149883753783293,
      1.9696493424517652,
      -0.02422287839215098,
      1.756949831824317,
      1.6050809859244746,
      -0.7571491610972317,
      -1.2353432724725568,
      -1.1634785052652634,
      -3.0084731027525615,
      -1.3644075552346093,
      -1.5819978435348712,
      -1.1820555126574679,
      0.8416569603472531,
      -0.6933362570868622,
      2.218597325466017,
      0.29489555231363285,
      0.5573661632257556,
      2.5063152225547864,
      -0.020622972091534186,
      -3.5633713690136744,
      1.648753221553021,
      -2.8812838953851103,
      1.9809802345913055,
      0.5526706842873674,
      -2.061191345997854,
      2.4476109243237145,
      -0.11527255812729154,
      3.841493182940435,
      -2.967690478837756,
      3.286556800780786,
      -4.41435284576418,
      -3.011117046463242,
      -2.290831172717602,
      -1.0143834834046062,
      0.8680481657763796,
      1.441283453771375,
      2.245209187074658,
      2.662622191552171,
      -0.9441618618208815,
      0.9312080066179766,
      2.9732458836722593,
      -4.117678892163798,
      -1.2394570807141911,
      0.08926520286733453,
      0.0043539327121006055,
      -1.8183356733791145,
      2.44822182123013,
      0.008346955947447054,
      0.5049204935777435,
      -0.33200845490042896,
      1.2077127508637664,
      0.26971388412554465,
      -1.7659510779207839,
      -0.4342635016759955,
      -1.7849281880375867,
      -1.4600439055914007,
      1.6808323763142068,
      2.5099119109175114,
      0.6024014532585165,
      0.4935152842536408,
      0.7561940528274746,
      -3.6828776739175915,
      1.215685400223676,
      0.49044438030324944,
      -0.33265392858552256,
      -4.429855122642979,
      -0.8026400735686609,
      -1.5861903930608106,
      -1.2744292929477294,
      -0.5566885012721263,
      1.2266402246780517,
      -1.2289753735882971,
      -1.4992096215246198,
      -0.7275991598769951,
      -1.304420605720241,
      2.6070112703694477,
      1.8923946422821762,
      -2.271904586462518,
      2.4792023573483624,
      -1.3626697455636632,
      1.5335200434363163,
      -1.357431088997103,
      1.7270268281968768,
      -2.7656484342836007,
      -2.2656413253096783,
      -1.2464934204140068,
      0.06148211515200419,
      -0.11149260490550572,
      0.7385462508582117,
      0.3915500947717392,
      -2.621205185957313,
      2.7503166488164457,
      6.286585870551044,
      -1.4457694062847088,
      1.4188651988680223,
      -0.8529492176975588,
      -1.7059544568316793,
      -0.6138761600597992,
      1.3585930586529726,
      -2.615259820369459,
      2.135622289204507,
      -3.8930238689499514,
      -1.370014996475454,
      1.8238778130982953,
      -3.0926281198175563,
      -1.5975841250016052,
      0.7805736131863897,
      2.5347258086829374,
      1.8550751556437657,
      -2.8506908303326624,
      2.8203144464763694,
      1.5882142188670645,
      -4.233641403543926,
      2.198087005522053,
      -0.33113804438129013,
      -2.6303179937041508,
      -1.6756966520040346,
      -2.566098934783239,
      -1.6063587252840459,
      3.450052720775538,
      2.925551436353049,
      2.3600679304082055,
      0.9580142682197853,
      -0.05122166951806062,
      1.1709477917460533,
      -0.9382313143386117,
      -0.41287481684881155,
      -3.6101143781882863,
      2.2586639245442366,
      -1.5189971062346999,
      1.0259260501596388,
      1.2185686480923534,
      -4.220860906033437,
      -0.32159834917106533,
      -2.5910057717612185,
      2.719727404972312,
      -2.2270019637636236,
      -2.0427840462744467,
      -1.6467125865809806,
      3.0731063708302786,
      -0.7733490731289859,
      1.2438524900028676,
      -1.1661122746826729,
      0.8237333999902935,
      -0.3223568910972204,
      -0.3084247025625608,
      2.3127206595285728,
      -0.9677990324690833,
      3.144257120240829,
      -1.937651070654785,
      -3.0983381716596146,
      -2.8844977961793274,
      1.4761234931833669,
      0.7142451645932785,
      -1.5261669266670737,
      -1.362534698910245,
      -1.2756301797649052,
      0.13469766552031548,
      3.140217022159738,
      -1.0577426042243374,
      2.0275352774470985,
      -2.5926447807534716,
      1.4470694718852175,
      -1.3497873529533537,
      1.5863049392864,
      -1.3512681027829443,
      -0.2982430383434289,
      3.21167052569579,
      -1.2790586251054734,
      -0.11909307765111216,
      -1.3355462196231247,
      1.2931204829620586,
      -0.6640783423775123,
      1.8768439167925617,
      -0.995540802945341,
      0.27004751911893254,
      -0.517031943763659,
      -0.4157755348387753,
      -0.36343181743603037,
      1.5059342630986676,
      -2.863367128474626,
      -1.305671933067473,
      0.16664851703793393,
      -1.5165535808319213,
      3.968919766895235,
      1.2442419762544379,
      2.4398834158717255,
      -1.20959927091973,
      -4.494063173006968,
      0.17672924172776405,
      0.13831043499338924,
      -2.143465314096963,
      -0.5494821837912931,
      0.46792209907308835,
      -0.5976970836776302,
      -0.7372730465286828,
      0.7062799283267596,
      1.8438143353558258,
      2.6632820773320414,
      -0.7167700071408923,
      0.6234919865716926,
      -3.3726566643540123,
      1.6492361409422998,
      -1.2477828475270103,
      0.23939685209022243,
      -0.6795133333999014,
      1.3367611879655,
      1.715821337807974,
      -1.1432150828948617,
      -1.0814013653200147,
      -3.720915966986944,
      1.5921808509999396,
      -3.877285709638014,
      3.384260185760073,
      1.010372633621442,
      -1.5508701376204117,
      0.5846122963651337,
      -1.5728860025195097,
      -1.5084796935093738,
      0.5930406314886394,
      0.028046313986524685,
      -0.17815372111424432,
      -0.5856114150351034,
      2.0945686755343935,
      0.08582000871832463,
      1.6968780794391114,
      -2.8483002071580694,
      0.13699169944192946,
      3.528847954840766,
      1.1190585427883437,
      -0.4323626297937412,
      -1.248289929533895,
      -1.378441826210814,
      -1.7971440031508479,
      -1.0581900281186714,
      -0.007293314210553348,
      0.8047227935028027,
      0.6318355289402775,
      -1.1339788931236823,
      0.5432699854656935,
      0.42509707552130505,
      -1.311313269392161,
      -2.269354629148192,
      1.095085493938101,
      0.32059163298013327,
      -2.478483336079949,
      2.3196476387653098,
      1.7742356063420646,
      -0.8184721707460231,
      -1.2208101848002957,
      -1.1505782994795537,
      1.7944626910709685,
      -1.0618729412119334,
      -0.1077836944400995,
      1.1311100707072244,
      1.4847681433028057,
      0.6146241848475388,
      0.6518510809394944,
      1.5442485397125416,
      -1.061625011721764,
      -1.0081131072563685,
      -0.9597369379243854,
      -0.915791014712446,
      -0.4822189162068831,
      1.4323579677600364,
      0.621633379698308,
      -0.8996228407439999,
      -0.2802331576605106,
      1.0176829406675663,
      0.056572262405837015,
      1.9488409080372762,
      -1.0481402955422807,
      -0.9030024669349539,
      0.8413433253614474,
      -0.997767587622633,
      0.361774366605049,
      -1.2048940529579026,
      -1.1364301561222185,
      -1.075328376389093,
      1.4842916535071589,
      -1.0086726987752868,
      1.3160444605365118,
      1.1274009615171319,
      -1.4400070415387192,
      2.9047503390090013,
      0.8006030426559089,
      -0.5841795600463972,
      -0.3194544540841119,
      -1.798657017696659,
      -1.0809780691574489,
      1.1037505480176906,
      -0.2564281093111679,
      -0.4642125665102248,
      1.2126431342631578,
      -1.0946689345522527,
      -1.0378631093462927,
      0.8219364228652023,
      -1.0646414951557777,
      0.14445591493379428,
      -1.0044323412518275,
      2.0641673431152054,
      -0.1940902948203398,
      -0.7975901159846117,
      0.5210845088242488,
      -0.42929887391014976,
      1.3257187528120782,
      0.1382473630979254,
      -1.0686348519350461,
      -0.8174670887251275,
      -0.9848666220657813,
      1.9391565734020444,
      0.1633867595252957,
      -0.46489899897883447,
      0.4956072925143278,
      0.8497556057181622,
      -0.6191002022242634,
      0.9410163864935648,
      0.7343352221086396,
      -0.978327739663979,
      -0.330130718417206,
      -1.1671455401553654,
      -0.2543035650069445,
      1.0553147373310294,
      -1.0918847556666478,
      1.1951564598834494,
      -0.632550504701488,
      -0.26597125613762973,
      -1.102141807916899,
      -0.3485788427017392,
      -1.0363322361415492,
      0.5276433415177044,
      -0.981154835132803,
      -0.9352724793678809,
      0.8139608282212778,
      -0.3659050139030058,
      0.715503340390123,
      0.1978517969321708,
      -1.224407598978342,
      -0.547815961903694,
      -0.47985149788610704,
      0.0966361662194623,
      1.6244793141101717,
      -1.3706978341573293,
      -1.2827824760747943,
      1.9357175565412994,
      0.7837166342718195,
      0.8216463650567949,
      -1.1542287797705657,
      -2.9210504031800704,
      0.699791471273449,
      1.5733200604605835,
      0.35781276562207387,
      -0.07933340333679773,
      1.1871366583274086,
      0.08936128440335844,
      0.3189710419914219,
      -1.1306480921688356,
      -0.9656784706357453,
      -1.0263468551834922,
      1.4636534967488746,
      0.1186090496808806,
      1.6014404196441774,
      -0.19947751636769084,
      -1.0988878397363169,
      -0.321259168345409,
      0.5675064911153783,
      -1.2895771050520244,
      2.4490982458812027,
      -1.9956071479657551,
      -1.1161546061971144,
      -0.30686318120204004,
      -1.2101893580605436,
      -1.1411396076015072,
      -3.4883084280175187,
      0.8688572781525147,
      2.1844829112766164,
      0.30364201906304217,
      1.296471552654357,
      0.7800500124583691,
      -2.687155260857536,
      -1.6079205712768014,
      -1.5478312546652377,
      2.0378947585911833,
      3.701249917680039,
      0.4918381062979189,
      0.833777470729146,
      0.8994813802051479,
      -4.186371959871128,
      0.6583854117456844,
      0.9207168545363345,
      -3.144401794976945,
      -1.3614484325710765,
      -0.28136569175733395,
      2.10174652552241,
      -0.12780740128263368,
      -1.3015462032754197,
      0.2956505707205621,
      -1.1230397252641424,
      -0.24191625649763315,
      1.2766769465581487,
      -1.1941953878610299,
      -1.237369529229804,
      2.0003203048095055,
      -1.1924790974849264,
      1.276606780997208,
      -1.0284183019726103,
      2.2291867316668696,
      0.41465856842673343,
      -2.3578034193848034,
      0.6585730073733953,
      3.2008283939368525,
      -2.510274624280016,
      -0.5116428795336245,
      1.3746524332229118,
      -4.679425832286778,
      -1.8791004980549064,
      -1.2954624701936177,
      -1.2166558693025082,
      3.1866842706514595,
      -3.517558883321578,
      -1.5116221203162623,
      0.17987784001141685,
      1.9614897922652972,
      -1.6468997618573107,
      2.2593294185554122,
      0.3101288456691321,
      -2.538876051398387,
      1.4875118845893112,
      2.1241062612279373,
      -1.3351908623805813,
      0.4298274189787341,
      -1.2089315418329112,
      -0.4651515584116402,
      -0.25381445976063116,
      2.624592659791378,
      -1.180742158221676,
      -1.1149204776692399,
      -0.6724793473616412,
      0.077215664153685,
      -3.147726015946543,
      -1.5836991391908652,
      -1.2681480908821068,
      1.71164814327877,
      2.032221734856716,
      0.5452932454069241,
      0.6681164324808052,
      1.5206434832227222,
      -3.1756064616667277,
      -1.3815791291261075,
      -2.4691217260022036,
      3.138473808441658,
      -1.4318864478651223,
      2.414527278127512,
      -1.0800126045417968,
      -0.657959143981481,
      -2.023210794523082,
      -1.8373440761201187,
      3.506268670029798,
      2.378170217874347,
      0.5132721141459138,
      -2.794251455050545,
      -1.3480762987373809,
      0.0560425976592005,
      -2.131398441934954,
      2.1651884013852,
      1.1374636426476803,
      0.8835658963845878,
      -3.8410768492050105,
      -1.2685898367875332,
      -1.1929233169876623,
      -1.1257751459247227,
      -0.08983804387062849,
      -0.8732754908912187,
      -2.130446189463171,
      2.1088197521406817,
      -1.264294952934121,
      0.7562539971844175,
      0.7476150160787285,
      2.925718857617543,
      -1.2167615502371842,
      -1.683809574247376,
      6.514474488425879,
      -5.739923117842634,
      -1.5387346468691152,
      0.11859532758444558,
      3.306100205134296,
      -0.6534721687658456,
      -0.31882232882180594,
      2.2121039503537085,
      0.5535185397639063,
      2.06709715048398,
      -0.20722026928645354,
      -1.8411569749825052,
      -2.5369494162726838,
      0.320521831534053,
      1.7964191893382113,
      -0.011324164620009514,
      -0.5934651144935446,
      -0.16716326643529023,
      1.5434575704549278,
      -3.2193122217504815,
      0.8326713698763253,
      -1.5011048583289153,
      -1.1452658204328237,
      2.238507470905355,
      -1.842591281204129,
      2.4542679150391122,
      0.20461457456541987,
      -5.255046192548722,
      -0.039134289768763875,
      0.451421865095911,
      -0.8731654904506343,
      1.459786930740868,
      2.4149108967245683,
      0.0572235117253298,
      3.602222046413173,
      -1.2247926340367865,
      -3.492156972828531,
      0.6602904445622944,
      -0.3532808502817091,
      -1.5534545831030466,
      -1.591383799027998,
      0.34790620979658804,
      4.9709360192233305,
      1.6501694666774267,
      -1.3722520967395375,
      1.562997840138559,
      -2.415977284463061,
      -3.881252914186207,
      -2.7205440462111063,
      -1.3084761298202983,
      0.17777601059409925,
      5.09580452076685,
      0.930398395512837,
      1.4637443511932446,
      -1.1055533616491688,
      -1.329493363749758,
      -1.9614239443079595,
      2.8583327676495665,
      -4.735408520799538,
      1.3102585801443971,
      -2.1400568439553744,
      4.1509540325905645,
      -0.35956206972958815,
      0.23396122210375425,
      -3.1560130760642084,
      1.9107271251211955,
      1.8092244702940237,
      -1.597227112125221,
      -0.6311295962240502,
      2.760356482219586,
      -3.698990813636254,
      0.011069631311382944,
      1.2948452073872536,
      0.6877144277456442,
      -1.1468329841962661,
      -0.7505944910425578,
      -0.07249097803804039,
      -0.4559212569181985,
      -1.8526863036495667,
      1.100625490174416,
      -2.986563848259735,
      -0.9932960840628164,
      -1.2517738793777462,
      -0.09282154826163536,
      1.2965467015311858,
      -2.829716303826432,
      0.5510066708273325,
      -0.41578468372408645,
      0.9546521412328297,
      1.9221942637592417,
      -1.0723271984219274,
      -1.333455269315772,
      -3.1535426716411363,
      2.4918393268638273,
      -2.9218924747876143,
      3.5478764703968526,
      -0.8603343069606744,
      -1.5382427381138468,
      -1.3632845025945797,
      -0.4048959118053343,
      -1.1867174727377867,
      -1.2996352178046122,
      1.8572092758984184,
      -0.3301019080839913,
      3.6735138962515848,
      -1.2439799949184005,
      1.8617422454756656,
      1.79437087027341,
      -1.380124576671129,
      -0.1595351491857735,
      1.6097680777501764,
      0.7352550732940881,
      2.311038877989156,
      -1.2376592262336354,
      -1.7104961150921305,
      0.6647116248101073,
      -3.007920129658942,
      -3.4826608172107503,
      2.51839116042124,
      3.4273465855483503,
      -3.2998932222109394,
      -3.5457808494325875,
      -1.7383709346124017,
      2.9273476025917446,
      1.9654155698970424,
      3.1728681703359327,
      -2.1044865648090156,
      -1.7721185588139647,
      -1.6278788433260312,
      -1.505352286387867,
      -3.2627866882103684,
      3.2044313524907926,
      -1.1092832813326552,
      -2.0384655456632026,
      -0.771038182126362,
      -1.6316058054758924,
      -0.03949448757380941,
      6.120465815758805,
      -1.5997806713075509,
      -1.2088863808838843,
      -1.4744833293904915,
      1.5115275658516742,
      0.4548323535965172,
      -0.9009053145374064,
      -1.8728149848700641,
      -2.6174821368271117,
      -0.9695959349029091,
      2.8946170046626594,
      1.3258724895886687,
      0.24808604828118308,
      1.4541940886797222,
      -1.4721261198989763,
      1.4803832032285587,
      -0.8748192427299433,
      1.855874959474738,
      -1.5168973846382159,
      -4.417460454923,
      1.954298066824674,
      -2.263733423908916,
      -0.18294080313330574,
      2.528630925088723,
      -1.9726325306556773,
      -1.2139274389365204,
      -0.09689629273630368,
      2.9360549402277116,
      -1.8645574345367462,
      -1.3843679850526576,
      -1.4967781659793034,
      -1.3312817718959156,
      -1.2481966964122022,
      0.6707547422873028,
      5.5149833941639494,
      0.7013392565244652,
      -1.3179838247191813,
      -0.2365461955856717,
      -0.042846868857047915,
      -0.10120006403139514,
      -1.2591815336516707,
      -1.1846001988914596,
      -1.1183597403489793,
      3.4346200767880286,
      -0.6366080990626721,
      -1.2216472478118756,
      -1.9181912367667757,
      -0.4028400926235791,
      2.486321683369201,
      0.6791895902132595,
      -1.3288457953327333,
      1.063271728982198,
      -2.0415214031665143,
      -2.420233031013847,
      -1.605184642142663,
      2.0784760252273413,
      3.1136135923283748,
      0.2731348498809536,
      -0.14034760856646145,
      1.1032586128473878,
      0.1793419611884215,
      -1.240822742367843,
      0.32172304710956756,
      2.683590494779521,
      -0.3041451101864334,
      -1.3194798234899312,
      -0.5092945187813684,
      -2.5215294835918884,
      -2.1936688393134682,
      3.051832054711895,
      -1.2327155139445,
      1.267995087076335,
      1.6496792249046608,
      -5.127377470235023,
      -1.3094890553167298,
      -1.0730440058677686,
      -0.10952477447919573,
      -1.0074257387779617,
      1.9765445452325614,
      3.463213467701914,
      -3.04231678319243,
      -0.34628851635676106,
      -2.505911526633836,
      -0.3300911487829534,
      -1.6745066288987112,
      0.04555585588823596,
      -0.2601904628288221,
      -1.4711314419896078,
      0.845261944199927,
      0.7444834094791646,
      -2.828303204881853,
      0.3421641400047952,
      2.7645513397635635,
      -2.1251819053500767,
      -0.3887071861728987,
      3.0165723970049028,
      1.5893473430618492,
      0.7221657742050351,
      -3.0629080525834613,
      0.44557839498540586,
      -1.1875557815723963,
      1.68653691567294,
      -1.3312770952617463,
      -0.6352602156275097,
      -1.7155623716551622,
      1.2452056879068316,
      1.0813690749145946,
      -1.3579563359639588,
      0.5484273446491608,
      2.0736623547801813,
      0.5792009869207229,
      0.8852896214110382,
      -1.5221837722215183,
      -1.1608266680231352,
