{
  "config": {
    "device": "cpu",
    "random_seed": 42,
    "experiment_name": "graph_refactor_ppo_corrected",
    "data_path": "data_builder/dataset/graph_features",
    "discriminator_path": "results/discriminator_pretraining/pretrained_discriminator.pt",
    "results_dir": "results/ppo_training",
    "max_episode_steps": 10,
    "num_actions": 7,
    "reward_weights": {
      "hub_weight": 5.0,
      "step_valid": 0.01,
      "step_invalid": -0.1,
      "time_penalty": -0.02,
      "early_stop_penalty": -0.5,
      "cycle_penalty": -0.2,
      "duplicate_penalty": -0.1,
      "adversarial_weight": 0.5,
      "patience": 15,
      "node_penalty": 1.0,
      "edge_penalty": 0.02,
      "cap_exceeded_penalty": -0.8,
      "success_threshold": 0.03,
      "success_bonus": 2.0
    },
    "node_dim": 7,
    "global_features_dim": 4,
    "shared_encoder": true,
    "num_episodes": 5000,
    "warmup_episodes": 1000,
    "adversarial_start_episode": 1001,
    "gamma": 0.95,
    "gae_lambda": 0.95,
    "lr": 0.0001,
    "clip_eps": 0.2,
    "ppo_epochs": 4,
    "target_kl": 0.05,
    "max_grad_norm": 0.5,
    "value_loss_coef": 0.3,
    "entropy_coef": 0.02,
    "rollout_episodes": 32,
    "minibatch_size": 128,
    "min_mb_before_kl": 2,
    "hidden_dim": 256,
    "num_layers": 3,
    "dropout": 0.3,
    "normalize_rewards": true,
    "reward_clip": 5.0,
    "log_every": 50,
    "eval_every": 200,
    "save_every": 500,
    "num_eval_episodes": 50,
    "early_stopping_patience": 300,
    "min_improvement": 0.01,
    "use_cyclic_lr": true,
    "base_lr": 0.0001,
    "max_lr": 0.0002,
    "clr_step_size_up": 96,
    "clr_step_size_down": 96,
    "clr_mode": "triangular2",
    "use_curriculum": true,
    "curriculum_bins": [
      20,
      30,
      45,
      66
    ],
    "curriculum_episodes_per_stage": 600,
    "curriculum_mix_back_ratio": 0.1,
    "sampling_without_replacement": true,
    "coverage_log_every": 100
  },
  "training_stats": {
    "episode_rewards": [
      0.0,
      0.0,
      4.066439134800208,
      5.0310664663298725,
      -0.22724019970427312,
      0.2897798872066797,
      2.1705278483946007,
      3.9807965928509317,
      4.956062948909839,
      3.28259655282265,
      -3.1047703074180664,
      3.6837914315844977,
      1.624911024740287,
      -6.597070515109691,
      -1.6243022828301656,
      -1.1791276484343158,
      -0.7210201578527367,
      0.11800232509569292,
      2.8403669172089305,
      3.0229546526716704,
      -1.8582799817225477,
      1.9328192865764335,
      2.722118149724963,
      -1.0960151704114371,
      -2.256849698835539,
      -1.255437919498217,
      3.193236954237415,
      -1.2818163826189308,
      0.37274086759422964,
      -3.168838956068601,
      3.931483230750675,
      -1.2130070275058062,
      1.2418831431244772,
      3.0111612650443003,
      -2.0567949285559144,
      -1.4253606899872575,
      -0.0783188003025197,
      -2.6400352844592874,
      -1.2255838567209114,
      -1.154817568264762,
      -4.246267899637088,
      4.548421512198917,
      3.33884426016225,
      3.295418184854837,
      -1.987875555631042,
      -2.39522690822163,
      1.852800260937359,
      1.8964157099439483,
      1.0660537814943911,
      -2.0966668213315938,
      2.5215229905744234,
      0.9300008989155073,
      0.9824979704456616,
      2.7436227345117663,
      -1.336755322144101,
      1.976182858728408,
      -2.596945295105839,
      -1.166302169813725,
      -2.0726405764368385,
      2.377788455667965,
      -1.1777896019308607,
      1.874435563840306,
      -2.0269764890485606,
      2.279892775220979,
      1.7100041906586505,
      -3.9410994759802978,
      2.6649817688106556,
      2.4775414615152997,
      -5.475365525883397,
      -2.353333287916131,
      2.8980765573443397,
      -2.53345031350113,
      1.254605603378211,
      -3.3340068879357196,
      2.7240621298389245,
      -3.259285230256363,
      -1.7017754030771255,
      1.071458688760492,
      1.3699247132670465,
      0.44633191357019353,
      2.256030299036282,
      -4.4326571320703,
      -1.759687182781279,
      0.9516932187195393,
      0.050177097346528976,
      -1.5419695690378434,
      4.016646322702474,
      3.159407296377999,
      -5.902485010565642,
      -0.7297995677230236,
      3.3265811538343653,
      -1.3875834393054958,
      -2.896265477870466,
      -0.3826388956316835,
      -2.1825801742087143,
      -1.087799479141411,
      -1.0316860990805483,
      -1.7167988609228677,
      3.8977724332409664,
      3.545079106520344,
      -1.1672995302136533,
      4.086135464621695,
      3.13610484959571,
      1.42296146300051,
      -6.129633644788289,
      -1.2105841650644376,
      1.7755318849046422,
      2.458874520203011,
      1.0467184140055612,
      -1.3896340576892814,
      -1.174769740425158,
      -4.879755522830582,
      -1.4823844212899868,
      2.3893765337885986,
      -2.683441496238551,
      -1.1499897907346839,
      0.3543843057626621,
      3.1098847330117936,
      3.1263423105272112,
      2.736895284530423,
      -1.5445745557395114,
      -1.399943671437843,
      2.2153890237220963,
      -4.086921303954484,
      0.9224436956870083,
      1.812278821469441,
      0.4433109915777811,
      -1.2692526282904055,
      -1.5332577266465113,
      -1.622136508932119,
      2.2899321588779737,
      -3.910129754073801,
      -1.070536595596174,
      -2.8492417528376235,
      5.296329746410459,
      -0.04313784257580355,
      3.3077430901251255,
      -1.2254984226655639,
      -2.832070040855661,
      0.8317965823486322,
      2.004958425401867,
      -1.2549970935534331,
      3.527495949056778,
      -5.386260852826033,
      -1.0558789874785854,
      2.943732362061533,
      -1.1320039061337306,
      -3.487746016337318,
      3.493612079607165,
      1.9760992438632814,
      0.43101535167217486,
      -1.1479269566485149,
      3.018503024807813,
      0.9931811859801655,
      1.6252501053590747,
      1.1429742382905346,
      2.377380992499133,
      -2.2942182339627504,
      -3.321097439156643,
      0.846550260059999,
      -1.0891913647401996,
      1.5425368338594798,
      -1.0778761921591968,
      1.2191243609160738,
      -1.181603644393814,
      -1.1292122274453331,
      0.6732645729671061,
      2.6191314491797137,
      2.4110961057199494,
      -6.571981642162491,
      0.2823752247690823,
      -0.42581271720632907,
      2.0208628354805755,
      0.5256357980317339,
      -2.1837354262701436,
      2.062688248939523,
      2.491874581718723,
      -4.717757195650603,
      -1.0734339653609861,
      2.0831351547154484,
      0.8282294476235355,
      -1.2274049469186277,
      -1.1719575379855682,
      2.5122615885001425,
      1.96490218560739,
      1.8865708592230521,
      -1.939266816400257,
      2.476497148685112,
      1.1719563767144325,
      -1.1340695271160877,
      -4.671661495975425,
      0.7030199785100084,
      -4.187892460946361,
      2.1473058757649492,
      1.6736580729930024,
      2.222724405331476,
      -0.4182665543451125,
      -0.07602447389707523,
      -1.231959372489917,
      -1.7965260692645453,
      -1.6752120324532744,
      -2.2104219888357233,
      -0.14743466670929406,
      -4.64824678269094,
      4.356030085675983,
      3.9342995775463288,
      -0.33578648085600404,
      3.0525175208493955,
      0.3810757475787989,
      2.6017817062209536,
      -5.443923157783143,
      1.9831473967042108,
      -2.2770370667183766,
      1.562027154239786,
      0.1299003779599106,
      -3.04127150055712,
      -1.0549935342526922,
      2.836388882836591,
      -2.2973220245104304,
      2.792860874685198,
      -1.108633640331359,
      -1.8280931267940184,
      -1.3080801192197469,
      -0.1865552860208637,
      3.173436808233796,
      -3.7131142345830934,
      1.640406917806588,
      1.4966061393488874,
      -0.8973396164517236,
      1.2097529880873925,
      1.3094080271123671,
      1.7765058431336782,
      0.48494023441278944,
      -1.2929580560500071,
      -0.3101211993294153,
      2.0490111813549605,
      1.1137172879238033,
      1.5098128739112915,
      1.3266724502350777,
      -2.469536831561708,
      -2.5606995743770233,
      -3.5323991639502497,
      0.7709544814432032,
      1.2112543524758177,
      -1.9275713452939518,
      -2.9034710544351574,
      -1.7386098830388153,
      -1.798913567279401,
      -1.0185570040843377,
      -1.344393050203588,
      1.2986816742834153,
      3.1416541348418563,
      -4.51652104889838,
      -0.6451981405862287,
      1.8219473731939635,
      -1.7339213702514376,
      -3.170026511069426,
      4.117998860369989,
      -1.4245817987167237,
      4.368038741650784,
      -2.562877950538002,
      -2.108181249681518,
      -2.717120575098879,
      4.674943102868138,
      -2.1347922356918376,
      3.8876955415727017,
      4.887647783742373,
      -2.8759247123533416,
      2.140843554380235,
      -1.1817384470812184,
      -2.3607525409300694,
      -1.1702952674628626,
      2.1457166707367668,
      2.123163008302307,
      1.713914282055098,
      2.877925013394386,
      -1.580257362270554,
      -1.201571723699266,
      2.7073734129797042,
      0.843154605601176,
      -4.0016774718212105,
      2.662370037669114,
      1.3887373648690964,
      -5.1481237040432335,
      0.22179932559702698,
      -0.7938740667766149,
      1.6049954251252463,
      3.004020905057656,
      1.6698127611970035,
      1.5295533609174328,
      1.28220842225052,
      1.0321644504783962,
      -0.16557088349314952,
      -2.133858833251941,
      1.6804980800614373,
      -2.5857753410269595,
      0.39528797938492555,
      -2.2318928529071815,
      1.6034489667258944,
      1.992888000755339,
      -2.381587615078246,
      -2.844563922458757,
      1.7155046351134637,
      -0.31678032088818386,
      -1.0783511740119918,
      -1.0231836115734867,
      -0.973385982330681,
      2.5390802406060935,
      0.6925107711016363,
      2.10109907285977,
      0.4328382332130618,
      -1.2094393453369967,
      0.9246112748106929,
      -1.1704472355392976,
      -1.7805843633593963,
      1.3726271489810695,
      1.3167406656638168,
      -1.1073421042512661,
      1.1104731086526565,
      -1.019225185267398,
      -1.084731997500998,
      1.6853820433432167,
      0.24719142915278802,
      1.1958663129909324,
      -5.321026103813288,
      0.9631350539107421,
      1.4721954202034426,
      0.6095396474916113,
      1.0812751749193894,
      1.7634932036178737,
      -0.988054849915366,
      -2.2426363802065996,
      0.5924941754275674,
      0.641855912801422,
      0.5800476296992582,
      -0.03960889676322521,
      -2.4038407705183045,
      0.06003362510486032,
      -5.102363788475972,
      0.9173591540132215,
      2.3567674237176157,
      2.1626935488913,
      1.193485178649464,
      1.04039455943522,
      1.0924840480792735,
      0.1031024129921777,
      1.675135686341168,
      0.6640773567943643,
      -0.4533778124082608,
      -2.1138426480380663,
      0.41177435231799164,
      -0.3801075938333549,
      0.08756045883352093,
      0.42242874984537615,
      -2.1039354733575304,
      1.1659697862663263,
      -1.128715301295698,
      -1.068418297279514,
      -1.01423683752992,
      0.8479220720569919,
      -5.472818072375907,
      -3.2642291767019285,
      1.6660139345032228,
      2.95559668295718,
      3.074841067316089,
      1.2796175115879247,
      -2.0559256918790934,
      2.295308694047116,
      -6.582256941607368,
      2.540144812747662,
      -1.114551418165363,
      2.019324948950446,
      1.3959599061021015,
      1.7351726567875485,
      1.3227139786999609,
      0.629683606414405,
      -7.178871439172774,
      -1.1574434746034203,
      1.619834563069906,
      1.8777767017507168,
      1.9348369731078654,
      -1.2160059264767535,
      0.24686703341653882,
      2.0915428313420694,
      -5.536027668824189,
      2.4065104991060506,
      0.03911435858976753,
      1.5295490037195032,
      0.9528095242174395,
      1.6968385874621208,
      1.133881096990133,
      -4.673118527104997,
      -1.1727813123052937,
      -1.3237693678833877,
      -3.2780897850739747,
      1.4000053995639807,
      2.4737108291050625,
      -2.7132386162084776,
      -1.0665961300693851,
      3.1213979348191265,
      1.4067192076030508,
      0.43999165316579647,
      1.5100898436127166,
      0.8272912356907416,
      -0.31698646477286907,
      -4.170289639237395,
      1.429637431676862,
      0.7342218340077175,
      1.6236734241550053,
      1.8047997963553732,
      0.7938725537391564,
      2.0574906957684336,
      0.31768816779571796,
      0.7876213265181959,
      -1.3812586176844552,
      -6.100631533872497,
      1.2473678988212096,
      2.3728930333046416,
      -4.127499621834814,
      1.6184029758994583,
      1.5552137194061035,
      -5.265108955078757,
      1.1363424989963355,
      0.7202005759297632,
      1.171577594540833,
      -2.2444232203388017,
      -0.22768674861274807,
      2.465111498941093,
      -1.7803408258526114,
      1.536810614435981,
      -4.869791386755649,
      1.7772677596759203,
      1.7214262113614907,
      -6.240507766612077,
      1.9211266841267802,
      1.5985532075284896,
      2.41245923530847,
      1.5912612239238453,
      2.247189487596586,
      0.5641731910643021,
      0.15673535736990274,
      1.2788569101780582,
      -2.539976365694767,
      -0.5725178020434771,
      1.0022779514473517,
      1.0215822734791824,
      1.5780171915228896,
      -8.446767843828372,
      1.5093655712817933,
      2.781324368098132,
      -1.2109886629216822,
      1.9957291046504162,
      0.6209653306994013,
      0.2856068688948664,
      -0.6471693062008455,
      -1.2617060401070825,
      1.364473999469653,
      1.9330896678449057,
      1.3817701410133016,
      1.2974844108219055,
      0.7229253218648181,
      1.0675418047477263,
      -2.3347181190307205,
      1.8853770033459771,
      -1.4339655980729347,
      1.7499817577284968,
      0.9290617699666289,
      -8.743805390114666,
      -4.964795203237573,
      -1.0283682095813405,
      2.478842841749418,
      -1.0235802821866118,
      -0.9737449744027631,
      -0.9285370596344736,
      2.0208250656490323,
      1.244525628427972,
      2.1447410665919,
      -1.6639974480469357,
      1.394454729165139,
      -4.667994324612261,
      2.523415552408265,
      0.055921851231750086,
      1.188724816635481,
      -0.8895873568453543,
      2.024768510596838,
      -6.391148019087609,
      2.1213196150682654,
      -0.568354376328247,
      1.833826022461118,
      0.36354439848907316,
      2.738063094740354,
      -5.0350226585282085,
      -1.1141854799654438,
      2.484781282117284,
      1.8889782243826323,
      1.539922963818044,
      1.338012671834518,
      1.5304056104673955,
      -6.025939516621583,
      1.6176405173522963,
      1.3552010121551086,
      -1.347620770404498,
      2.1281786932712974,
      -4.847772540585802,
      1.9682501488998507,
      2.7548115531159594,
      1.9157645203810911,
      -5.0255521769050295,
      1.740279641122414,
      -3.2532464232006006,
      2.850846532599439,
      1.7508436814513544,
      1.6251948705879338,
      -1.3897679521377588,
      1.6074710582994076,
      -6.409142377968695,
      2.6673309562770875,
      1.13764660605305,
      1.504292027915379,
      2.2166463125591065,
      0.6529831930302961,
      -2.6280016599029565,
      -1.3431022770357801,
      1.1824413838127799,
      1.2527318421037354,
      1.7403079942142408,
      0.171443849396554,
      0.5683193209674997,
      1.072285703907423,
      0.016720391003168578,
      1.7597621249357684,
      1.3173846191533707,
      1.7663836664044046,
      -2.18973491749321,
      0.4685464563240135,
      -8.62011414278207,
      1.105430180569697,
      1.1898720694995848,
      -6.6208674231738245,
      0.6909698606973048,
      1.0475902103069028,
      1.5580368544680572,
      1.5542948578061986,
      1.6520583575768193,
      1.82976854634889,
      1.208628111461885,
      1.3074077187438877,
      1.7852130025945723,
      0.9331601163626884,
      -2.2162455159684082,
      1.3140845026748238,
      1.2530885270740708,
      1.3232665921533453,
      -0.6723431187310897,
      1.3170665288008723,
      0.7753473539286572,
      -0.4948939668586979,
      0.5403578703738207,
      0.6847873736938469,
      -9.0512411970875,
      1.829070849477083,
      1.1545930638557815,
      -0.20092619815859536,
      1.1219771156602347,
      0.6374471630708859,
      0.7367012728586325,
      0.8485749079846225,
      0.8019339316833761,
      -0.03872703881769057,
      1.206229481708795,
      0.18435260141274185,
      -2.8480061935218153,
      1.2195338144291985,
      0.23410682304419017,
      -0.8193827490680728,
      1.1553606759530253,
      1.2897567154374963,
      0.906435471362317,
      0.4406907975661337,
      0.17062088252054752,
      -3.28472109373316,
      1.5654003433419446,
      1.4517702601567914,
      0.8095335988206531,
      0.3831210036178267,
      1.3517870978291535,
      0.3003029564958678,
      0.5662176288096016,
      -0.07586091596020443,
      0.07543164396680141,
      1.054919651560919,
      0.2457568289242352,
      -12.847189988822755,
      0.778917120884199,
      1.4253178572500533,
      0.6290219119604544,
      0.47639552142511127,
      -0.004256354989037758,
      1.043076267111502,
      1.2683000521459211,
      1.3112224934605547,
      -2.916633025639096,
      0.7536755834957316,
      0.7258302804557604,
      0.20161788841320943,
      1.2237229724652758,
      0.2597635666908167,
      1.2743369658238861,
      0.026961398040220356,
      1.1598000587759236,
      1.0926529137900716,
      -11.680091818720694,
      1.1954155220874747,
      1.1209338765568722,
      0.8786624532435492,
      1.3145718701466593,
      1.3157695516296888,
      -1.5305428513443617,
      0.25894586942461656,
      -1.3877373042435368,
      0.8209121619365555,
      -0.18695391568131392,
      1.334096157306973,
      1.2529162603412478,
      -2.700266158937876,
      0.9229976493707938,
      0.5147846394942152,
      1.1463544805170367,
      0.3508459755240369,
      0.6877081390255746,
      -9.095995269091329,
      -6.398351527429759,
      2.0146420725238823,
      1.8018964411501672,
      2.1506502779043037,
      1.06783592875198,
      0.46058360928322095,
      1.1758770549963558,
      1.4688058942531328,
      0.3733825298030241,
      0.8452647539046279,
      0.6869354190933116,
      1.5208130500121386,
      -1.5561198561889313,
      -8.286072092395512,
      0.8336928545324724,
      -5.800611409135671,
      -3.7332772497651647,
      2.0630397012225865,
      2.408050118783023,
      1.1002107648318133,
      1.4183314082009584,
      -6.534568501610544,
      2.5792608529245373,
      1.5224865585968843,
      1.6571221910045477,
      2.0584198313038966,
      1.0953330838197843,
      0.9035852726205249,
      -0.6834513327738966,
      0.5531160065763081,
      0.7346151815638813,
      0.9475905491803369,
      2.124634960284354,
      1.6873766344923313,
      -8.797338264206552,
      -1.0790060862060222,
      1.918836461291489,
      0.7970781035838775,
      1.6053841228660508,
      0.35267025445058797,
      0.6431484139230715,
      1.0545294324170114,
      -6.778915211876971,
      2.1931206611176943,
      1.518062591737597,
      0.9026252572396103,
      1.6702233355733698,
      0.8572735430931081,
      -7.181999457693113,
      1.923730245645527,
      -5.50186257083988,
      1.7784451576931382,
      -1.1081498310451445,
      0.6332986287494443,
      -0.030556603463768872,
      -4.54157884529894,
      1.6232942952130656,
      2.7576100476415832,
      1.1444792246029096,
      1.7403436175390625,
      1.571639867969612,
      -6.024140842541575,
      -4.231557087769261,
      -3.5165043805730467,
      3.0632294178578934,
      1.3195985510985717,
      1.6327505240595477,
      2.233579566097968,
      1.7667447748278604,
      3.040982249513538,
      2.0582620385082904,
      -0.5902589018308682,
      1.4682377788899021,
      2.460873825878508,
      -5.080628825759744,
      0.8744752757140671,
      1.1657918581129525,
      0.8039039595587183,
      1.3576046854164063,
      1.4575971157185925,
      1.7677644637633585,
      -0.6965316251321239,
      -7.839252030215583,
      0.8563091375997606,
      1.4536773282182258,
      0.7696477466479198,
      0.9227705329845977,
      0.9425870352605726,
      1.1883032010762287,
      1.2192805118588566,
      1.6491446662387468,
      0.7845292306768701,
      0.9941673950649406,
      -9.12081053435602,
      1.8232556094127266,
      -0.3992993151092409,
      -7.403082727101065,
      1.8609163937546842,
      -1.1702477615510205,
      1.150176944879122,
      -1.1512209356346437,
      1.276313625648893,
      -3.832715868323063,
      1.9538796736770476,
      2.4536607521986165,
      -5.250468200096607,
      2.6738811493484884,
      2.3585562010633714,
      2.095173484421374,
      1.1466555095231323,
      1.9516450334777224,
      1.3919861454829392,
      0.7811687882766001,
      1.281483001211517,
      1.4958288758238076,
      -8.122439690467605,
      1.8409838309336959,
      -0.015817939846924478,
      2.1837023728548375,
      -3.9694591333468763,
      1.54890340390079,
      -1.236366451052226,
      0.9668384690233763,
      2.214143338080567,
      1.6086591603200113,
      0.66299851130112,
      1.3995381492793575,
      0.5612531674442108,
      1.2873255891521276,
      -2.550520572954592,
      0.8975233550100227,
      1.5198118046528253,
      -1.3895492305766128,
      1.6584965008762087,
      0.6951468375405209,
      -8.608809761748098,
      0.9159389241259095,
      1.6204120702447709,
      1.1619663744418036,
      1.4367115198286553,
      -1.241236265839996,
      1.0499665163330003,
      -1.2146895786650234,
      -1.1451400918791665,
      1.340248545369448,
      0.43390624702764463,
      0.5347413139236075,
      0.8501684050589302,
      1.2456421616370996,
      -8.135658144487312,
      2.125461929638629,
      -1.8871625611917555,
      2.2083672509489434,
      -1.1626891380815259,
      1.8044948202775888,
      -1.1395770810499823,
      1.2144729006053032,
      0.5465737886058358,
      1.6343478905199957,
      -1.3794381695704878,
      -6.672939334226012,
      1.3708042385426324,
      1.8130636619931977,
      1.2300738289861743,
      1.588574707929187,
      1.9888230440261425,
      -0.5080022972607741,
      -1.3126588090757452,
      -1.1770891033390856,
      1.217975122275881,
      1.3991699999494536,
      0.8944254015989526,
      0.39174432533261877,
      -0.593947801917173,
      0.3630924677202739,
      1.470069253094372,
      0.4753322286356989,
      1.542941432036439,
      -1.480787401017332,
      0.8412491845423173,
      1.1560339120714267,
      1.1270548280131059,
      0.3959939067620672,
      0.5671285061520412,
      1.173948150745356,
      1.5055726949610142,
      -0.017979118068072317,
      -1.3080343657068205,
      -10.363177473559187,
      0.9738992227328074,
      0.9391947723821753,
      0.48026688605108603,
      0.42552924174644335,
      1.2770063833665501,
      0.4130566328321005,
      1.1889372979307857,
      -1.6257096192638687,
      0.9709242115895851,
      1.4557712587260279,
      0.10037386878248733,
      0.5678086094449974,
      0.7901964941203512,
      -5.10350073766688,
      -8.049402805611967,
      1.343172072398545,
      2.336312469435208,
      1.1553837336532544,
      1.5446758717413838,
      0.5202580043306765,
      0.4241983456614469,
      0.7573770825238182,
      0.3995768022511981,
      1.1571576843943356,
      1.501955507574914,
      0.7295411818898124,
      0.36744008998320987,
      -8.92687791208156,
      0.7961771347311961,
      1.9554762993083166,
      1.0218725382969636,
      -0.2730441889557029,
      -1.352662742937593,
      1.9800115948995793,
      -1.3958073906212682,
      1.3697904026277192,
      0.8605907264635789,
      0.8250900242030694,
      0.9351418785832665,
      0.6250898977135964,
      0.7379942591506774,
      1.7111320248467725,
      0.07522959832824438,
      -5.98227783998577,
      0.5702676760363466,
      1.110012754337011,
      -9.492473654883195,
      1.00755189242218,
      1.748914190430585,
      1.1839880433188321,
      -7.415678356064033,
      1.7844623753990934,
      1.9384220441562618,
      1.4757150455595105,
      0.6785749922934985,
      1.3628294145165174,
      1.5189230274192749,
      0.6731483369869188,
      0.9980000291719286,
      -1.4497330420890697,
      1.9178070124198092,
      0.19123894551753096,
      0.810388179192004,
      0.9554811418910967,
      -2.591269912294253,
      0.9579464351145011,
      -1.346433746447312,
      1.2291325990268136,
      1.2000548053542857,
      0.8771941839824897,
      1.1787205747404448,
      0.43357263777481786,
      1.0440888801093278,
      0.48827257564767024,
      0.5624336401564998,
      1.0715352100135505,
      0.6520275852159058,
      0.37770319915348355,
      0.633938204157992,
      -0.061746386549403,
      1.055579211481192,
      0.5938823900117689,
      0.3590787320411724,
      -0.012635901682040563,
      0.8971537703419479,
      0.5641218711228229,
      -0.602757256855764,
      0.3840197994492397,
      -2.4937337201253182,
      0.45651597642558994,
      0.4314731435724589,
      1.6671502365164605,
      0.24314199790359134,
      0.23998350294405,
      0.98029659677235,
      1.0523486637315564,
      -0.45200588855234886,
      -0.18509643996953626,
      0.9742564593429234,
      -0.5408794625556952,
      -0.23553363665348845,
      0.9470582069798588,
      0.9822836796116645,
      -0.16788461753003703,
      0.5088096889982839,
      0.9385908653647053,
      0.45066562592802467,
      0.9461442712735686,
      -0.32534503038576473,
      -0.2759059013325618,
      -17.430869625658307,
      1.2730629280829107,
      0.7415751084223428,
      -1.9036950706128992,
      -0.18126728097933964,
      0.17038816759782238,
      0.7175782695372448,
      -1.7340919641554289,
      1.189945351789096,
      0.9397970659449513,
      0.4452927018845381,
      1.6553642093467,
      0.06614279489154215,
      0.4901170522760455,
      0.5760240418580777,
      0.31475254193516083,
      -11.23864215431741,
      1.003124264279813,
      1.688166452832961,
      1.1084156532299319,
      0.7222094614770916,
      0.4408786767981927,
      0.9511661210733291,
      1.2970875607294432,
      0.6399780395256474,
      -10.200728901930086,
      1.554528534812879,
      1.5225148813511815,
      1.3655310528305704,
      0.6506400143587864,
      1.0341625030532529,
      0.9240339719793136,
      -3.7353308304234796,
      0.9269375094101823,
      0.3199276069061092,
      -1.4264169079586442,
      1.1342361665443441,
      1.017526190691537,
      0.9690489115384578,
      0.9203622315627039,
      -9.284795306175543,
      0.9870296285829185,
      1.5697161622251472,
      1.1904627297966137,
      1.8899901301899398,
      -2.800449778146249,
      1.9053841351824587,
      0.9178889902260365,
      -0.924755449759247,
      -1.0387552819184311,
      0.4727653653785463,
      1.6783217288223573,
      1.772339355428356,
      0.28253439664464597,
      0.23572159398731718,
      0.44833109138312077,
      0.6992730994341005,
      -9.35988855193106,
      -1.2044982458793414,
      1.4350354003118257,
      0.6415668296851952,
      1.0825761661157052,
      1.7749656816831485,
      1.0165936234814874,
      0.26760589875682816,
      -7.048804739957123,
      2.0058362596522503,
      1.2555109199422778,
      0.7635629645945934,
      1.5723621498066511,
      1.1047746385360209,
      0.37582633391757153,
      0.6353517278254412,
      -8.818461234531624,
      1.2171584569500973,
      -1.1712452211024267,
      1.501748693237689,
      1.0309019456318327,
      -5.8599478751452025,
      2.1498263997680205,
      0.9011761165543912,
      1.081767134571091,
      1.6638030483846291,
      0.69640789298043,
      0.9615121830243244,
      -5.327639294375041,
      2.56113849512192,
      0.7417852943221777,
      -7.275468275720664,
      1.8182409027343116,
      2.5009586847662697,
      2.0993290192329206,
      1.5041694290167607,
      0.6628913631987334,
      1.4970011534751175,
      1.3929709327554,
      1.0780925463642392,
      -7.675768531917507,
      1.8355577432097254,
      1.1692798361267664,
      0.5906631782219621,
      1.5399669926763468,
      0.7912980245407321,
      0.44640097385571775,
      -7.610526671291761,
      1.0083060350084563,
      1.9226090939188956,
      1.005287712864045,
      1.708909135251423,
      1.9617972032723843,
      0.8819833166310281,
      -8.326852501703797,
      1.786635153930256,
      1.3763668309528925,
      0.8126405479306332,
      1.6201463723608591,
      1.1498931698022163,
      1.081967432173584,
      1.2999448151046507,
      0.9545512835108803,
      0.41628278058292645,
      1.6631638164483478,
      0.6261026996760364,
      0.10702184182206599,
      0.6890841234025562,
      -9.83335417493886,
      1.7973355266226823,
      -1.3041293176523,
      0.9418167414105927,
      0.49738500631607296,
      0.45700900691522045,
      -1.3307916669730038,
      1.721347729911236,
      -1.3314501013511668,
      0.9412544935578046,
      0.8983372133040751,
      -0.34588716084559157,
      1.5108687646176946,
      -0.5702637147337304,
      1.094762602886748,
      1.3283317666487047,
      1.3333134572358825,
      0.7140367894718276,
      0.6983235061327233,
      -1.7407495936263597,
      -1.5517747183874342,
      -8.520395016240453,
      1.2299977427334436,
      1.0765257973110611,
      1.0944437654091868,
      -1.2933054250129612,
      1.263231165096316,
      -0.2451272705939579,
      0.5558992897057224,
      0.5846199230111819,
      1.6722510376120758,
      1.159031511942776,
      0.5143026655851933,
      2.595851467283031,
      1.1691578053927547,
      0.6586822760094716,
      0.6238002042724322,
      0.06084971519332125,
      0.3520704964986245,
      0.63440480934559,
      0.7515618475951016,
      -8.726444232307912,
      1.5011310006509182,
      0.3315960329791893,
      -1.0681719742485276,
      0.9711860293584587,
      2.156226650816672,
      0.9519730643819989,
      -1.229706802181723,
      -1.8116552097039882,
      1.201452805538205,
      1.43979521687252,
      1.3179956245820164,
      0.1412463652381681,
      0.9273613311589608,
      0.7566942560410773,
      0.619551860449406,
      0.20833118850706178,
      1.2862939481713354,
      0.13636744704321985,
      -13.618549816503881,
      -4.513318427448259,
      2.0236945632054835,
      -7.584194784832467,
      1.223573234487527,
      1.7953643514520317,
      -1.0117534661064511,
      1.181572413827373,
      2.2681299988200663,
      0.9182611804412483,
      1.672134901489357,
      -0.08383283354980842,
      0.7530825469739023,
      1.2391843191894687,
      -8.573065537464888,
      1.758183710025097,
      2.08786897191836,
      1.189522077601546,
      -3.855275525497042,
      1.7161438486413685,
      1.9461828250666686,
      1.5206590353018925,
      1.9732498945777948,
      2.0310200345930705,
      0.9659134774651864,
      -8.616270349493117,
      1.7962938220965992,
      1.674155742412588,
      0.8924258409992325,
      0.8632205672858748,
      0.24076397354924894,
      1.5581734047266789,
      1.3609209893168572,
      1.2530040738587855,
      0.47322163162241637,
      1.6785379130338631,
      0.16147817657891464,
      1.215022319492698,
      0.5988411944166981,
      -9.773465704651665,
      1.4806742501002974,
      0.9594864123919775,
      -7.76205548201522,
      1.0963217732081014,
      1.6399765857641655,
      -5.443612536122051,
      2.232304471603709,
      2.0987949751166632,
      -6.555560559929073,
      2.0995593018378025,
      -0.1277814809706218,
      -5.2941208975901475,
      3.080401345572623,
      -3.1162195253375518,
      2.124451971433046,
      2.0756431427482296,
      2.216789614670703,
      1.7542751986038005,
      2.8161171362254707,
      2.471474621829013,
      1.391153972104528,
      0.9767100838113483,
      -1.4156152852914143,
      1.679652427781456,
      1.1744792661582353,
      1.8758436294435448,
      -0.8082763485230706,
      1.0357745975719612,
      -8.290882991892962,
      -0.21850388186636083,
      1.319709548586155,
      0.9058214774332815,
      1.202642004474321,
      1.6620383947409263,
      1.2838693073880167,
      1.477981390252065,
      0.9133972627020943,
      1.0674136027725654,
      0.031485155012420885,
      -0.25626077877575537,
      0.4788481967971893,
      1.2025601200893512,
      -0.41354910059044203,
      1.2400185846720126,
      1.1676247642898763,
      -0.2916380109062553,
      1.6285375875691095,
      0.4800503640276815,
      -0.002912139948141961,
      0.356621648865007,
      0.2040655029683139,
      1.1296185035838837,
      0.5146912669945379,
      1.0676714820289928,
      1.0135638225987442,
      0.6195526874792577,
      1.26024034235564,
      0.9887536098900027,
      -0.29853767955883415,
      -1.7733116968346727,
      1.5508091914424786,
      0.20199611002697204,
      1.1952173017322787,
      -14.310656945186686,
      0.835771013354437,
      1.498730017060727,
      -1.4464420682962176,
      1.1985016938793271,
      0.8176320390625668,
      1.1026348243046318,
      1.1249139743878123,
      0.7225135818522128,
      -8.756221045300745,
      0.9015242638707556,
      0.6388554415295271,
      0.8486655554492283,
      -7.136610241327646,
      -6.615962816733312,
      1.8802848335516662,
      2.190714099787757,
      1.4421535341337415,
      1.6178986144807495,
      1.8812572001731271,
      1.2790664405613803,
      -1.3383290907213723,
      1.8368148756550362,
      1.682310250935749,
      0.9906059937884746,
      1.90855009468418,
      0.9924837686118398,
      0.7601574800882469,
      0.7581880654794496,
      -0.3068229943274057,
      -9.159823562586029,
      1.6891111653050401,
      1.2696185499907313,
      0.7651272071537636,
      0.4622374977802049,
      0.4806605875323446,
      1.4431243002652447,
      1.0942033995016556,
      1.0374446275866533,
      0.2467837477527769,
      -2.8163897060215737,
      -2.57838237773385,
      0.6243150762840927,
      0.7288145153638722,
      -5.905377313245163,
      1.3523081376539474,
      2.029985792556069,
      1.0978542764299197,
      0.509199112845032,
      1.0693307699493566,
      -1.4926861473083828,
      2.016293900130887,
      1.8296898731996476,
      0.4563069037836847,
      0.9481446832067124,
      0.2034710994517334,
      0.7593377440048016,
      0.9020662362492017,
      -9.81568943484294,
      -6.281899461507449,
      1.6242550694509303,
      0.9084413694061223,
      1.452912242310719,
      2.2653180241937934,
      1.2175494224446246,
      0.9443421292937021,
      -0.5721261405121458,
      1.1747294827134647,
      1.6001970049297498,
      1.1725853169057159,
      0.42672955582411437,
      0.3759909160010453,
      0.7836489014059238,
      1.4131120378499478,
      0.22957259103368527,
      0.9022118022442968,
      0.5681742290898601,
      1.0078360741557773,
      0.35395490039951505,
      0.636515864364204,
      1.3313727691882427,
      0.3715039917655028,
      0.6469103793742875,
      -0.7127082251058658,
      1.8030829478589898,
      1.1789903167242057,
      -0.10813660566188721,
      0.0731367645522302,
      1.4317367781019665,
      -13.980706021965897,
      0.6591035578306031,
      0.44693279295761074,
      1.4516351302388815,
      1.8504950947867491,
      0.9281706536495059,
      0.7226645131300936,
      -2.1067757717228335,
      0.7951487326870111,
      1.0962830265541004,
      0.9238646045874248,
      1.4545002507479339,
      1.0929129089303367,
      0.5574189370678796,
      0.3092453422014077,
      0.0980744576700948,
      0.3111816618537141,
      1.1193099682167096,
      0.710965391749087,
      -13.24202376448899,
      1.1820898367481147,
      0.8694805483889437,
      0.9226656676505678,
      1.0460487015221995,
      0.48352710239915414,
      0.9542373496050027,
      0.844956991790711,
      -9.747947533862797,
      1.7102319161111654,
      -3.7271796756283195,
      -6.063155624342071,
      2.2979874183625966,
      2.6149664714528704,
      1.907112278187097,
      -2.0219707194029413,
      0.7621649703898892,
      -2.469772997675985,
      2.355881295443029,
      1.4395560507371925,
      0.4794762260540272,
      -6.643116756806333,
      1.8748595987657979,
      1.826993591890641,
      1.868426161829083,
      1.477825675012243,
      1.6038308183230163,
      1.0416005285144896,
      0.6563455619286341,
      1.9186927451903182,
      1.2764882690296915,
      1.154499764106484,
      -8.907768584533517,
      1.313345981755439,
      1.9664717661716802,
      1.081175347457099,
      1.2929216616092407,
      0.7231747052388475,
      0.9305463421760007,
      -8.789021433026702,
      1.1932492066731895,
      2.029718211953657,
      0.636946226708761,
      -1.2242695025253703,
      0.7271285640095337,
      0.8102373722026822,
      -5.0755104411253225,
      0.9193479452812956,
      -5.507519893238693,
      1.5080902732626618,
      2.5356436325317144,
      1.2416766750719492,
      1.255648929537216,
      1.337880167451317,
      1.2547397130032754,
      1.1835480922873218,
      0.4369502559888325,
      0.49638149940154547,
      1.9159081400744755,
      1.3554205770381793,
      1.6567966293452672,
      1.0715580695352966,
      0.5038115717640334,
      0.49179010803724904,
      0.7286260384203522,
      0.5138639222951981,
      0.9994926699777623,
      0.3857163321434902,
      1.4834204281618288,
      0.5639519500594314,
      0.07038302546903256,
      0.36570112847403075,
      -0.0034652224000558673,
      1.523787044267894,
      0.7827607366225012,
      0.23235344474317732,
      1.4335084235123419,
      -0.4764251198045421,
      -0.06583808136883748,
      -2.530161606619801,
      0.3209374679806446,
      -0.010802115991010434,
      0.992289879163793,
      1.289727610650749,
      0.4699050541000646,
      1.2177552511480656,
      -0.13942056344361492,
      -0.39991758391378107,
      0.20094981090059078,
      -0.6299818137646035,
      0.9536852980768895,
      0.9146428052138391,
      0.8727098887267589,
      -0.5382506987864569,
      -0.2337934347657525,
      -0.325331739814189,
      -0.7783363834316375,
      -18.2465020219017,
      0.6701655448269752,
      1.3327877998444937,
      0.7894421310974296,
      0.15240989745416889,
      0.9965173730761838,
      -11.134875749027946,
      1.3966377687307694,
      2.7718622270465003,
      0.888486301856793,
      1.5452199435916278,
      0.9178219646074911,
      1.1586832286380169,
      0.6358217876616689,
      -7.690863548162452,
      0.8102084042548149,
      0.4640436342015071,
      1.4284981140390267,
      1.0616202591552863,
      0.8245372857624689,
      1.7483517181064052,
      0.49136076051217903,
      1.1455753914618356,
      0.8468396396723938,
      -10.787773681598246,
      1.0973514303196157,
      0.8384455999099049,
      0.7075901651524308,
      1.015536110314029,
      0.425235116307136,
      0.39054272246648525,
      0.5823584276368158,
      0.5754600455476275,
      1.643074357349439,
      0.22764265538091547,
      0.5938886969043146,
      0.7816361978000874,
      -10.578340238043312,
      0.9839461615047256,
      1.2166219858688527,
      1.2573394928659438,
      2.015248973831873,
      -1.3787016161253378,
      0.4401160298650915,
      -8.023785008812695,
      1.4427640859359168,
      1.152505730125821,
      0.9609157726696965,
      1.433819774582476,
      0.8347640500804313,
      2.0918565028430876,
      1.3726904675591898,
      -7.672508386773026,
      -5.081495745037089,
      2.78526155551343,
      -4.419421889778499,
      2.0452493250788084,
      1.070603605085723,
      -1.1254623453707013,
      2.209766504709268,
      1.0175641690815638,
      1.0540611524154724,
      1.0740292782515257,
      1.148970452612773,
      -7.304816162675046,
      2.367770756485106,
      1.3820140571381285,
      1.5282689775929519,
      1.0619536804772454,
      0.7805248376853026,
      1.1108759821351735,
      1.750904525020497,
      -7.465796262333359,
      1.2272531878554886,
      -5.254388793940451,
      3.0748237657361246,
      2.3031007822299587,
      2.6057357618098993,
      1.2236700266854035,
      1.8129993155566733,
      1.0236850660029773,
      0.84031500770409,
      0.4942478413283824,
      1.2070219817958963,
      1.4480698332463022,
      0.8764212683319338,
      0.6114395109857447,
      1.0035254584524065,
      0.5433360275851572,
      -9.317539002435893,
      1.1857276666342782,
      1.5898010622493726,
      -0.6362758227785804,
      1.2952497686095301,
      0.8002560805669483,
      0.4403400511824573,
      1.3475578725595967,
      -8.797994290384619,
      -6.059381391336186,
      1.9311814908654212,
      2.0452245168846526,
      1.064058665394705,
      -5.837124782105847,
      2.3235163948139936,
      1.0019652390359166,
      2.0379243664045297,
      -2.8017638011869055,
      1.3659202944268436,
      -4.8169626035867035,
      2.152951510211106,
      2.015799720415027,
      2.6271118884943214,
      2.075963143684262,
      0.614021764834047,
      1.0046842242972542,
      2.0849555567234095,
      1.1160989620703246,
      0.6821117336427539,
      -8.496913333317657,
      1.7291729683311918,
      -1.2152826914975308,
      0.7070952080769785,
      -5.94568384108958,
      2.1307180359627664,
      1.9552167734056214,
      1.4883809725081327,
      2.149229695858427,
      0.8514628580254371,
      1.4557949190815627,
      1.8129826888316365,
      1.448236616729271,
      -7.802497718353975,
      1.3846972048667783,
      1.506925072033824,
      0.8456764277777769,
      1.3777706528907272,
      1.0222316437633703,
      1.2404012493443184,
      0.7488194055257994,
      0.3987993122387371,
      1.1585195183280101,
      -1.5576311918820867,
      0.23724888504296682,
      0.588562371073562,
      1.121452490191185,
      0.8837050039274469,
      0.7841631460998049,
      0.2505410957478035,
      0.6013135430913428,
      0.7564558020941377,
      -11.199250170890593,
      1.572824040149005,
      0.9179479751852377,
      0.4436097074951328,
      1.3060003118944112,
      0.6159478368095981,
      -1.4302642906034801,
      1.2607261837554915,
      1.2064386677627992,
      0.7026890435235432,
      0.5984313274480256,
      0.09226235578090704,
      1.4538888488400696,
      -10.15326537224578,
      1.78171132713996,
      -7.0860106712469095,
      -5.326441981490797,
      2.446525971270438,
      1.251644934432199,
      -3.0137486318122653,
      -5.14515665795186,
      3.2155529580147237,
      3.3803291494653944,
      3.03323268829635,
      2.3762201006579184,
      1.5494799925587104,
      0.845672113001715,
      1.8078946429872453,
      1.0099142028331562,
      -7.098830881130825,
      2.1843527207270235,
      1.1053535827514678,
      0.865634133425984,
      1.3356570647530965,
      -1.3130594732658665,
      0.7928578283287279,
      0.7086895415315363,
      1.2568359373074731,
      1.051471726834687,
      1.9134232636604056,
      1.272704048694432,
      0.22355496213761636,
      0.4248895411650006,
      0.20590747391103822,
      1.556665482087733,
      -9.103347644409533,
      1.1537991436360477,
      1.5979550783786851,
      0.9786741847223968,
      0.5075599864515515,
      1.854263864093937,
      0.9310174290996778,
      1.6585650914496741,
      0.7826231309125509,
      -1.6439305972276117,
      0.5710398916440979,
      1.0532326574120927,
      1.0260686867453894,
      0.5347534661704862,
      0.4326470100504989,
      0.16858609826334794,
      0.983151801930593,
      1.4874385754945416,
      0.325831592809572,
      1.4232557908159083,
      -8.516707079512772,
      0.7529431559463097,
      0.45223773265839795,
      0.1909762610623848,
      1.1930749651222707,
      0.6416555958061806,
      1.0659806276674406,
      0.7442533947938644,
      0.5081648226074628,
      0.2767864780734218,
      0.7326762718287619,
      0.09115569484464588,
      -13.45249894428954,
      1.4956600048087618,
      1.4051232609004443,
      -8.641919779550353,
      1.2645787649569054,
      1.9735066182472851,
      1.5309507554151365,
      -7.263988084696307,
      1.1742549372939204,
      1.9238342229368561,
      0.7694792881332166,
      1.740726442007754,
      0.8294423171988577,
      1.292130547882049,
      0.7247550067289018,
      1.4846162075382792,
      1.0975213422447347,
      0.8547790220610426,
      0.5751774271157032,
      0.9441875480412584,
      0.6363837725553997,
      1.1971297859136198,
      0.6829259290605824,
      -10.129552293502403,
      1.5753712108863591,
      0.7214901244344333,
      1.0276091843989859,
      1.3765979933634227,
      1.3092106788150424,
      0.4900322914915717,
      0.9740225168067059,
      1.1718454367650544,
      0.46292350054618836,
      0.47810267644921867,
      1.170603229831484,
      0.2761672649128972,
      1.0794304285738825,
      0.06066603712602613,
      0.7992911127207682,
      0.763841272696753,
      0.5417765223123142,
      0.2002889900044312,
      -2.228403825103433,
      0.9290968875742751,
      -2.901176089497538,
      1.8009841827503592,
      -11.750758777136365,
      1.7957123872521124,
      0.9601115222588007,
      0.7264354005302446,
      -1.3966496753818156,
      1.469328660244324,
      0.42044006939591755,
      0.7246831183635263,
      -0.5085101408761131,
      1.0214179130923737,
      0.4944349421393525,
      -1.5159875696496778,
      0.8624919579223582,
      0.8016009465694329,
      -1.6595173068048086,
      0.35634683215451746,
      -8.704544721145577,
      1.3551896180369516,
      0.7190904046861032,
      1.7498659119197741,
      -1.3208128420580187,
      0.6666991999247001,
      1.913760131731573,
      1.2026064937080878,
      1.0821537514069652,
      1.3215516329857744,
      -9.063658285527913,
      -5.051005843963411,
      1.7805191466807146,
      2.6973727600759663,
      1.871377549809148,
      1.365779482231716,
      1.1708936325224026,
      1.0809295737177298,
      -2.9651368680278756,
      2.233564625553812,
      1.5251790169474333,
      -2.4438344496122992,
      1.7214287788024243,
      0.5142603560694196,
      1.7697428710736682,
      1.8594852433620241,
      0.9528571774283593,
      -0.9876339440770288,
      -1.5047283950743702,
      0.6029909524387689,
      1.2962976365698942,
      1.214512240341017,
      0.4766129940712708,
      -9.268346425554286,
      2.087558193704278,
      1.1632450983384577,
      -7.12056804294193,
      1.5491326324847827,
      0.8906675160430295,
      0.7090993540768422,
      1.3956553493793609,
      1.588298040505583,
      1.473907758254691,
      -0.5882010096816532,
      1.1101348113810685,
      1.4088906971821715,
      0.9678749648474704,
      0.7433577893201794,
      0.2198855364464026,
      0.760050315201483,
      1.1892747829842334,
      0.8310232408413956,
      0.6660612118390874,
      0.4482627682673537,
      0.5101570796804301,
      -11.408955748648333,
      1.2554844372438996,
      -6.578744499515686,
      1.6548778739987946,
      0.7981400064700559,
      -2.9797378853821646,
      1.7736487623125372,
      1.3560449653822821,
      1.5364408402737864,
      1.0299161767188452,
      1.6588549814096112,
      1.089530340199665,
      1.2068041526295057,
      1.434634928540856,
      1.0430423375663425,
      1.283017189359599,
      1.4638438799431448,
      -0.524993496316811,
      0.29080631298636317,
      0.3417927659458189,
      -1.7460400645950815,
      0.7644336197358649,
      1.2935058015550636,
      0.5053143501237812,
      -0.5515263994104147,
      -11.09639242290865,
      0.7290092908358315,
      1.3610126270914504,
      2.057792443908341,
      1.4754746169804087,
      1.2670057805834867,
      0.6420152182714007,
      0.5049780204961201,
      0.24077063053264017,
      0.7581414447565887,
      1.6857710675788704,
      1.1595881184822452,
      1.4934992227049486,
      -3.7467078390501256,
      0.6660171827657695,
      0.6280247560033757,
      0.47847656844022934,
      0.6286708245662084,
      -7.217222613445927,
      -1.2266447637063314,
      0.6256552521879204,
      1.9363774684190367,
      1.0996175441926164,
      0.8861795201275638,
      0.19847149885359106,
      1.2322847573511724,
      -1.7261690712498825,
      -9.829690405991677,
      1.4880741111475193,
      1.583444647187226,
      0.7378853998293092,
      0.7102738781106082,
      0.9294974460045332,
      1.4306278868541857,
      0.8886215227454831,
      0.8245642672517399,
      0.4781647603225174,
      0.7905262331622667,
      0.5003178022406867,
      1.2166218212276585,
      1.200428680429212,
      0.6486422560599666,
      1.2130992890092835,
      1.5776870874159805,
      0.8942209596901032,
      0.4224164774122936,
      0.9123049029362247,
      -0.07599359901929599,
      0.03841773155538486,
      0.6074187077618637,
      0.08280070305377107,
      0.9795145325011305,
      -1.3778480931163486,
      0.10327347008231541,
      -0.20278045170977857,
      -13.985636239349414,
      1.4008831787073837,
      0.7474212379334791,
      0.31459664733791204,
      0.8911629382652397,
      1.0293075908656732,
      1.2367959449365444,
      1.4859373635000535,
      0.08577087453062521,
      0.09478464626603109,
      0.313555970721499,
      1.240675998433368,
      0.4787804521491468,
      1.764150683532383,
      1.3496734446148282,
      1.0715828345636509,
      0.27964372584904196,
      0.2647886773570392,
      0.9808732078158288,
      -0.45692497052376746,
      0.3263840090075697,
      -0.10244071082957724,
      -0.1737461308477372,
      0.27462660630054375,
      1.064453289175566,
      -0.41686307097706693,
      0.14489087248677116,
      1.105310392317634,
      -16.392507330748543,
      0.5210718826786626,
      1.7074555385763006,
      0.4033138820852173,
      -9.073247467331441,
      0.7501357836685162,
      1.6408731359201434,
      1.105975364480564,
      1.021595291307314,
      0.7758438901809559,
      1.2476667391672067,
      1.3410881145072318,
      0.4784033488937033,
      1.295070788413757,
      0.9143859384673269,
      0.47403727596950074,
      0.33929646800809055,
      -0.9190095741013803,
      1.8785799025044325,
      1.118976473673055,
      0.6032943011149925,
      -0.014821866917731307,
      -12.041100946093685,
      1.2765316175014036,
      0.7886827492609274,
      1.4730946448667341,
      1.0790459315809962,
      0.5736700900920312,
      1.2695611389650963,
      0.5221961433861783,
      0.8022598136022889,
      0.8110423399423846,
      0.09862419283002914,
      0.4145548952017684,
      1.2480353172693976,
      0.016562010798835493,
      -11.995060361842365,
      -7.16586689993927,
      1.4397833387051826,
      1.54348469369906,
      1.8756870953847944,
      -1.1744873313984516,
      1.5692870935195993,
      0.8724504327777857,
      -6.819862600754828,
      1.4664065626901432,
      2.2844662965535085,
      2.1757303057051653,
      1.3822437273479016,
      1.8427980092637284,
      -7.405184702285029,
      2.3932910983308564,
      0.698474988952485,
      0.8715990975606126,
      1.7167123666720663,
      1.0318344507924184,
      -3.005161719886299,
      0.6539910345707671,
      0.9196923722474736,
      -7.219922972169926,
      2.094796190449074,
      2.40044192330797,
      0.6978290165326203,
      0.6458500357008374,
      -6.65113017459484,
      1.6460049046592125,
      1.7005474754187162,
      1.392724652853835,
      1.4747028702745513,
      0.9202007202847512,
      1.5939804220746436,
      -1.4704196745301406,
      2.125731659198922,
      0.6532191290395688,
      1.4338763972441855,
      1.8202488659867166,
      -1.438000274881762,
      1.7661087255235413,
      0.8780148895402622,
      1.365996648751956,
      -4.382433139711294,
      1.5112380273319335,
      -6.8019066836994355,
      1.5772205642005748,
      0.8016246716648171,
      1.1652922320946557,
      0.7075276473494602,
      1.1583998209077546,
      1.0685446793433993,
      1.2861074121334075,
      1.4918565525056113,
      0.5252513002398674,
      0.4439874918481596,
      1.1201136522401938,
      -1.802393181613404,
      -9.679148681550162,
      0.7500921151921501,
      0.5777600136626475,
      2.052856842706894,
      0.6295195781213384,
      1.388742615761018,
      0.7098384028724097,
      0.8694321153553988,
      -2.726671158434436,
      0.520800712050788,
      -0.060183279268067436,
      0.6910912076330431,
      0.40459865780595,
      1.3397206376179631,
      -8.771159846478742,
      1.7283749122653205,
      1.1402173935059496,
      0.8072766830364168,
      -7.411996630618898,
      1.9485385735030465,
      1.7751503333888452,
      -1.4757923687151817,
      2.3501424879584487,
      1.6186676004585316,
      -7.725727991521653,
      2.012398901782766,
      1.4188046726117147,
      0.9602479662854241,
      2.0313913215476327,
      -6.319791061684221,
      2.0282635665959767,
      2.0954976610678813,
      0.9974770781686246,
      1.3254812121202248,
      0.8468201996040032,
      0.8124214546831358,
      -4.394182448327548,
      2.197594599759096,
      1.51419943106511,
      1.136334347078271,
      0.9052091783190128,
      1.039422169296185,
      0.9834356039145927,
      -1.462848738503783,
      0.6940167324980627,
      0.29937093114112245,
      1.360157056230948,
      0.7481638196351784,
      0.695983320772838,
      1.643458913109135,
      -9.763470850638681,
      0.620520610472814,
      1.214881468238088,
      1.3749697780385537,
      0.905786447416958,
      0.7820223021269901,
      0.5750256945175779,
      0.7281010055385824,
      0.6510570718487133,
      0.22837513938815873,
      0.7124574545645778,
      1.2202870279530635,
      0.7152785288207171,
      0.45147766495843206,
      -11.355632655748622,
      1.581304181613974,
      0.5350668509686183,
      0.5211250149335449,
      1.6810057172780974,
      0.461257909839877,
      0.983980101165685,
      1.45317753214279,
      0.906369234051596,
      1.0083733353801594,
      -3.260154179693328,
      1.4669719295467987,
      1.052258508263016,
      1.0029375187101546,
      0.4024878292999489,
      0.5318616862280248,
      1.2905883295527627,
      0.04471978301268122,
      0.06580530574281422,
      1.4359868261332718,
      0.8717115631906002,
      -12.350238584855761,
      -1.4211999111366396,
      -6.8572229398492475,
      2.090503681131593,
      0.3304541831904271,
      1.5735757501928518,
      1.7506166293239558,
      1.612648929897022,
      1.2155853587955356,
      1.4215942557987458,
      0.8081572436670235,
      -8.589876011480877,
      0.8092203137461635,
      0.8030328930820886,
      1.2083623542399629,
      -6.000208008728255,
      2.297185138981626,
      2.4834062684915508,
      1.048890631093471,
      1.105217145642743,
      0.9137225223256271,
      1.2822184844873652,
      0.6997755875204235,
      0.6688227663957313,
      1.0840984936128222,
      1.9376664262166585,
      0.9788306590578316,
      0.41633185592419425,
      -8.935249565492855,
      1.724053506636762,
      -7.515441490090219,
      1.206676831942259,
      0.9968222240527469,
      1.2021284863760051,
      -5.781720130275253,
      1.8900357293065342,
      1.9130939062697105,
      1.566037332391006,
      -6.845456858090664,
      2.2076246622495113,
      1.3365674266708711,
      2.8404020452935574,
      2.5543550587502857,
      1.7553186702937986,
      1.1261323509164236,
      0.5316984977633684,
      1.1285962159558125,
      -8.735152661880525,
      -6.318301383549783,
      1.6912281429897524,
      2.1514273051789554,
      1.365389932044336,
      2.174520640164304,
      -5.954384188117215,
      1.9666380061808346,
      2.40589823256638,
      1.561669775504073,
      1.624051470143144,
      1.7541284395134487,
      1.1080552424406112,
      1.60607652033642,
      0.48127063712603024,
      0.8106001362216942,
      1.56992001872989,
      -8.477486042334673,
      2.060872742328747,
      1.6231334022664956,
      1.4608104311866887,
      1.950254746835023,
      -1.3814282006870797,
      1.1380912656780144,
      1.3698598078930384,
      1.2043587023219284,
      -8.159844715530843,
      -1.1016366384285727,
      1.4333089510484205,
      1.5519932350008636,
      1.0013467537721543,
      0.5391969209414971,
      0.5897812705293506,
      1.3390221219394929,
      -7.603809488721976,
      1.4765016715471528,
      1.25184590378535,
      1.5795976415929542,
      -1.2337757401298453,
      0.8832819296026386,
      1.7077602270228418,
      0.45950718799809276,
      1.332580524713908,
      0.8531391290723002,
      1.7010923831340419,
      1.2002352011863338,
      0.6382694006928409,
      0.3000979936887862,
      0.6287175016713391,
      0.21687756263761096,
      0.787547830760249,
      1.0618416585571568,
      1.511400463936159,
      0.9962585890334935,
      -11.558112076823672,
      1.4086137044777396,
      1.2412419484074069,
      0.2747408897047673,
      0.271017904691721,
      1.0103810795519148,
      0.3711736240749467,
      1.445441247414405,
      0.3339685039073723,
      0.4372813259846157,
      -10.328030214534916,
      1.0751222159719636,
      1.7822968057679294,
      1.4019421514096626,
      0.44740422145111586,
      0.3740188219648708,
      0.7543795010034859,
      1.812708903525745,
      0.6688260607184785,
      0.2237615425302312,
      0.26116455706432173,
      0.9444711267455743,
      0.49385296423632236,
      0.47953808053567587,
      0.3338143872018135,
      1.2472897082381427,
      1.7310210609808392,
      0.2957047474900153,
      -0.09249201811062077,
      1.0672221609503232,
      -1.6091964894581767,
      0.7939460846938646,
      0.8338855765451253,
      0.7305160971689285,
      0.22774326504014597,
      -2.0187388210481636,
      -7.9460843965398915,
      1.4271496944895903,
      1.3448677196803944,
      0.7577967131836197,
      2.487363086081052,
      0.7321364124734474,
      1.010719325189921,
      1.0545440489252238,
      0.27123498086004894,
      -4.439136697018814,
      1.3773210914993887,
      0.465441135886999,
      0.18159859919400212,
      1.3449865510757264,
      0.6701515806284837,
      -11.802562924169404,
      0.9485864720431986,
      1.3729544106084246,
      1.25730244569488,
      1.2071816119924548,
      1.1384649308885992,
      1.0796830858775701,
      0.5667486118182196,
      0.49089465530181026,
      0.34876276111321786,
      1.5435352317900957,
      0.13124967052839082,
      0.9431641971182092,
      -11.462998292905752,
      -0.22338919584413908,
      1.407987755781662,
      1.268328139184903,
      -7.505540647991524,
      1.7207950161812715,
      -6.035876913933391,
      2.0478292468321295,
      0.9030233008607765,
      1.5775650155240863,
      1.8441706500711175,
      0.8105323369117915,
      1.1261408392474672,
      0.5838324896242472,
      -8.250847832720295,
      1.793052529982441,
      1.188990197310877,
      0.8644402701621641,
      1.1869960942354065,
      0.8706735906395113,
      2.0183253288225407,
      1.372211095166922,
      0.7835223490027813,
      1.2644561748745116,
      1.2682417165861801,
      0.6887325029265281,
      1.071465748423369,
      0.5303031689169199,
      1.126656061351021,
      0.9809006164302734,
      0.38709698778822293,
      -0.061711865006665034,
      0.6891473978290131,
      0.25741017122198345,
      0.25168796672902644,
      0.6957869779559812,
      1.0047941641297042,
      -0.24198944056225305,
      -1.2702467905939618,
      1.6853862990382373,
      0.24146229838271252,
      0.05182812719447394,
      1.1353697782411731,
      0.3472700087203821,
      -0.3519683661405497,
      -0.3437360944184957,
      1.0800896582681843,
      0.9847266241675589,
      1.6560803202074352,
      -0.06765494804934331,
      -0.49517181440231456,
      0.28219533415175546,
      0.2376906409505677,
      -16.713313675560773,
      1.3919403939807007,
      0.2877312786977605,
      1.4276893140523927,
      0.5028432569403959,
      0.9988586596847484,
      0.951345666802773,
      1.1626966599210538,
      1.0987537658176556,
      0.27157808310316905,
      1.0643206385923805,
      0.102984578132105,
      1.6307682338047005,
      0.15663032122840326,
      -12.884703318808915,
      0.8004300067395576,
      1.190520622518429,
      -8.295246160434147,
      1.1548130677076067,
      0.9664454212375058,
      1.6723559868474984,
      2.0337305531306002,
      0.6074257092718289,
      1.457160293111331,
      -8.23773027485911,
      1.9933070343584598,
      1.0461938564547912,
      -6.571762818112448,
      1.0298141361049507,
      1.9659065410702112,
      1.1081354342025305,
      0.7791141973554971,
      1.0223893206053773,
      -1.350043266685312,
      0.6682323603457682,
      1.703413999499736,
      -6.8883856795155864,
      1.3965853702744648,
      -5.150744897492633,
      2.501690130874745,
      -4.800649940267225,
      1.7430637008094427,
      2.700732643013942,
      2.622579104643024,
      1.5616681585901968,
      2.2594294396956958,
      -6.806650467924669,
      1.09454100231117,
      1.5534572793193586,
      1.1641135595224692,
      1.4620744954520324,
      1.8918099722573989,
      2.249266262304205,
      1.2265412941297644,
      1.4496907748193573,
      0.7968788188422276,
      0.3785086646804333,
      1.4452458608849736,
      -9.31638380944418,
      1.7779693474620035,
      1.7953814970065736,
      1.396663321904881,
      1.3976305343277373,
      0.7089973348495212,
      -8.668495506778667,
      0.053721335120664016,
      1.823806322005396,
      1.82933788423221,
      1.0256082222987561,
      1.8457791651974382,
      -7.784792023043364,
      -4.239763485462982,
      1.4636315365219317,
      2.659867636502431,
      1.002071045981626,
      1.8113607081249508,
      1.0084275698391125,
      -1.5527503175429271,
      1.3655460600294338,
      1.7998759605675718,
      1.3350579562695586,
      1.0145308226918932,
      1.9165203550516678,
      1.0197950006967935,
      -6.995097122758374,
      1.3556280567411583,
      2.0441122669771437,
      1.8545652845719678,
      0.7169675730457835,
      1.3081770452684964,
      -8.29698323401983,
      -0.122017813429385,
      1.1706902077554795,
      0.7736858786645937,
      1.9964341707282207,
      0.9336967390665571,
      1.3215474375933582,
      0.7312801377664295,
      0.4091952591551417,
      0.9542534009664945,
      -8.96419567608686,
      -0.515447087464135,
      2.0380971086668067,
      2.0843499746285348,
      0.7809314167209152,
      0.013053608788571314,
      1.0294997680259927,
      0.3816918069471895,
      0.3729119113682799,
      -4.342305765694683,
      1.1123940540677664,
      0.5247336757041898,
      -1.3742317736664198,
      0.848162272306926,
      1.55538196459211,
      0.5050537446123023,
      1.4322999050254375,
      0.3245606455112457,
      1.9024364223222712,
      -1.5917214315692496,
      -0.039430773642975536,
      0.6239650637285405,
      0.9985790842211556,
      1.4213737180806774,
      1.3270612209906678,
      1.1499096306229224,
      0.5843933140073705,
      0.7693422740054194,
      0.1252523681741147,
      0.5835523530777582,
      0.44811207031043304,
      1.1068082516744333,
      0.318197778274794,
      1.0692993324492694,
      0.10351621365112647,
      1.0203003158272403,
      1.0000385874991384,
      -10.252174670456437,
      -0.7766826421627077,
      1.2939314057186084,
      0.7206408633983213,
      -1.7463837838162908,
      0.27985283777904096,
      0.7587513804120385,
      -9.938550598124332,
      0.6830489694559329,
      1.618147639762098,
      1.3575834847838733,
      1.459121027674059,
      1.074913397459638,
      0.7719304846072906,
      1.5367944190313296,
      0.8919442754308651,
      -9.928200324754117,
      -5.413520379943115,
      2.1345166659005996,
      1.354341679278867,
      1.813460118699462,
      1.6892135115954843,
      1.544488763250604,
      1.1702702550314852,
      0.9508137972232021,
      0.9077802570815897,
      1.3057438557131096,
      0.583986124897479,
      1.223828552928217,
      0.5000766174115836,
      0.679190245491873,
      1.0922780897005793,
      1.0376124607733463,
      0.8024022561672394,
      -10.06977547278955,
      0.48133871637759124,
      0.9740944775088773,
      -7.550315791263394,
      1.5706152321830744,
      1.019229951812762,
      -5.753068093515319,
      1.6443272208959319,
      1.2312224005952626,
      -5.4193943184242555,
      -1.9000160196448599,
      2.4045946010729793,
      1.9185026604274134,
      2.248808543194715,
      1.269850846090443,
      1.6142053496087818,
      1.3491085699079997,
      1.5766339731111736,
      1.3575181321211522,
      1.570484424838203,
      0.9658103469402732,
      1.3631793014228912,
      0.2907691237319666,
      1.1177958430773824,
      0.535228506283647,
      1.8267357148840075,
      0.8049908435172087,
      0.2360495816944976,
      0.8513716452990756,
      -2.7853572215944613,
      0.9634798897612521,
      1.5183108194520196,
      -5.857238867776318,
      0.9221553436308494,
      1.3807856859403063,
      1.1542318389232011,
      1.22843748334864,
      0.17336469117724412,
      0.3331790271682066,
      0.5968493281157126,
      0.08185458761704324,
      -1.3300324435821367,
      1.9220556264931585,
      1.1738451884413232,
      -0.6427844839335919,
      0.7702533630419682,
      0.3781724576733006,
      -0.07900219707060073,
      0.785230668824509,
      1.0525951584349793,
      0.7047317886421512,
      0.12981134337977457,
      0.7056004332622016,
      -0.2323401196170018,
      0.2799844982048369,
      0.7308193889239816,
      -1.6833236401863423,
      0.5822510860198102,
      -11.530450983070699,
      -1.6368058479266292,
      1.8757842865702747,
      0.6550081310550032,
      0.5128415368105794,
      1.4077005678676644,
      -1.8640769034414284,
      0.847665069158432,
      -2.961103852921295,
      1.2096863353964202,
      1.3882347860453041,
      0.44642269607397844,
      0.2139079677999267,
      0.8225477047147481,
      0.9911488808860877,
      0.43999828591466494,
      0.0812182566967338,
      0.6534342648787953,
      0.048192021083521816,
      0.5153787709261102,
      0.7658162857055759,
      0.4514033046173525,
      1.3771287515946955,
      0.9179448451285547,
      0.15210102546076038,
      1.2628341608828757,
      0.24156905178707544,
      0.27371890942761057,
      0.4783110003325535,
      1.2982757897166035,
      0.7972281816827935,
      0.7733068975302388,
      1.1350031372301697,
      -17.043545252192732,
      0.7617400990036112,
      0.4017908986203635,
      0.6279236885886539,
      1.6088715617283684,
      1.6704643191604411,
      -9.95363617863054,
      -6.583376707149892,
      1.238661491826219,
      1.7854453847850527,
      1.9196516627179274,
      2.279497934215279,
      1.5675161172022956,
      1.3603904175597499,
      1.9186369300782933,
      0.9983188080401353,
      0.9282065938159881,
      0.9489838497445418,
      -9.951316338253282,
      1.009181236731295,
      2.090871338809238,
      -6.707064729850272,
      1.8623295357652567,
      1.8392157563349403,
      0.9661720082953307,
      0.8061040020322188,
      1.4918038214189258,
      1.1561008382883855,
      1.372021756248809,
      1.1063218283345213,
      0.9543123522808894,
      0.6682410738692739,
      0.3479196710924973,
      0.3419707534886461,
      0.33695226957578195,
      0.7929772362243499,
      1.7384548969552804,
      0.25991398737278226,
      0.02487522821902989,
      -11.15264477768059,
      1.59557483862541,
      1.24729888904395,
      1.888386477719375,
      0.8043128914283693,
      0.7871007652879414,
      0.21630504834503936,
      1.7412020004849662,
      -0.510517678950176,
      0.44635417494299884,
      0.6686510262185452,
      0.6468908053485746,
      0.7004595891162001,
      0.7758608469788736,
      1.0602043520331388,
      0.4875972409810568,
      -0.6550014733280305,
      -11.087406674715883,
      0.5503920497099435,
      -7.949146388403092,
      1.2744774754855503,
      1.8827131197468208,
      1.0569762755806038,
      1.0691782289711127,
      1.6193599134905965,
      1.0838527620100797,
      0.608190700796419,
      -7.54231608826644,
      0.8361133717799196,
      2.295766500477086,
      1.3134224285313059,
      1.0548856604901922,
      1.4601414390018266,
      1.3137731370372572,
      0.7729274595594742,
      0.8036566620295319,
      0.7974997868682706,
      1.29033515473682,
      1.117665134936412,
      -9.253100173520089,
      0.5809625171670427,
      0.9918225207145338,
      1.5782489492222693,
      -8.078071527987799,
      2.14393064615776,
      1.6464003567853291,
      -0.051158131149949826,
      1.606338552541384,
      0.8305692066162339,
      0.5053771766828035,
      0.8170933847122408,
      -7.407087075043201,
      -5.171223053973224,
      -5.229045892518324,
      1.8540919328262842,
      -2.482957854966788,
      3.616493922831294,
      2.3272410695391175,
      3.2847944592253215,
      2.555119195188511,
      -5.460630124386797,
      2.3689604984001997,
      1.1966658103405396,
      -6.503284613659748,
      2.719793140220609,
      1.8376998707351522,
      1.064907025277832,
      1.8503776308427549,
      1.388382674723124,
      0.9767701890714849,
      1.8758319190408697,
      1.9823693109581046,
      0.5388155783146603,
      -7.848647793156515,
      2.5381170508808695,
      -6.977447733812458,
      2.2839835709508614,
      2.375233675007469,
      1.4327486114661234,
      1.02575782482638,
      0.8466483567097918,
      0.8114585950439895,
      -7.763062049546222,
      1.6776287195064106,
      1.4807353282869746,
      2.470839930844183,
      -6.1232773390271245,
      1.7017820505897272,
      2.5692285229286207,
      1.4967157095166757,
      1.1290182920546035,
      0.6260860115695852,
      1.5699880108903002,
      1.4781525938903604,
      0.9343848395110051,
      1.4502499382202252,
      1.7393668164389078,
      0.18024692773754836,
      0.3928761153249573,
      1.2833938736634187,
      0.3214796469291891,
      1.4026013895490435,
      0.6208881086084781,
      0.34019201703698276,
      0.7487080234855402,
      -10.768371876989924,
      1.444617870002352,
      0.45582960788004356,
      -7.788757519798792,
      0.7895863006904599,
      1.8178533635540792,
      1.7512005578492742,
      1.2429433555288496,
      0.4755260535931556,
      0.6750995498864986,
      0.7613492879732231,
      0.614347043933194,
      0.5953393631675143,
      1.5386420205730351,
      0.3002746617207868,
      1.052276677195194,
      0.3743804663823643,
      1.307753954899627,
      -10.651307641202424,
      1.6832448110390232,
      2.0447699283963683,
      -7.596242771451917,
      -4.622470936384997,
      1.2516551236198117,
      1.123917378292939,
      2.0764440846073464,
      -5.297436077699786,
      2.4509937840863167,
      2.4775327912662317,
      2.1464069630430047,
      0.9973928263824966,
      -6.414547221842099,
      1.6631416372170849,
      1.8168221089906857,
      1.3910614527882117,
      1.8889380509501652,
      -6.714457463898706,
      1.864337972521728,
      1.3640803926422318,
      1.2131617346668075,
      0.8106404726742616,
      -3.6630836019060937,
      0.8814191923210878,
      -5.412115721116369,
      -5.464751610286147,
      2.404002816552574,
      3.757001955327618,
      -4.747933408726697,
      2.416438566475521,
      -3.6683749309488993,
      3.3785008664286407,
      2.5072732337636103,
      1.3216717321895128,
      1.2397553013682743,
      2.423361775762931,
      -4.47024996518962,
      1.669990675507738,
      -5.3227384827491395,
      3.5221320256556985,
      2.8018210670436625,
      -7.0835156302514,
      2.4499496703530057,
      1.9641447920007202,
      1.4781065252650933,
      1.8885625862107858,
      1.4380734873624754,
      -6.495412401803736,
      2.3798513384317332,
      1.277153228575839,
      1.557383269720536,
      1.976221238317149,
      -7.591707129892627,
      1.23123029976923,
      2.2473758079753137,
      1.735856208559395,
      -5.762199825554763,
      2.526656200481611,
      2.1463507911707422,
      1.6285493251325338,
      -6.015522128526776,
      1.1707492593328928,
      1.1046553925168725,
      1.8669844617474267,
      1.2439668486144604,
      1.0056935182496112,
      2.00931680372369,
      -7.33555674317951,
      2.2609955862701456,
      1.146502514645681,
      1.2022752621846091,
      1.8975649153419476,
      0.8223517675888411,
      1.6610583749917909,
      1.2774659200008667,
      0.6764649053218562,
      -9.136064475557019,
      1.7772664171565815,
      2.086819782828552,
      1.6367242971953853,
      1.467321387837863,
      0.9790205385023337,
      0.7015713153626753,
      1.3579945750049132,
      0.8317359817442675,
      1.2184984112052943,
      0.8353580180227287,
      1.0945470507849746,
      0.2953546912242329,
      0.15423495439006718,
      1.153187567103214,
      1.0853240547977197,
      1.0185768462155347,
      -10.936159050093897,
      1.4295269192724407,
      0.9003091277473563,
      0.3164681907178755,
      0.7235000046923887,
      0.8532680974901146,
      0.989733453297033,
      0.5219525344651149,
      0.7999348338810405,
      1.220144950367689,
      0.23663430596335303,
      0.438785271247124,
      -1.9231029353511668,
      0.7448799236095643,
      0.6290098427896508,
      -10.425161749213103,
      0.7373090673130218,
      1.2888317676983372,
      -7.605346181264296,
      1.0626131480378527,
      1.0765959321014626,
      2.247657144877884,
      0.8889098744905034,
      -7.929096143259531,
      1.7645049685596108,
      1.976959202964351,
      1.6825411567533508,
      0.9957085530658629,
      -5.103141595585329,
      1.0417838586247508,
      0.9916486678097116,
      0.9244856318344887,
      1.7357211899881557,
      1.5928384554509425,
      0.9218915910091617,
      1.7619448446009915,
      -7.995931383918539,
      0.9845053330227924,
      -5.072513563545417,
      2.901600054396499,
      1.4454489942177773,
      2.2081278541028655,
      1.3747398100814312,
      1.7721996770708055,
      1.3498547936058667,
      1.5166319010666396,
      1.1624773811081917,
      1.4841534707422828,
      1.78032079851834,
      0.455276333179778,
      1.1222418173915092,
      0.32260375148407455,
      0.83554932503467,
      1.367207236596217,
      0.2673857043783272,
      1.566135886003006,
      1.2039397623692987,
      -11.454153850114597,
      -7.069111427503644,
      1.0302706413447804,
      1.2180057438665195,
      1.2132881090507053,
      1.1696607589598402,
      -5.985723439662605,
      2.476575243936393,
      -0.27397865055946047,
      -5.3089007352959925,
      1.474842270541848,
      1.1187790252944465,
      1.1098717235576105,
      2.2888974080886464,
      1.0078130554146503,
      1.3079565083566191,
      1.831900180564352,
      0.8921537128907925,
      -7.713747303031475,
      2.642343791782646,
      0.9938820156503015,
      1.475113100805843,
      1.2363674751682197,
      1.300348865475643,
      0.48966318753646204,
      0.7031673594097114,
      1.0249001890990042,
      1.773850918457265,
      0.8800057042491557,
      0.8429171109566044,
      1.301058161614248,
      0.5008630784161006,
      0.9091336303688887,
      -0.5299229311865926,
      0.9910681763958051,
      0.7375717920868863,
      1.2185941857590927,
      1.1962237316496167,
      -0.12543417857434647,
      -12.338113544554885,
      1.230215043847635,
      1.5399119615134655,
      0.418218819238716,
      0.36096220298213444,
      0.3168418525113536,
      1.3941280580431314,
      0.47004518720891747,
      0.8423471410243349,
      1.3171723855962576,
      0.2875316698829709,
      0.13369689055185277,
      1.2538627610960982,
      1.8089378355793084,
      1.6588958776398908,
      0.9339102730969614,
      1.4981125376198323,
      0.8529752656823523,
      -12.466868679961483,
      1.0023939197268312,
      0.9552795037284819,
      1.1852001751394317,
      1.075775656411236,
      1.1484625605410013,
      0.04407381799407099,
      0.7103287100846565,
      1.1186210283540026,
      0.35968172291939554,
      0.0991615391652528,
      0.5061415369618082,
      1.0245144559774353,
      0.47078822695402,
      0.43012808015451026,
      1.0903884591186963,
      0.2891001231991465,
      0.5942742674358656,
      1.0503086478907895,
      0.041067515938993854,
      0.9332185770183088,
      1.2216201049135145,
      0.21952127631327983,
      -0.08688785174121995,
      1.5757521158725591,
      0.7850814104326269,
      -0.652035866144218,
      0.7999741533847942,
      -0.26998109838941237,
      1.1867500274462788,
      -0.10026252810737282,
      -0.11184528789532704,
      0.34248224626616175,
      0.7518821831740115,
      0.3113722208590515,
      -0.27291447800814467,
      0.8669705527115755,
      -0.4959538517000563,
      -0.031192704271477353,
      1.410302058528052,
      1.318174499202409,
      -11.49542961600573,
      0.9525538877578426,
      -14.342831972620658,
      1.6504193873118551,
      -0.20881171310741498,
      0.8124800802635448,
      0.9706779759920398,
      1.2166708906262889,
      1.1467736899318377,
      1.079908618411503,
      0.19457646327947087,
      1.437818615585452,
      0.8345340550861108,
      0.668523776471081,
      0.0618134696207383,
      -0.1253831420683521,
      0.3205503037215462,
      0.8720450704401219,
      0.3570585434457552,
      -12.447425504747514,
      0.8302898264899408,
      -7.826970018514082,
      1.0930380833953761,
      0.7942632240201267,
      2.217724497603173,
      1.2347290485390783,
      1.1658616040378744,
      -8.258998146063142,
      2.140667819299046,
      0.7393083197636929,
      -6.2146914815644125,
      2.2236404830276353,
      1.1046441836135639,
      3.1408679686368965,
      1.3284743346459147,
      0.6304384440737368,
      1.2360846474495297,
      0.6794348585198409,
      1.4409711157650074,
      -7.818030466401939,
      0.9450315197016902,
      1.4792666014439761,
      2.163978216159995,
      -7.607413026408922,
      1.9858621500523397,
      2.0850431327818733,
      2.1131271382208396,
      0.5415958284852375,
      1.929565129509301,
      1.7588826144320118,
      0.2988684545343644,
      1.1655207627180146,
      1.2248468497962866,
      0.6387332755248613,
      -8.809869562594892,
      1.5509572388423232,
      1.2151684224051928,
      -7.0935715363577625,
      1.3304330275358516,
      0.947637823402805,
      0.9046930481224135,
      2.0791029968166868,
      1.627423901931431,
      1.5324145755813188,
      -8.06946633598729,
      0.45056376629976647,
      1.3231790577086886,
      1.3092366850836568,
      1.0084868239890838,
      1.377341894242468,
      1.094308506490972,
      1.037724632737876,
      -7.9423961334216875,
      -5.446433564201847,
      2.478571157689464,
      -4.29821749181688,
      2.662037215323009,
      -4.6130418172710215,
      2.302388172520011,
      2.623026829295173,
      1.51176427100032,
      1.8695547818942984,
      0.8999278504963433,
      2.0992577255282554,
      1.8049818567541862,
      2.1619472524112915,
      1.466934203395905,
      0.9184471904451231,
      0.9868577200576233,
      1.285676640832941,
      0.7566831899582473,
      1.1853824801642063,
      0.31580591184967943,
      1.2317518664503861,
      0.03502247939373925,
      0.6309022202818019,
      0.2270292177271115,
      0.8820002837224025,
      0.5540785094301223,
      0.7654355984448531,
      0.2839084924117735,
      -13.19586748389815,
      1.4732623195883856,
      1.134826406757213,
      1.1335198753172737,
      0.7454882399972514,
      0.8019853018613398,
      0.9605256104489803,
      0.9194773927645589,
      1.4336871779771092,
      1.0843534439409053,
      0.6782832821276575,
      1.0998754199464322,
      0.7600637690756712,
      1.019574488096317,
      0.9720778506424624,
      -11.79003664829733,
      1.5274933676014335,
      0.9555711827602007,
      0.6713046282752184,
      0.4277845600266145,
      0.666028096651056,
      0.8982310364188751,
      0.34147401263483873,
      0.44723900249727033,
      -10.295235451641622,
      1.3378952799269235,
      1.2562597054764184,
      0.8605055802855025,
      1.5244299497368607,
      1.3321141518315185,
      1.2486400476537345,
      0.3392728537092414,
      0.7685802520219935,
      0.7083497947170336,
      0.6584982375385715,
      0.06451251471012609,
      0.5229104676780426,
      0.8726976918332353,
      1.7239394524946732,
      1.3268205779473605,
      0.46107221324489245,
      -12.55178093693369,
      1.3709895065249562,
      1.0580296971156093,
      -0.08342206420310783,
      1.0104228074972739,
      0.9108378111097521,
      1.1762985295037065,
      -8.744314422550897,
      0.8476073443722228,
      1.0367986491808407,
      1.6128658263653433,
      1.652128287363709,
      0.3540793753672934,
      -7.862484829928525,
      0.9789193328168352,
      2.235934734231678,
      1.1704556139618216,
      0.511403337402155,
      0.788970489820878,
      -1.3967669549008037,
      1.9778832201269678,
      1.7989551621909479,
      0.8866554595221509,
      1.1687904361981067,
      0.8374578712115586,
      0.1407015436292634,
      0.8367834749988924,
      0.4001955045822295,
      0.4150255478154231,
      0.40680050597622375,
      0.6346304858575283,
      0.585957610497152,
      0.5830511346239885,
      0.7715373246130217,
      0.7439038931483372,
      0.04202458476924399,
      0.5636564477256276,
      0.09943644511913911,
      0.08467719682058135,
      -11.328957602322765,
      1.4825985102989057,
      0.885525124278361,
      1.3510271046192923,
      -10.15560694842138,
      1.9437864546296437,
      0.8617198017675534,
      0.891578290510133,
      1.7128669259936713,
      0.6778123309553031,
      0.6529452263982923,
      0.29829924748727366,
      1.4359195952376496,
      1.3398777420110226,
      1.6679289281790597,
      0.7602773634578276,
      -9.738579445531014,
      0.8119818191114256,
      0.985533115524695,
      1.094290141362515,
      0.3163601317601667,
      1.1557659770786401,
      0.2706810993970908,
      0.9186636984552785,
      1.077951654852831,
      0.19989149715199628,
      0.9879648834971321,
      0.5607577760783692,
      0.3980496683600047,
      1.9630134422739254,
      0.6442489244795826,
      1.174997293335583,
      0.7257973078067771,
      -12.625744170546605,
      0.6623123807351139,
      1.4776756985491715,
      0.6142285566723467,
      0.6023322581431529,
      1.4232130956661897,
      -10.02657418929766,
      2.0346705149808635,
      1.166966346157834,
      1.1022158758854084,
      0.7202731042009168,
      1.4434836942379463,
      0.5999535164727222,
      -7.8033999070174325,
      1.3759718470966587,
      -5.552703703225256,
      1.5185128219904442,
      -1.1440830945808582,
      -5.771332539107179,
      3.5275441800259904,
      1.2910260245904848,
      2.321353127794199,
      2.10894851733006,
      0.8659017202218882,
      1.974499816522315,
      1.9689455515969898,
      1.2482115887455199,
      0.44913737360030465,
      -5.730317061038031,
      -6.332996366642284,
      2.1252048179366647,
      -4.483143760823311,
      -3.2785201578955236,
      -4.288299806482842,
      4.039338318800271,
      3.7893730972577973,
      2.8418725322068785,
      2.5007850770556943,
      1.3058456570771364,
      2.6984894190534248,
      0.9891339603017059,
      2.0845709927399905,
      1.0301936018887048,
      0.670660089396642,
      0.7186480274407974,
      1.5606218136488608,
      -9.458240919541844,
      -4.924712728253248,
      2.645893840518353,
      2.157933573489162,
      0.8247936144283672,
      0.8127259484312939,
      1.0526940424980062,
      1.2889587755274217,
      1.63780330690302,
      1.0499047666949486,
      1.3477170847096787,
      0.9984190733598245,
      -8.264603785651074,
      1.9980882086120797,
      -6.776814410579491,
      -1.1511620043707635,
      1.1503137790442903,
      -2.070929007396741,
      1.3507342066654198,
      1.9399463720550403,
      2.2576954765807327,
      1.4942116609676863,
      1.0446837445109658,
      -1.3639903573527365,
      2.41209339934927,
      1.361371396899526,
      1.0850332038115187,
      1.5152551733284645,
      1.6573805282264593,
      -8.178573830274688,
      1.6884347163856879,
      1.0835456212598094,
      0.8844654562989387,
      0.5287008536743826,
      0.5150845710528746,
      2.0394192575852217,
      1.4573454014870548,
      0.9902848152624314,
      0.5774980833939897,
      1.4800847667577055,
      1.3765014679138468,
      0.6705109897531061,
      1.1126019159858564,
      0.2515142283924951,
      0.6971566001108552,
      0.34340436393317103,
      0.5024246047377829,
      0.6694353647224898,
      1.073000916635093,
      -0.1794351111811923,
      1.2625190283752419,
      -12.69147849710397,
      1.8102882783464105,
      -8.019501981244439,
      1.6367291675590676,
      0.8769150184980397,
      1.4828166741548314,
      0.8855216562426848,
      1.0772425616787453,
      1.28879517108867,
      0.30091385316607644,
      1.480602638189171,
      0.21320587045765277,
      0.7256720977384398,
      1.6413204686957763,
      0.2260213167829694,
      0.2228583707364511,
      0.22139132765846073,
      0.8293633939028543,
      0.6153084262063759,
      0.013549746344026607,
      0.5960369614716763,
      0.8022885872905287,
      -12.713958574710816,
      0.19004838811857827,
      1.2438592634467867,
      0.7686334393873406,
      0.765228872702948,
      0.8533818159653029,
      -0.3474240050978329,
      1.1894810668301705,
      1.127092389901902,
      -9.722653704906811,
      1.8543273867080692,
      1.6953608954492363,
      1.373939368750221,
      0.5284582740034335,
      -8.767743649015546,
      1.9738675241330907,
      2.2919467357464556,
      1.1204228902013367,
      1.2476200641993451,
      0.9286726494637787,
      1.4145246909533231,
      0.5027782799546018,
      0.8831172975128023,
      1.2973705538168903,
      0.24920928928838967,
      0.5065610611072692,
      0.9574356048114812,
      0.9084029149391893,
      1.1808556391275877,
      0.6173004037952062,
      1.1073197720324133,
      0.5553992299845341,
      1.3248682389012474,
      0.4652384565753861,
      0.6382741251240586,
      0.15136145157274772,
      0.10578163194923407,
      1.326874448537137,
      -6.81529986230697,
      1.4310362095893663,
      0.5638757935053101,
      1.3412250991662453,
      1.5106628387453034,
      0.5703738870001991,
      1.1510670129518403,
      -0.12051794638216616,
      0.8536699050223617,
      -1.765068621645265,
      0.3601464326410414,
      1.2148374530882413,
      0.5090064431486832,
      1.4283098512399157,
      0.7293185017661727,
      -2.3532958242697943,
      1.0799343664531806,
      0.4182528379520033,
      0.7465751826105468,
      -13.316087850795379,
      0.2701251634124944,
      1.6921502009343405,
      0.7327282437355525,
      0.3452348902996714,
      1.2300808854966732,
      1.0206942837799355,
      -0.6089599757723589,
      1.0135688572814112,
      1.0792463014972666,
      0.13118876971635623,
      0.48063558698246955,
      -11.121238019145931,
      1.8909535993070963,
      0.5363001011494158,
      -0.19512045274908862,
      -8.094746614170084,
      -5.119934050132428,
      1.179270481220096,
      1.9290692000120049,
      1.001753123667983,
      1.5027001799718653,
      2.4412844376918685,
      2.175708282520213,
      1.485754805424932,
      0.43162451469525126,
      -1.3232965468111684,
      0.6668688956343355,
      1.4313732670449402,
      -8.633489096437273,
      1.2668677902193979,
      1.0643973599091787,
      1.4124277052514518,
      1.5890194558576318,
      1.0216052407325578,
      1.3218979340507055,
      -8.123247357339128,
      -6.2289373152019225,
      1.3635689941770814,
      -3.777809410394754,
      2.420818562095872,
      1.8127232299273435,
      1.632202267265506,
      2.318366016911521,
      1.7610318274689312,
      1.9286075321893987,
      1.190869658675422,
      1.1226587094183273,
      1.5804871311230497,
      0.8266161334041782,
      1.4620871180619026,
      -3.872112338130587,
      1.6290099801286995,
      0.6335347064762439,
      2.0305600621119058,
      1.4358508533489407,
      1.2552003067498394,
      0.486850430014566,
      -9.555715792370215,
      1.5985270986718139,
      0.5460658292963092,
      0.595897724259783,
      -0.35787207812110455,
      2.045241565891622,
      -0.42684250599919465,
      1.445089604792226,
      1.3207543223244582,
      0.48198902591443005,
      0.4161021960790352,
      0.9931507378655914,
      -9.516127737852722,
      1.7031126822113039,
      1.5691169164462029,
      1.4522014539799504,
      1.3563326729389968,
      1.2708814099452044,
      0.528517307198403,
      0.37218136554234976,
      -8.986588177426217,
      1.7445451222486352,
      0.5716147751963571,
      1.2439479310315011,
      0.6798786373577022,
      0.7614512077350003,
      1.379996475997711,
      1.055352982808956,
      1.772770906609188,
      0.17365333791592263,
      1.194236653040947,
      1.213259393528721,
      1.3096372414898334,
      0.5151595072409656,
      -10.55854050749266,
      0.5632120533418293,
      0.859116238013237,
      1.385078767918594,
      1.0454730883134702,
      0.8084630164717735,
      1.1957593846157086,
      0.7362749963972889,
      -9.136741439377074,
      1.0778032981503338,
      0.7794472470172255,
      0.7571256130281809,
      1.9987688716825798,
      -7.419382387109418,
      1.4008817689576258,
      1.4410839454960869,
      1.6303454468392655,
      1.49731492876989,
      1.1263892383629817,
      -4.645381929985042,
      0.937657827060296,
      1.5713406128113048,
      1.0230840112612398,
      -7.292764624036868,
      1.3975844563676545,
      0.9979714807298968,
      1.7452461960011243,
      1.1581936439156164,
      2.018387027686149,
      -7.894888575931299,
      0.885148885680491,
      1.8327708808782208,
      0.9214609928999694,
      1.6211705796212796,
      1.1101012330334676,
      -6.748902587009971,
      1.6832142905410181,
      1.3814712857746145,
      1.0729997414915262,
      0.8309828255878577,
      0.9852498648854063,
      -1.8787423648762227,
      1.8115669481123258,
      -7.15749324606613,
      2.637848414306547,
      1.2131223532772444,
      1.2731031893885851,
      1.9397160115902818,
      1.9975610441092444,
      0.39692210958307933,
      -8.3127571822745,
      1.4230209182599787,
      -5.434117273608046,
      2.385721414562308,
      1.3118897629501358,
      -5.097700054022885,
      0.9108206103601637,
      -4.284047423156869,
      1.9506213997237714,
      -3.7508190572992994,
      -2.1513901562534405,
      3.3129723490547893,
      1.2360552765986452,
      3.2862305315171967,
      2.9328503718681715,
      1.6209262740799215,
      2.315223362209165,
      1.147062848631012,
      1.0930376414148157,
      2.0561299211850557,
      1.3013632623330962,
      0.8105091411281844,
      1.1575550214071795,
      1.6859645529564524,
      1.5347058632470525,
      1.4253325520143845,
      1.3456626764340427,
      1.3531641842977025,
      0.4454808648058643,
      0.4182357094332168,
      0.864745110029054,
      -1.9970358672291835,
      0.438693484470217,
      0.6016840267476539,
      0.5990470138208744,
      0.6818528696603646,
      0.2340554578239208,
      0.6406030654883254,
      0.5403036485207355,
      0.608566337438584,
      -0.14859872248341052,
      0.7085076945508295,
      0.8710194894487029,
      0.46423056039164096,
      2.896767835438653,
      1.6605938692403877,
      0.8300534986802609,
      -0.34486561820889916,
      -0.451215722772726,
      -1.3992868617606962,
      0.9578640630722318,
      0.8960693013798465,
      0.8695758595674501,
      -14.991050723400761,
      1.2632009115201508,
      0.5586181535693128,
      0.5434393979172454,
      1.3038153046026308,
      0.6504361440110246,
      0.07404104032071565,
      1.1761944702336748,
      -11.159123465879638,
      1.276627570129988,
      1.07462471443179,
      1.0159807225545197,
      1.8429050014395507,
      -7.842416058455781,
      0.9249193094824071,
      1.6702174721381104,
      0.8971275693588604,
      0.681306500236944,
      -6.909865111470059,
      1.263789176779789,
      1.915560594774395,
      -1.4270745132795155,
      1.0020832135424953,
      -6.3961110789889055,
      1.1936131383080388,
      1.9482146141554726,
      2.04533437410731,
      0.8605760489594524,
      1.8306111432180125,
      0.8285182741041756,
      2.9172017365146847,
      0.7557219676321376,
      1.3494626965528191,
      -1.4775613417302413,
      -8.284654865825997,
      0.8793771751152065,
      1.1254378827318765,
      0.20304075428145718,
      1.1140071574215824,
      1.6982914951565653,
      0.7882964968472177,
      1.8547773405881545,
      1.9296200666551342,
      1.013667673647934,
      0.029109496998656725,
      0.9435544919172837,
      0.4253505468171239,
      0.906652507162922,
      0.1629635201940808,
      1.4568256275606928,
      1.5967321293264205,
      0.26987390263119526,
      0.8230784831956889,
      0.41768947476797325,
      0.9965804752689457,
      0.19967670581284586,
      0.2932773872052607,
      1.0969407930774933,
      0.08953942384281813,
      0.6293981176480088,
      0.6129919711404518,
      -0.31809512890283365,
      -0.04068072964904793,
      0.28900818315819776,
      1.0798469264713368,
      0.06227123883997374,
      0.7889034873052606,
      0.0849480111283829,
      -2.978808514184425,
      1.0566988896980283,
      0.6577723109736762,
      1.020944380330626,
      -14.922110311745605,
      1.6600813897941182,
      1.272254959146934,
      0.7391066986125739,
      0.6860901898083422,
      1.1684928866218696,
      0.7967848727819047,
      -10.569725049877409,
      0.9243339850174771,
      1.9627795502481944,
      1.1440266099704506,
      -0.6287048987505598,
      1.3214287482823261,
      0.9595696674891739,
      1.1955578777321652,
      0.35752857382008285,
      0.4562964051694557,
      0.15021637200204174,
      -9.98829048709216,
      1.0282358826452365,
      2.0850555764196903,
      1.4159843022770986,
      1.0431783573291216,
      0.30675372478892676,
      -3.433102878583469,
      -8.07160611111933,
      1.6754948912117276,
      1.8403755413378844,
      0.9712238963301165,
      1.0906143335061058,
      2.072524234607895,
      0.9577011116218214,
      0.8342829069536006,
      0.4432205488274991,
      1.3352648761532304,
      0.4362987038859919,
      1.2666617744579052,
      0.550188327873754,
      -1.610037550043075,
      -9.806148640361675,
      1.6911290366271812,
      1.0888005149400475,
      -1.107696242309307,
      0.6300882491628601,
      1.5453315757517376,
      0.6720833797835736,
      0.8261514701111892,
      0.5381272339868887,
      1.4066765372927135,
      0.35840881319433365,
      -8.29752587563992,
      1.3422013259551475,
      0.9425333124999749,
      1.2788438996547427,
      0.8258006463816441,
      0.8919407547208578,
      0.6060886967068987,
      2.089712799851219,
      1.396603169850767,
      -7.940989106638424,
      1.257440539987857,
      0.6703469301223081,
      1.3345672298508298,
      1.5160089251130984,
      1.1506426101994471,
      0.5370245280550221,
      -8.102765799054062,
      1.5320326997907963,
      1.7982878182120858,
      0.7375283471828464,
      1.5264637944312918,
      1.0368536790114786,
      0.7434453391865703,
      1.3778505208039848,
      1.2831126571461942,
      -8.6651776552978,
      -5.7591287353322755,
      2.304079159166615,
      1.9744816817079487,
      1.50294723852805,
      1.1456541778719262,
      -1.2145093495276893,
      0.8777947536957368,
      1.632923128834296,
      1.2327710709821886,
      0.4984108174273422,
      1.536784386243699,
      1.5886422729640317,
      0.7978933401918733,
      1.1588463334734307,
      1.0933498092959284,
      0.38215584764340804,
      0.31303408172131675,
      -10.038246272399288,
      1.0274643621862554,
      0.9852073214844426,
      1.473889840108534,
      0.9346311345282851,
      1.3343770124047356,
      1.2261304824792068,
      1.079977110589545,
      1.4367351870614107,
      -9.659951298962037,
      1.2616441947977437,
      -6.537886301037973,
      2.4626852170891453,
      1.4329950744425626,
      1.861659665313264,
      -6.370908890809351,
      1.2171713064369438,
      1.600517725435506,
      2.026644891761129,
      1.1284428363660592,
      1.0681741622944356,
      1.7286737187311623,
      0.31161315595961414,
      0.3891369971743176,
      1.0829965047451477,
      0.3884241976269021,
      0.8443189230862638,
      0.8367548358028704,
      1.5365758339980973,
      1.169228828524533,
      1.1066638761279692,
      1.5423530045185176,
      -10.378338061841795,
      1.4018994262866056,
      1.5414933341595605,
      1.28065787905655,
      1.1272889896159224,
      0.6584383177023846,
      0.4385652477962275,
      0.258464687659497,
      1.089368505626981,
      0.7468141781002664,
      0.01408667545948806,
      -9.898366586040684,
      1.7108528435104737,
      1.3378361743101785,
      1.0399052284581265,
      -8.280968924274624,
      1.4268445717280143,
      1.3365260995312753,
      0.7628578297948275,
      1.0453654189264914,
      0.48516318894695465,
      1.0086447782893166,
      -7.732090056714532,
      -5.353786427355555,
      2.099146809488315,
      1.8998569275380794,
      2.0512697123306105,
      -6.836326663689397,
      3.0190363430816567,
      1.6111853498923816,
      1.1054903183647014,
      -5.687297629069685,
      1.8569176267737892,
      1.108654882682213,
      1.9220506275324778,
      1.628878007638829,
      0.8028220421672698,
      1.4821350018658968,
      1.8406221664721354,
